<?xml version="1.0" encoding="utf-8"?>
<Root>
  <ActivationFunctions>
    <Fn id="0" name="Linear" prob="0.1" />
    <Fn id="1" name="BipolarSigmoid" prob="0.3" />
    <Fn id="2" name="Gaussian" prob="0.3" />
    <Fn id="3" name="Sine" prob="0.3" />
  </ActivationFunctions>
  <Networks>
    <Network id="1" birthGen="0" fitness="0">
      <Nodes>
        <Node type="bias" id="0" fnId="0" />
        <Node type="in" id="1" fnId="0" />
        <Node type="in" id="2" fnId="0" />
        <Node type="in" id="3" fnId="0" />
        <Node type="out" id="4" fnId="0" />
        <Node type="out" id="5" fnId="0" />
        <Node type="out" id="6" fnId="0" />
        <Node type="out" id="7" fnId="0" />
        <Node type="out" id="8" fnId="0" />
      </Nodes>
      <Connections>
        <Con id="9" src="0" tgt="4" wght="-4.7326415570452749" />
        <Con id="10" src="0" tgt="5" wght="-1.4035171992267925" />
        <Con id="11" src="0" tgt="6" wght="0.033009634390505083" />
        <Con id="13" src="0" tgt="8" wght="2.7757728120935576" />
        <Con id="14" src="1" tgt="4" wght="4.7499591128667342" />
        <Con id="15" src="1" tgt="5" wght="-2.2241210376777634" />
        <Con id="16" src="1" tgt="6" wght="-2.1662808964201794" />
        <Con id="17" src="1" tgt="7" wght="1.2265685114652036" />
        <Con id="18" src="1" tgt="8" wght="-4.8496346358145823" />
        <Con id="19" src="2" tgt="4" wght="4.5276905177222524" />
        <Con id="20" src="2" tgt="5" wght="2.6727625138341917" />
        <Con id="21" src="2" tgt="6" wght="-4.2893761567443791" />
        <Con id="23" src="2" tgt="8" wght="4.3436190812568141" />
        <Con id="24" src="3" tgt="4" wght="1.736401877996836" />
        <Con id="27" src="3" tgt="7" wght="-1.9848821755144086" />
        <Con id="28" src="3" tgt="8" wght="3.6976801464593878" />
      </Connections>
    </Network>
  </Networks>
</Root>