<?xml version="1.0" encoding="utf-8"?>
<Root>
  <ActivationFunctions>
    <Fn id="0" name="Linear" prob="0.1" />
    <Fn id="1" name="Sine" prob="0.1" />
    <Fn id="2" name="ArcTan" prob="0.1" />
    <Fn id="3" name="BipolarGaussian" prob="0.1" />
    <Fn id="4" name="BipolarSigmoid" prob="0.1" />
    <Fn id="5" name="LogisticFunction" prob="0.1" />
    <Fn id="6" name="QuadraticSigmoid" prob="0.1" />
    <Fn id="7" name="TanH" prob="0.1" />
    <Fn id="8" name="ArcSinH" prob="0.1" />
    <Fn id="9" name="ReLU" prob="0.1" />
  </ActivationFunctions>
  <Networks>
    <Network id="3" birthGen="0" fitness="0">
      <Nodes>
        <Node type="bias" id="0" fnId="0" />
        <Node type="in" id="1" fnId="0" />
        <Node type="in" id="2" fnId="0" />
        <Node type="in" id="3" fnId="0" />
        <Node type="out" id="4" fnId="0" />
        <Node type="out" id="5" fnId="0" />
        <Node type="out" id="6" fnId="0" />
        <Node type="out" id="7" fnId="0" />
        <Node type="out" id="8" fnId="0" />
      </Nodes>
      <Connections>
        <Con id="9" src="0" tgt="4" wght="2.1268613293983032" />
        <Con id="10" src="0" tgt="5" wght="2.3881307589153886" />
        <Con id="11" src="0" tgt="6" wght="-3.5596136466067838" />
        <Con id="12" src="0" tgt="7" wght="-4.3567139780868471" />
        <Con id="13" src="0" tgt="8" wght="4.8502218488030637" />
        <Con id="14" src="1" tgt="4" wght="-1.9016234696360668" />
        <Con id="15" src="1" tgt="5" wght="4.1543283112913132" />
        <Con id="16" src="1" tgt="6" wght="4.8793205861933595" />
        <Con id="17" src="1" tgt="7" wght="-3.7264997173816807" />
        <Con id="18" src="1" tgt="8" wght="3.6101422666258074" />
        <Con id="19" src="2" tgt="4" wght="-2.8842329224045429" />
        <Con id="20" src="2" tgt="5" wght="2.5965307985453068" />
        <Con id="21" src="2" tgt="6" wght="0.82272274878882" />
        <Con id="22" src="2" tgt="7" wght="-2.095123009218447" />
        <Con id="23" src="2" tgt="8" wght="1.3459250770266296" />
        <Con id="24" src="3" tgt="4" wght="4.6598815807704419" />
        <Con id="25" src="3" tgt="5" wght="2.2560187416115731" />
        <Con id="26" src="3" tgt="6" wght="3.5760335804815013" />
        <Con id="27" src="3" tgt="7" wght="-3.555750249637859" />
        <Con id="28" src="3" tgt="8" wght="2.167253749276691" />
      </Connections>
    </Network>
  </Networks>
</Root>