<?xml version="1.0" encoding="utf-8"?>
<Root>
  <ActivationFunctions>
    <Fn id="0" name="Linear" prob="0.1" />
    <Fn id="1" name="Sine" prob="0.1" />
    <Fn id="2" name="ArcTan" prob="0.1" />
    <Fn id="3" name="BipolarGaussian" prob="0.1" />
    <Fn id="4" name="BipolarSigmoid" prob="0.1" />
    <Fn id="5" name="LogisticFunction" prob="0.1" />
    <Fn id="6" name="QuadraticSigmoid" prob="0.1" />
    <Fn id="7" name="TanH" prob="0.1" />
    <Fn id="8" name="ArcSinH" prob="0.1" />
    <Fn id="9" name="ReLU" prob="0.1" />
  </ActivationFunctions>
  <Networks>
    <Network id="5" birthGen="0" fitness="0">
      <Nodes>
        <Node type="bias" id="0" fnId="0" />
        <Node type="in" id="1" fnId="0" />
        <Node type="in" id="2" fnId="0" />
        <Node type="in" id="3" fnId="0" />
        <Node type="out" id="4" fnId="0" />
        <Node type="out" id="5" fnId="0" />
        <Node type="out" id="6" fnId="0" />
        <Node type="out" id="7" fnId="0" />
        <Node type="out" id="8" fnId="0" />
      </Nodes>
      <Connections>
        <Con id="9" src="0" tgt="4" wght="3.9039734332790408" />
        <Con id="10" src="0" tgt="5" wght="-1.1460191605312142" />
        <Con id="11" src="0" tgt="6" wght="2.9709711310797324" />
        <Con id="12" src="0" tgt="7" wght="-2.5009475128221395" />
        <Con id="13" src="0" tgt="8" wght="-1.8698208619433365" />
        <Con id="14" src="1" tgt="4" wght="0.97765717158595611" />
        <Con id="15" src="1" tgt="5" wght="0.70521755016273779" />
        <Con id="16" src="1" tgt="6" wght="-4.2805501620302078" />
        <Con id="17" src="1" tgt="7" wght="-4.4052882208943833" />
        <Con id="18" src="1" tgt="8" wght="-1.4672048842147434" />
        <Con id="19" src="2" tgt="4" wght="4.360172839943111" />
        <Con id="20" src="2" tgt="5" wght="0.78384643510040708" />
        <Con id="21" src="2" tgt="6" wght="-4.696512393934321" />
        <Con id="22" src="2" tgt="7" wght="-1.239833639963841" />
        <Con id="23" src="2" tgt="8" wght="-0.023388138223908728" />
        <Con id="24" src="3" tgt="4" wght="-4.2950322819018227" />
        <Con id="25" src="3" tgt="5" wght="-3.3531538924039053" />
        <Con id="26" src="3" tgt="6" wght="-1.165423843112815" />
        <Con id="27" src="3" tgt="7" wght="3.959048060124104" />
        <Con id="28" src="3" tgt="8" wght="4.6306767872158785" />
      </Connections>
    </Network>
  </Networks>
</Root>