<?xml version="1.0" encoding="utf-8"?>
<Root>
  <ActivationFunctions>
    <Fn id="0" name="Linear" prob="0.1" />
    <Fn id="1" name="Sine" prob="0.1" />
    <Fn id="2" name="ArcTan" prob="0.1" />
    <Fn id="3" name="BipolarGaussian" prob="0.1" />
    <Fn id="4" name="BipolarSigmoid" prob="0.1" />
    <Fn id="5" name="LogisticFunction" prob="0.1" />
    <Fn id="6" name="QuadraticSigmoid" prob="0.1" />
    <Fn id="7" name="TanH" prob="0.1" />
    <Fn id="8" name="ArcSinH" prob="0.1" />
    <Fn id="9" name="ReLU" prob="0.1" />
  </ActivationFunctions>
  <Networks>
    <Network id="2" birthGen="0" fitness="0">
      <Nodes>
        <Node type="bias" id="0" fnId="0" />
        <Node type="in" id="1" fnId="0" />
        <Node type="in" id="2" fnId="0" />
        <Node type="in" id="3" fnId="0" />
        <Node type="out" id="4" fnId="0" />
        <Node type="out" id="5" fnId="0" />
        <Node type="out" id="6" fnId="0" />
        <Node type="out" id="7" fnId="0" />
        <Node type="out" id="8" fnId="0" />
      </Nodes>
      <Connections>
        <Con id="9" src="0" tgt="4" wght="-2.5824616558417643" />
        <Con id="10" src="0" tgt="5" wght="-3.9006411278504238" />
        <Con id="11" src="0" tgt="6" wght="1.028310896372554" />
        <Con id="12" src="0" tgt="7" wght="-3.0569388227536685" />
        <Con id="13" src="0" tgt="8" wght="0.266470610702072" />
        <Con id="14" src="1" tgt="4" wght="-2.3750780348331144" />
        <Con id="15" src="1" tgt="5" wght="3.7683871340056418" />
        <Con id="16" src="1" tgt="6" wght="-3.7163901573040583" />
        <Con id="17" src="1" tgt="7" wght="2.0077950958055393" />
        <Con id="18" src="1" tgt="8" wght="-4.2069530301968019" />
        <Con id="19" src="2" tgt="4" wght="3.37553623799404" />
        <Con id="20" src="2" tgt="5" wght="-1.2517471085930354" />
        <Con id="21" src="2" tgt="6" wght="0.35875394062808152" />
        <Con id="23" src="2" tgt="8" wght="0.54913125025978893" />
        <Con id="24" src="3" tgt="4" wght="4.01072709549401" />
        <Con id="25" src="3" tgt="5" wght="0.16755345180351711" />
        <Con id="26" src="3" tgt="6" wght="2.9771954050511171" />
        <Con id="27" src="3" tgt="7" wght="0.84017307988984435" />
        <Con id="28" src="3" tgt="8" wght="4.5372029713177859" />
      </Connections>
    </Network>
  </Networks>
</Root>