<?xml version="1.0" encoding="utf-8"?>
<Root>
  <ActivationFunctions>
    <Fn id="0" name="Linear" prob="0.1" />
    <Fn id="1" name="Sine" prob="0.1" />
    <Fn id="2" name="ArcTan" prob="0.1" />
    <Fn id="3" name="BipolarGaussian" prob="0.1" />
    <Fn id="4" name="BipolarSigmoid" prob="0.1" />
    <Fn id="5" name="LogisticFunction" prob="0.1" />
    <Fn id="6" name="QuadraticSigmoid" prob="0.1" />
    <Fn id="7" name="TanH" prob="0.1" />
    <Fn id="8" name="ArcSinH" prob="0.1" />
    <Fn id="9" name="ReLU" prob="0.1" />
  </ActivationFunctions>
  <Networks>
    <Network id="1" birthGen="0" fitness="0">
      <Nodes>
        <Node type="bias" id="0" fnId="0" />
        <Node type="in" id="1" fnId="0" />
        <Node type="in" id="2" fnId="0" />
        <Node type="in" id="3" fnId="0" />
        <Node type="out" id="4" fnId="0" />
        <Node type="out" id="5" fnId="0" />
        <Node type="out" id="6" fnId="0" />
        <Node type="out" id="7" fnId="0" />
        <Node type="out" id="8" fnId="0" />
      </Nodes>
      <Connections>
        <Con id="9" src="0" tgt="4" wght="-2.8646024862455222" />
        <Con id="10" src="0" tgt="5" wght="4.5735541162919535" />
        <Con id="11" src="0" tgt="6" wght="-4.9798369903169659" />
        <Con id="12" src="0" tgt="7" wght="4.5747129462771587" />
        <Con id="13" src="0" tgt="8" wght="4.3604271926745906" />
        <Con id="14" src="1" tgt="4" wght="4.4304947580161631" />
        <Con id="15" src="1" tgt="5" wght="-4.957602260943645" />
        <Con id="16" src="1" tgt="6" wght="-3.4709708149880281" />
        <Con id="17" src="1" tgt="7" wght="-1.6105879457936056" />
        <Con id="18" src="1" tgt="8" wght="4.931965442995895" />
        <Con id="19" src="2" tgt="4" wght="1.2533045264403364" />
        <Con id="20" src="2" tgt="5" wght="4.7285090208461531" />
        <Con id="21" src="2" tgt="6" wght="1.3882255423535095" />
        <Con id="22" src="2" tgt="7" wght="1.4387070671507352" />
        <Con id="23" src="2" tgt="8" wght="-0.67234844315899989" />
        <Con id="24" src="3" tgt="4" wght="0.88429536276690923" />
        <Con id="25" src="3" tgt="5" wght="1.2026876718072566" />
        <Con id="26" src="3" tgt="6" wght="-0.27667639224087659" />
        <Con id="27" src="3" tgt="7" wght="0.26486280324035771" />
        <Con id="28" src="3" tgt="8" wght="1.7911621042301507" />
      </Connections>
    </Network>
  </Networks>
</Root>