<?xml version="1.0" encoding="utf-8"?>
<Root>
  <ActivationFunctions>
    <Fn id="0" name="Linear" prob="0.1" />
    <Fn id="1" name="BipolarSigmoid" prob="0.3" />
    <Fn id="2" name="Gaussian" prob="0.3" />
    <Fn id="3" name="Sine" prob="0.3" />
  </ActivationFunctions>
  <Networks>
    <Network id="187" birthGen="31" fitness="0">
      <Nodes>
        <Node type="bias" id="0" fnId="0" />
        <Node type="in" id="1" fnId="0" />
        <Node type="in" id="2" fnId="0" />
        <Node type="in" id="3" fnId="0" />
        <Node type="out" id="4" fnId="0" />
        <Node type="out" id="5" fnId="0" />
        <Node type="out" id="6" fnId="0" />
        <Node type="out" id="7" fnId="0" />
        <Node type="out" id="8" fnId="0" />
        <Node type="hid" id="48" fnId="2" />
        <Node type="hid" id="55" fnId="2" />
      </Nodes>
      <Connections>
        <Con id="9" src="0" tgt="4" wght="0.50895428347996985" />
        <Con id="11" src="0" tgt="6" wght="3.7095726073660549" />
        <Con id="13" src="0" tgt="8" wght="2.8413175882649306" />
        <Con id="14" src="1" tgt="4" wght="0.62898974588572965" />
        <Con id="15" src="1" tgt="5" wght="4.6877638592650577" />
        <Con id="16" src="1" tgt="6" wght="4.6200811824589794" />
        <Con id="17" src="1" tgt="7" wght="2.00256160945658" />
        <Con id="18" src="1" tgt="8" wght="1.0102104982124849" />
        <Con id="19" src="2" tgt="4" wght="0.64648158264148614" />
        <Con id="22" src="2" tgt="7" wght="2.1534590156403239" />
        <Con id="23" src="2" tgt="8" wght="0.36030705038892941" />
        <Con id="24" src="3" tgt="4" wght="2.55062471262634" />
        <Con id="25" src="3" tgt="5" wght="4.7210473186314292" />
        <Con id="26" src="3" tgt="6" wght="3.6865441083371717" />
        <Con id="27" src="3" tgt="7" wght="2.4115022208555259" />
        <Con id="28" src="3" tgt="8" wght="-3.4838137924783608" />
        <Con id="32" src="2" tgt="6" wght="-1.2544781810932781" />
        <Con id="37" src="2" tgt="5" wght="0.02488386358518049" />
        <Con id="49" src="2" tgt="48" wght="0.032108687003839315" />
        <Con id="50" src="48" tgt="5" wght="5" />
        <Con id="56" src="1" tgt="55" wght="0.62898974588572965" />
        <Con id="57" src="55" tgt="4" wght="5" />
        <Con id="62" src="55" tgt="6" wght="-2.2633557939262348" />
      </Connections>
    </Network>
  </Networks>
</Root>