<?xml version="1.0" encoding="utf-8"?>
<Root>
  <ActivationFunctions>
    <Fn id="0" name="Linear" prob="0.1" />
    <Fn id="1" name="BipolarSigmoid" prob="0.3" />
    <Fn id="2" name="Gaussian" prob="0.3" />
    <Fn id="3" name="Sine" prob="0.3" />
  </ActivationFunctions>
  <Networks>
    <Network id="3" birthGen="0" fitness="0">
      <Nodes>
        <Node type="bias" id="0" fnId="0" />
        <Node type="in" id="1" fnId="0" />
        <Node type="in" id="2" fnId="0" />
        <Node type="in" id="3" fnId="0" />
        <Node type="out" id="4" fnId="0" />
        <Node type="out" id="5" fnId="0" />
        <Node type="out" id="6" fnId="0" />
        <Node type="out" id="7" fnId="0" />
        <Node type="out" id="8" fnId="0" />
      </Nodes>
      <Connections>
        <Con id="11" src="0" tgt="6" wght="-0.78538752580719406" />
        <Con id="13" src="0" tgt="8" wght="-2.097686392070389" />
        <Con id="14" src="1" tgt="4" wght="-2.6264055771168335" />
        <Con id="15" src="1" tgt="5" wght="2.4247494287296458" />
        <Con id="16" src="1" tgt="6" wght="2.1492544033777197" />
        <Con id="17" src="1" tgt="7" wght="-4.4773735050180195" />
        <Con id="19" src="2" tgt="4" wght="-2.2101902695241673" />
        <Con id="20" src="2" tgt="5" wght="-0.15813206964461202" />
        <Con id="21" src="2" tgt="6" wght="3.175059953678665" />
        <Con id="22" src="2" tgt="7" wght="4.60963894020586" />
        <Con id="23" src="2" tgt="8" wght="2.2379611122987351" />
        <Con id="24" src="3" tgt="4" wght="4.49739739970426" />
        <Con id="25" src="3" tgt="5" wght="-0.30262549733379385" />
        <Con id="26" src="3" tgt="6" wght="0.11154169477583076" />
        <Con id="27" src="3" tgt="7" wght="4.7829354509891129" />
        <Con id="28" src="3" tgt="8" wght="4.94077118654599" />
      </Connections>
    </Network>
  </Networks>
</Root>