<?xml version="1.0" encoding="utf-8"?>
<Root>
  <ActivationFunctions>
    <Fn id="0" name="Linear" prob="0.1" />
    <Fn id="1" name="BipolarSigmoid" prob="0.3" />
    <Fn id="2" name="Gaussian" prob="0.3" />
    <Fn id="3" name="Sine" prob="0.3" />
  </ActivationFunctions>
  <Networks>
    <Network id="586" birthGen="97" fitness="0">
      <Nodes>
        <Node type="bias" id="0" fnId="0" />
        <Node type="in" id="1" fnId="0" />
        <Node type="in" id="2" fnId="0" />
        <Node type="in" id="3" fnId="0" />
        <Node type="out" id="4" fnId="0" />
        <Node type="out" id="5" fnId="0" />
        <Node type="out" id="6" fnId="0" />
        <Node type="out" id="7" fnId="0" />
        <Node type="out" id="8" fnId="0" />
        <Node type="hid" id="30" fnId="1" />
        <Node type="hid" id="36" fnId="3" />
        <Node type="hid" id="49" fnId="2" />
        <Node type="hid" id="68" fnId="1" />
        <Node type="hid" id="76" fnId="3" />
        <Node type="hid" id="136" fnId="3" />
        <Node type="hid" id="155" fnId="2" />
        <Node type="hid" id="175" fnId="3" />
        <Node type="hid" id="189" fnId="1" />
        <Node type="hid" id="196" fnId="1" />
      </Nodes>
      <Connections>
        <Con id="9" src="0" tgt="4" wght="-1.1826576951108225" />
        <Con id="10" src="0" tgt="5" wght="-0.066868082442768137" />
        <Con id="11" src="0" tgt="6" wght="1.1788709253410909" />
        <Con id="12" src="0" tgt="7" wght="2.6377484439154859" />
        <Con id="14" src="1" tgt="4" wght="3.2388019147794744" />
        <Con id="15" src="1" tgt="5" wght="3.9398813737940275" />
        <Con id="16" src="1" tgt="6" wght="-0.081636032523013657" />
        <Con id="18" src="1" tgt="8" wght="-0.24127883870395994" />
        <Con id="19" src="2" tgt="4" wght="2.5623343360352804" />
        <Con id="20" src="2" tgt="5" wght="-4.0205551601745873" />
        <Con id="22" src="2" tgt="7" wght="0.28648944216448258" />
        <Con id="23" src="2" tgt="8" wght="-1.2303071231526843" />
        <Con id="24" src="3" tgt="4" wght="-1.5203749159151347" />
        <Con id="26" src="3" tgt="6" wght="-1.7978920151184885" />
        <Con id="27" src="3" tgt="7" wght="-1.0379695288580957" />
        <Con id="28" src="3" tgt="8" wght="4.9901133136544811" />
        <Con id="31" src="1" tgt="30" wght="-3.4132075716378685" />
        <Con id="32" src="2" tgt="6" wght="-0.00872119075954957" />
        <Con id="37" src="2" tgt="36" wght="0.29952925641351258" />
        <Con id="38" src="36" tgt="7" wght="5" />
        <Con id="50" src="2" tgt="49" wght="1.1486571041149585" />
        <Con id="51" src="49" tgt="6" wght="5" />
        <Con id="58" src="30" tgt="6" wght="-3.9257923622966762" />
        <Con id="59" src="30" tgt="5" wght="-1.1295316492043095" />
        <Con id="69" src="30" tgt="68" wght="-3.9257923622966762" />
        <Con id="70" src="68" tgt="6" wght="5" />
        <Con id="71" src="49" tgt="4" wght="0.015609184714221069" />
        <Con id="77" src="1" tgt="76" wght="-3.4092365141937289" />
        <Con id="78" src="76" tgt="30" wght="4.9986424769042648" />
        <Con id="90" src="0" tgt="36" wght="0.014178704811294207" />
        <Con id="94" src="49" tgt="7" wght="4.1360487097983452" />
        <Con id="102" src="49" tgt="36" wght="1.2444664488926271" />
        <Con id="103" src="76" tgt="5" wght="0.033074216161591521" />
        <Con id="113" src="30" tgt="36" wght="-0.007996773879101346" />
        <Con id="124" src="36" tgt="8" wght="1.6728120350205666" />
        <Con id="126" src="3" tgt="30" wght="0.045009237349089196" />
        <Con id="137" src="76" tgt="136" wght="0.023211897734580791" />
        <Con id="138" src="136" tgt="5" wght="5" />
        <Con id="156" src="76" tgt="155" wght="1.9075550732266855" />
        <Con id="157" src="155" tgt="4" wght="5" />
        <Con id="158" src="155" tgt="7" wght="1.1185784004666721" />
        <Con id="159" src="136" tgt="36" wght="0.03848231645899141" />
        <Con id="176" src="76" tgt="175" wght="0.023211897734580791" />
        <Con id="177" src="175" tgt="5" wght="5" />
        <Con id="190" src="2" tgt="189" wght="0.28648944216448258" />
        <Con id="191" src="189" tgt="7" wght="5" />
        <Con id="197" src="0" tgt="196" wght="-1.9858548905507012" />
        <Con id="198" src="196" tgt="8" wght="5" />
      </Connections>
    </Network>
  </Networks>
</Root>