<?xml version="1.0" encoding="utf-8"?>
<Root>
  <ActivationFunctions>
    <Fn id="0" name="Linear" prob="0.1" />
    <Fn id="1" name="Sine" prob="0.1" />
    <Fn id="2" name="ArcTan" prob="0.1" />
    <Fn id="3" name="BipolarGaussian" prob="0.1" />
    <Fn id="4" name="BipolarSigmoid" prob="0.1" />
    <Fn id="5" name="LogisticFunction" prob="0.1" />
    <Fn id="6" name="QuadraticSigmoid" prob="0.1" />
    <Fn id="7" name="TanH" prob="0.1" />
    <Fn id="8" name="ArcSinH" prob="0.1" />
    <Fn id="9" name="ReLU" prob="0.1" />
  </ActivationFunctions>
  <Networks>
    <Network id="1" birthGen="0" fitness="0">
      <Nodes>
        <Node type="bias" id="0" fnId="0" />
        <Node type="in" id="1" fnId="0" />
        <Node type="in" id="2" fnId="0" />
        <Node type="in" id="3" fnId="0" />
        <Node type="out" id="4" fnId="0" />
        <Node type="out" id="5" fnId="0" />
        <Node type="out" id="6" fnId="0" />
        <Node type="out" id="7" fnId="0" />
        <Node type="out" id="8" fnId="0" />
      </Nodes>
      <Connections>
        <Con id="9" src="0" tgt="4" wght="3.9852813522415853" />
        <Con id="10" src="0" tgt="5" wght="-4.1411319881970776" />
        <Con id="11" src="0" tgt="6" wght="3.3908564552230391" />
        <Con id="12" src="0" tgt="7" wght="-3.1310075873976606" />
        <Con id="13" src="0" tgt="8" wght="-2.8608221615134388" />
        <Con id="15" src="1" tgt="5" wght="4.7691151553166256" />
        <Con id="16" src="1" tgt="6" wght="-4.9154427277846766" />
        <Con id="17" src="1" tgt="7" wght="-0.6058627849661502" />
        <Con id="18" src="1" tgt="8" wght="-0.85563160294801932" />
        <Con id="19" src="2" tgt="4" wght="4.2639531826973611" />
        <Con id="20" src="2" tgt="5" wght="1.8050812840343466" />
        <Con id="21" src="2" tgt="6" wght="0.917882832691479" />
        <Con id="22" src="2" tgt="7" wght="-3.8000238539800835" />
        <Con id="23" src="2" tgt="8" wght="-3.1136541248160809" />
        <Con id="24" src="3" tgt="4" wght="-2.9725351068020167" />
        <Con id="25" src="3" tgt="5" wght="1.7202835556018981" />
        <Con id="26" src="3" tgt="6" wght="-1.4769533548344338" />
        <Con id="27" src="3" tgt="7" wght="0.36299526595594211" />
        <Con id="28" src="3" tgt="8" wght="-2.5834589133249031" />
      </Connections>
    </Network>
  </Networks>
</Root>