<?xml version="1.0" encoding="utf-8"?>
<Root>
  <ActivationFunctions>
    <Fn id="0" name="Linear" prob="0.1" />
    <Fn id="1" name="BipolarSigmoid" prob="0.3" />
    <Fn id="2" name="Gaussian" prob="0.3" />
    <Fn id="3" name="Sine" prob="0.3" />
  </ActivationFunctions>
  <Networks>
    <Network id="0" birthGen="0" fitness="0">
      <Nodes>
        <Node type="bias" id="0" fnId="0" />
        <Node type="in" id="1" fnId="0" />
        <Node type="in" id="2" fnId="0" />
        <Node type="in" id="3" fnId="0" />
        <Node type="out" id="4" fnId="0" />
        <Node type="out" id="5" fnId="0" />
        <Node type="out" id="6" fnId="0" />
        <Node type="out" id="7" fnId="0" />
        <Node type="out" id="8" fnId="0" />
      </Nodes>
      <Connections>
        <Con id="9" src="0" tgt="4" wght="-0.014181753564143085" />
        <Con id="12" src="0" tgt="7" wght="1.9150347746666807" />
        <Con id="13" src="0" tgt="8" wght="-0.880752168778508" />
        <Con id="15" src="1" tgt="5" wght="-0.050651245053429106" />
        <Con id="16" src="1" tgt="6" wght="-2.4711428908016506" />
        <Con id="17" src="1" tgt="7" wght="-1.340279316353461" />
        <Con id="18" src="1" tgt="8" wght="0.23643250605681621" />
        <Con id="19" src="2" tgt="4" wght="4.07976510545881" />
        <Con id="20" src="2" tgt="5" wght="4.7024480339720025" />
        <Con id="21" src="2" tgt="6" wght="0.52308470796418094" />
        <Con id="22" src="2" tgt="7" wght="-4.7134576352416211" />
        <Con id="23" src="2" tgt="8" wght="4.1243249848283137" />
        <Con id="25" src="3" tgt="5" wght="-2.8381522580077059" />
        <Con id="26" src="3" tgt="6" wght="0.97576088970030783" />
        <Con id="27" src="3" tgt="7" wght="3.0841950544953578" />
        <Con id="28" src="3" tgt="8" wght="-2.89954145067858" />
      </Connections>
    </Network>
  </Networks>
</Root>