<?xml version="1.0" encoding="utf-8"?>
<Root>
  <ActivationFunctions>
    <Fn id="0" name="Linear" prob="0.1" />
    <Fn id="1" name="BipolarSigmoid" prob="0.3" />
    <Fn id="2" name="Gaussian" prob="0.3" />
    <Fn id="3" name="Sine" prob="0.3" />
  </ActivationFunctions>
  <Networks>
    <Network id="1" birthGen="0" fitness="0">
      <Nodes>
        <Node type="bias" id="0" fnId="0" />
        <Node type="in" id="1" fnId="0" />
        <Node type="in" id="2" fnId="0" />
        <Node type="in" id="3" fnId="0" />
        <Node type="out" id="4" fnId="0" />
        <Node type="out" id="5" fnId="0" />
        <Node type="out" id="6" fnId="0" />
        <Node type="out" id="7" fnId="0" />
        <Node type="out" id="8" fnId="0" />
      </Nodes>
      <Connections>
        <Con id="10" src="0" tgt="5" wght="-1.4872519680620966" />
        <Con id="11" src="0" tgt="6" wght="0.41031933380657692" />
        <Con id="12" src="0" tgt="7" wght="-4.2255567861725085" />
        <Con id="13" src="0" tgt="8" wght="0.075992041151355938" />
        <Con id="15" src="1" tgt="5" wght="4.6857991678083213" />
        <Con id="18" src="1" tgt="8" wght="-4.0402689018871367" />
        <Con id="19" src="2" tgt="4" wght="0.8071966429349231" />
        <Con id="20" src="2" tgt="5" wght="-2.0932054875355854" />
        <Con id="21" src="2" tgt="6" wght="1.1423068254019142" />
        <Con id="22" src="2" tgt="7" wght="3.1906619444841997" />
        <Con id="23" src="2" tgt="8" wght="-2.6727095110791979" />
        <Con id="24" src="3" tgt="4" wght="0.18520610169719953" />
        <Con id="25" src="3" tgt="5" wght="0.599400303001455" />
        <Con id="26" src="3" tgt="6" wght="-1.310799240488868" />
        <Con id="27" src="3" tgt="7" wght="0.84964355163669181" />
        <Con id="28" src="3" tgt="8" wght="-4.3110907451031855" />
      </Connections>
    </Network>
  </Networks>
</Root>