<?xml version="1.0" encoding="utf-8"?>
<Root>
  <ActivationFunctions>
    <Fn id="0" name="Linear" prob="0.1" />
    <Fn id="1" name="Sine" prob="0.1" />
    <Fn id="2" name="ArcTan" prob="0.1" />
    <Fn id="3" name="BipolarGaussian" prob="0.1" />
    <Fn id="4" name="BipolarSigmoid" prob="0.1" />
    <Fn id="5" name="LogisticFunction" prob="0.1" />
    <Fn id="6" name="QuadraticSigmoid" prob="0.1" />
    <Fn id="7" name="TanH" prob="0.1" />
    <Fn id="8" name="ArcSinH" prob="0.1" />
    <Fn id="9" name="ReLU" prob="0.1" />
  </ActivationFunctions>
  <Networks>
    <Network id="3" birthGen="0" fitness="0">
      <Nodes>
        <Node type="bias" id="0" fnId="0" />
        <Node type="in" id="1" fnId="0" />
        <Node type="in" id="2" fnId="0" />
        <Node type="in" id="3" fnId="0" />
        <Node type="out" id="4" fnId="0" />
        <Node type="out" id="5" fnId="0" />
        <Node type="out" id="6" fnId="0" />
        <Node type="out" id="7" fnId="0" />
        <Node type="out" id="8" fnId="0" />
      </Nodes>
      <Connections>
        <Con id="9" src="0" tgt="4" wght="3.0238842258638776" />
        <Con id="10" src="0" tgt="5" wght="-2.5702434185019127" />
        <Con id="11" src="0" tgt="6" wght="4.1182407451005609" />
        <Con id="12" src="0" tgt="7" wght="2.7418608890557215" />
        <Con id="13" src="0" tgt="8" wght="-4.1394247628024852" />
        <Con id="14" src="1" tgt="4" wght="-3.1855912224251783" />
        <Con id="15" src="1" tgt="5" wght="-2.6587938739810433" />
        <Con id="16" src="1" tgt="6" wght="0.8558811966142621" />
        <Con id="17" src="1" tgt="7" wght="-3.4810955122212492" />
        <Con id="18" src="1" tgt="8" wght="-1.9590097823863051" />
        <Con id="19" src="2" tgt="4" wght="-2.8797749305076028" />
        <Con id="20" src="2" tgt="5" wght="-0.7341537812158383" />
        <Con id="21" src="2" tgt="6" wght="2.1021045191425634" />
        <Con id="22" src="2" tgt="7" wght="-3.1922833671039266" />
        <Con id="23" src="2" tgt="8" wght="-3.2771915798000109" />
        <Con id="24" src="3" tgt="4" wght="1.7278600719851467" />
        <Con id="25" src="3" tgt="5" wght="0.39417192173143434" />
        <Con id="26" src="3" tgt="6" wght="2.5036416950195237" />
        <Con id="27" src="3" tgt="7" wght="4.271744796311161" />
        <Con id="28" src="3" tgt="8" wght="2.9642968525846025" />
      </Connections>
    </Network>
  </Networks>
</Root>