<?xml version="1.0" encoding="utf-8"?>
<Root>
  <ActivationFunctions>
    <Fn id="0" name="Linear" prob="0.1" />
    <Fn id="1" name="Sine" prob="0.1" />
    <Fn id="2" name="ArcTan" prob="0.1" />
    <Fn id="3" name="BipolarGaussian" prob="0.1" />
    <Fn id="4" name="BipolarSigmoid" prob="0.1" />
    <Fn id="5" name="LogisticFunction" prob="0.1" />
    <Fn id="6" name="QuadraticSigmoid" prob="0.1" />
    <Fn id="7" name="TanH" prob="0.1" />
    <Fn id="8" name="ArcSinH" prob="0.1" />
    <Fn id="9" name="ReLU" prob="0.1" />
  </ActivationFunctions>
  <Networks>
    <Network id="0" birthGen="0" fitness="0">
      <Nodes>
        <Node type="bias" id="0" fnId="0" />
        <Node type="in" id="1" fnId="0" />
        <Node type="in" id="2" fnId="0" />
        <Node type="in" id="3" fnId="0" />
        <Node type="out" id="4" fnId="0" />
        <Node type="out" id="5" fnId="0" />
        <Node type="out" id="6" fnId="0" />
        <Node type="out" id="7" fnId="0" />
        <Node type="out" id="8" fnId="0" />
      </Nodes>
      <Connections>
        <Con id="9" src="0" tgt="4" wght="-0.58726081506443761" />
        <Con id="10" src="0" tgt="5" wght="2.1801124917946577" />
        <Con id="11" src="0" tgt="6" wght="4.9829428676299381" />
        <Con id="12" src="0" tgt="7" wght="-1.5460389047526746" />
        <Con id="13" src="0" tgt="8" wght="-0.44764710132852548" />
        <Con id="14" src="1" tgt="4" wght="-2.4918284257630132" />
        <Con id="15" src="1" tgt="5" wght="-1.7056252491192658" />
        <Con id="16" src="1" tgt="6" wght="-4.0040927824816377" />
        <Con id="17" src="1" tgt="7" wght="2.0828445541925644" />
        <Con id="18" src="1" tgt="8" wght="1.2922642878147805" />
        <Con id="19" src="2" tgt="4" wght="3.7662145376054812" />
        <Con id="20" src="2" tgt="5" wght="-4.7070926931025969" />
        <Con id="21" src="2" tgt="6" wght="-1.307780646239376" />
        <Con id="22" src="2" tgt="7" wght="1.1944781991672071" />
        <Con id="23" src="2" tgt="8" wght="-0.65335248590635553" />
        <Con id="24" src="3" tgt="4" wght="-1.6224906255810112" />
        <Con id="25" src="3" tgt="5" wght="-2.3396168389824967" />
        <Con id="26" src="3" tgt="6" wght="-4.4406253718714606" />
        <Con id="27" src="3" tgt="7" wght="-0.26968715296446955" />
        <Con id="28" src="3" tgt="8" wght="-3.9028855136530236" />
      </Connections>
    </Network>
  </Networks>
</Root>