<?xml version="1.0" encoding="utf-8"?>
<Root>
  <ActivationFunctions>
    <Fn id="0" name="Linear" prob="0.1" />
    <Fn id="1" name="BipolarSigmoid" prob="0.3" />
    <Fn id="2" name="Gaussian" prob="0.3" />
    <Fn id="3" name="Sine" prob="0.3" />
  </ActivationFunctions>
  <Networks>
    <Network id="1" birthGen="0" fitness="0">
      <Nodes>
        <Node type="bias" id="0" fnId="0" />
        <Node type="in" id="1" fnId="0" />
        <Node type="in" id="2" fnId="0" />
        <Node type="in" id="3" fnId="0" />
        <Node type="out" id="4" fnId="0" />
        <Node type="out" id="5" fnId="0" />
        <Node type="out" id="6" fnId="0" />
        <Node type="out" id="7" fnId="0" />
        <Node type="out" id="8" fnId="0" />
      </Nodes>
      <Connections>
        <Con id="10" src="0" tgt="5" wght="-1.8231985747065904" />
        <Con id="11" src="0" tgt="6" wght="-2.3881311845283948" />
        <Con id="12" src="0" tgt="7" wght="3.6051620643840621" />
        <Con id="13" src="0" tgt="8" wght="0.75590833326909412" />
        <Con id="14" src="1" tgt="4" wght="-2.9259923106179264" />
        <Con id="15" src="1" tgt="5" wght="-1.6565870213462308" />
        <Con id="16" src="1" tgt="6" wght="-4.0532560222243248" />
        <Con id="18" src="1" tgt="8" wght="4.7810399464204494" />
        <Con id="19" src="2" tgt="4" wght="0.19658822967000833" />
        <Con id="20" src="2" tgt="5" wght="3.74302431175628" />
        <Con id="21" src="2" tgt="6" wght="-4.6934115841641137" />
        <Con id="22" src="2" tgt="7" wght="3.486499017464797" />
        <Con id="25" src="3" tgt="5" wght="2.8769532966232534" />
        <Con id="26" src="3" tgt="6" wght="3.4312449217719" />
        <Con id="27" src="3" tgt="7" wght="0.87234068432285872" />
        <Con id="28" src="3" tgt="8" wght="0.0013180714684768446" />
      </Connections>
    </Network>
  </Networks>
</Root>