<?xml version="1.0" encoding="utf-8"?>
<Root>
  <ActivationFunctions>
    <Fn id="0" name="Linear" prob="0.1" />
    <Fn id="1" name="Sine" prob="0.1" />
    <Fn id="2" name="ArcTan" prob="0.1" />
    <Fn id="3" name="BipolarGaussian" prob="0.1" />
    <Fn id="4" name="BipolarSigmoid" prob="0.1" />
    <Fn id="5" name="LogisticFunction" prob="0.1" />
    <Fn id="6" name="QuadraticSigmoid" prob="0.1" />
    <Fn id="7" name="TanH" prob="0.1" />
    <Fn id="8" name="ArcSinH" prob="0.1" />
    <Fn id="9" name="ReLU" prob="0.1" />
  </ActivationFunctions>
  <Networks>
    <Network id="1" birthGen="0" fitness="0">
      <Nodes>
        <Node type="bias" id="0" fnId="0" />
        <Node type="in" id="1" fnId="0" />
        <Node type="in" id="2" fnId="0" />
        <Node type="in" id="3" fnId="0" />
        <Node type="out" id="4" fnId="0" />
        <Node type="out" id="5" fnId="0" />
        <Node type="out" id="6" fnId="0" />
        <Node type="out" id="7" fnId="0" />
        <Node type="out" id="8" fnId="0" />
      </Nodes>
      <Connections>
        <Con id="9" src="0" tgt="4" wght="-2.7366607847751432" />
        <Con id="10" src="0" tgt="5" wght="-4.8753087444866363" />
        <Con id="11" src="0" tgt="6" wght="2.1862085919625596" />
        <Con id="12" src="0" tgt="7" wght="-2.3304435421362468" />
        <Con id="13" src="0" tgt="8" wght="-1.3400737136400909" />
        <Con id="14" src="1" tgt="4" wght="-2.6133420887987757" />
        <Con id="15" src="1" tgt="5" wght="-2.8362513456983951" />
        <Con id="16" src="1" tgt="6" wght="-2.6220892945144234" />
        <Con id="17" src="1" tgt="7" wght="-4.6731830506201408" />
        <Con id="18" src="1" tgt="8" wght="-3.3137633603478456" />
        <Con id="19" src="2" tgt="4" wght="-0.47650383493402559" />
        <Con id="20" src="2" tgt="5" wght="3.6707078263811175" />
        <Con id="21" src="2" tgt="6" wght="2.9294647283792949" />
        <Con id="22" src="2" tgt="7" wght="0.42503565610155558" />
        <Con id="23" src="2" tgt="8" wght="2.5283252069377751" />
        <Con id="24" src="3" tgt="4" wght="-1.3090700313681047" />
        <Con id="25" src="3" tgt="5" wght="-1.6751459569849403" />
        <Con id="26" src="3" tgt="6" wght="1.1878459094097327" />
        <Con id="27" src="3" tgt="7" wght="-3.1208649177803318" />
        <Con id="28" src="3" tgt="8" wght="-1.9264817023086755" />
      </Connections>
    </Network>
  </Networks>
</Root>