<?xml version="1.0" encoding="utf-8"?>
<Root>
  <ActivationFunctions>
    <Fn id="0" name="Linear" prob="0.1" />
    <Fn id="1" name="Sine" prob="0.1" />
    <Fn id="2" name="ArcTan" prob="0.1" />
    <Fn id="3" name="BipolarGaussian" prob="0.1" />
    <Fn id="4" name="BipolarSigmoid" prob="0.1" />
    <Fn id="5" name="LogisticFunction" prob="0.1" />
    <Fn id="6" name="QuadraticSigmoid" prob="0.1" />
    <Fn id="7" name="TanH" prob="0.1" />
    <Fn id="8" name="ArcSinH" prob="0.1" />
    <Fn id="9" name="ReLU" prob="0.1" />
  </ActivationFunctions>
  <Networks>
    <Network id="3" birthGen="0" fitness="0">
      <Nodes>
        <Node type="bias" id="0" fnId="0" />
        <Node type="in" id="1" fnId="0" />
        <Node type="in" id="2" fnId="0" />
        <Node type="in" id="3" fnId="0" />
        <Node type="out" id="4" fnId="0" />
        <Node type="out" id="5" fnId="0" />
        <Node type="out" id="6" fnId="0" />
        <Node type="out" id="7" fnId="0" />
        <Node type="out" id="8" fnId="0" />
      </Nodes>
      <Connections>
        <Con id="9" src="0" tgt="4" wght="-0.88940626171799653" />
        <Con id="10" src="0" tgt="5" wght="1.8978836489451145" />
        <Con id="11" src="0" tgt="6" wght="2.3841481918616836" />
        <Con id="12" src="0" tgt="7" wght="-0.35765794881397084" />
        <Con id="13" src="0" tgt="8" wght="-2.1105081708653719" />
        <Con id="14" src="1" tgt="4" wght="0.64750471702853307" />
        <Con id="15" src="1" tgt="5" wght="3.8838864262448247" />
        <Con id="16" src="1" tgt="6" wght="3.4216681397249693" />
        <Con id="17" src="1" tgt="7" wght="1.0441785093722811" />
        <Con id="18" src="1" tgt="8" wght="0.62863807083826106" />
        <Con id="19" src="2" tgt="4" wght="-1.5919425783659413" />
        <Con id="20" src="2" tgt="5" wght="-2.1752329803731385" />
        <Con id="21" src="2" tgt="6" wght="-1.2877115035022324" />
        <Con id="22" src="2" tgt="7" wght="-1.5164413310216129" />
        <Con id="23" src="2" tgt="8" wght="-4.8006036971380937" />
        <Con id="25" src="3" tgt="5" wght="-2.8750848660097175" />
        <Con id="26" src="3" tgt="6" wght="2.6542506901922582" />
        <Con id="27" src="3" tgt="7" wght="1.1092001141124452" />
        <Con id="28" src="3" tgt="8" wght="0.80486220144477927" />
      </Connections>
    </Network>
  </Networks>
</Root>