<?xml version="1.0" encoding="utf-8"?>
<Root>
  <ActivationFunctions>
    <Fn id="0" name="Linear" prob="0.1" />
    <Fn id="1" name="Sine" prob="0.1" />
    <Fn id="2" name="ArcTan" prob="0.1" />
    <Fn id="3" name="BipolarGaussian" prob="0.1" />
    <Fn id="4" name="BipolarSigmoid" prob="0.1" />
    <Fn id="5" name="LogisticFunction" prob="0.1" />
    <Fn id="6" name="QuadraticSigmoid" prob="0.1" />
    <Fn id="7" name="TanH" prob="0.1" />
    <Fn id="8" name="ArcSinH" prob="0.1" />
    <Fn id="9" name="ReLU" prob="0.1" />
  </ActivationFunctions>
  <Networks>
    <Network id="2" birthGen="0" fitness="0">
      <Nodes>
        <Node type="bias" id="0" fnId="0" />
        <Node type="in" id="1" fnId="0" />
        <Node type="in" id="2" fnId="0" />
        <Node type="in" id="3" fnId="0" />
        <Node type="out" id="4" fnId="0" />
        <Node type="out" id="5" fnId="0" />
        <Node type="out" id="6" fnId="0" />
        <Node type="out" id="7" fnId="0" />
        <Node type="out" id="8" fnId="0" />
      </Nodes>
      <Connections>
        <Con id="9" src="0" tgt="4" wght="2.4738530360721436" />
        <Con id="10" src="0" tgt="5" wght="-3.223805520929599" />
        <Con id="11" src="0" tgt="6" wght="-3.1932310604707617" />
        <Con id="12" src="0" tgt="7" wght="-3.2777254426550573" />
        <Con id="13" src="0" tgt="8" wght="4.6029095221033636" />
        <Con id="14" src="1" tgt="4" wght="0.70774674326054443" />
        <Con id="15" src="1" tgt="5" wght="4.5899877845651416" />
        <Con id="16" src="1" tgt="6" wght="4.82220149522414" />
        <Con id="17" src="1" tgt="7" wght="-2.7591836572694364" />
        <Con id="18" src="1" tgt="8" wght="-1.5640190878961535" />
        <Con id="19" src="2" tgt="4" wght="-3.34199765329254" />
        <Con id="20" src="2" tgt="5" wght="3.6335485384296042" />
        <Con id="21" src="2" tgt="6" wght="-0.44983852458951867" />
        <Con id="22" src="2" tgt="7" wght="3.2207686013581602" />
        <Con id="23" src="2" tgt="8" wght="3.7587033192175578" />
        <Con id="24" src="3" tgt="4" wght="-3.3789932243212082" />
        <Con id="25" src="3" tgt="5" wght="-2.4274578306177363" />
        <Con id="26" src="3" tgt="6" wght="-4.197831030875788" />
        <Con id="27" src="3" tgt="7" wght="4.8519827773289084" />
        <Con id="28" src="3" tgt="8" wght="-2.5658610040161713" />
      </Connections>
    </Network>
  </Networks>
</Root>