<?xml version="1.0" encoding="utf-8"?>
<Root>
  <ActivationFunctions>
    <Fn id="0" name="Linear" prob="0.1" />
    <Fn id="1" name="Sine" prob="0.1" />
    <Fn id="2" name="ArcTan" prob="0.1" />
    <Fn id="3" name="BipolarGaussian" prob="0.1" />
    <Fn id="4" name="BipolarSigmoid" prob="0.1" />
    <Fn id="5" name="LogisticFunction" prob="0.1" />
    <Fn id="6" name="QuadraticSigmoid" prob="0.1" />
    <Fn id="7" name="TanH" prob="0.1" />
    <Fn id="8" name="ArcSinH" prob="0.1" />
    <Fn id="9" name="ReLU" prob="0.1" />
  </ActivationFunctions>
  <Networks>
    <Network id="0" birthGen="0" fitness="0">
      <Nodes>
        <Node type="bias" id="0" fnId="0" />
        <Node type="in" id="1" fnId="0" />
        <Node type="in" id="2" fnId="0" />
        <Node type="in" id="3" fnId="0" />
        <Node type="out" id="4" fnId="0" />
        <Node type="out" id="5" fnId="0" />
        <Node type="out" id="6" fnId="0" />
        <Node type="out" id="7" fnId="0" />
        <Node type="out" id="8" fnId="0" />
      </Nodes>
      <Connections>
        <Con id="9" src="0" tgt="4" wght="2.484634381596964" />
        <Con id="10" src="0" tgt="5" wght="3.8905408633301741" />
        <Con id="11" src="0" tgt="6" wght="2.8035437276821709" />
        <Con id="12" src="0" tgt="7" wght="-1.1359888808788043" />
        <Con id="13" src="0" tgt="8" wght="-4.0692958698079931" />
        <Con id="14" src="1" tgt="4" wght="-1.2021151139411368" />
        <Con id="15" src="1" tgt="5" wght="2.5217137254280542" />
        <Con id="16" src="1" tgt="6" wght="-1.1310050234121027" />
        <Con id="17" src="1" tgt="7" wght="4.0046225192279339" />
        <Con id="18" src="1" tgt="8" wght="-0.33274482404772932" />
        <Con id="19" src="2" tgt="4" wght="-3.5370801665906351" />
        <Con id="20" src="2" tgt="5" wght="0.89870154403059455" />
        <Con id="21" src="2" tgt="6" wght="3.3577430123901375" />
        <Con id="22" src="2" tgt="7" wght="-0.15639068214876262" />
        <Con id="23" src="2" tgt="8" wght="-0.44243609509303283" />
        <Con id="24" src="3" tgt="4" wght="4.1967852507581611" />
        <Con id="25" src="3" tgt="5" wght="-1.9138089487226939" />
        <Con id="26" src="3" tgt="6" wght="-2.80027053144547" />
        <Con id="27" src="3" tgt="7" wght="3.1561669731083466" />
        <Con id="28" src="3" tgt="8" wght="1.2119737420170507" />
      </Connections>
    </Network>
  </Networks>
</Root>