<?xml version="1.0" encoding="utf-8"?>
<Root>
  <ActivationFunctions>
    <Fn id="0" name="Linear" prob="0.1" />
    <Fn id="1" name="BipolarSigmoid" prob="0.3" />
    <Fn id="2" name="Gaussian" prob="0.3" />
    <Fn id="3" name="Sine" prob="0.3" />
  </ActivationFunctions>
  <Networks>
    <Network id="3" birthGen="0" fitness="0">
      <Nodes>
        <Node type="bias" id="0" fnId="0" />
        <Node type="in" id="1" fnId="0" />
        <Node type="in" id="2" fnId="0" />
        <Node type="in" id="3" fnId="0" />
        <Node type="out" id="4" fnId="0" />
        <Node type="out" id="5" fnId="0" />
        <Node type="out" id="6" fnId="0" />
        <Node type="out" id="7" fnId="0" />
        <Node type="out" id="8" fnId="0" />
      </Nodes>
      <Connections>
        <Con id="9" src="0" tgt="4" wght="-0.51554519672544874" />
        <Con id="10" src="0" tgt="5" wght="-0.42500639857123046" />
        <Con id="12" src="0" tgt="7" wght="4.4263993374432342" />
        <Con id="13" src="0" tgt="8" wght="1.3710769687135727" />
        <Con id="14" src="1" tgt="4" wght="2.2717186437030512" />
        <Con id="15" src="1" tgt="5" wght="-4.4773607767925583" />
        <Con id="18" src="1" tgt="8" wght="-2.6701990136180176" />
        <Con id="19" src="2" tgt="4" wght="-2.7101657711624449" />
        <Con id="20" src="2" tgt="5" wght="-3.0706340559800482" />
        <Con id="22" src="2" tgt="7" wght="0.955327569942207" />
        <Con id="23" src="2" tgt="8" wght="-3.9294108389661764" />
        <Con id="24" src="3" tgt="4" wght="-0.80361298863589559" />
        <Con id="25" src="3" tgt="5" wght="0.18974258125776577" />
        <Con id="26" src="3" tgt="6" wght="0.3655533386722043" />
        <Con id="27" src="3" tgt="7" wght="0.58327288050711634" />
        <Con id="28" src="3" tgt="8" wght="-1.5828894034947283" />
      </Connections>
    </Network>
  </Networks>
</Root>