<?xml version="1.0" encoding="utf-8"?>
<Root>
  <ActivationFunctions>
    <Fn id="0" name="Linear" prob="0.1" />
    <Fn id="1" name="BipolarSigmoid" prob="0.3" />
    <Fn id="2" name="Gaussian" prob="0.3" />
    <Fn id="3" name="Sine" prob="0.3" />
  </ActivationFunctions>
  <Networks>
    <Network id="1" birthGen="0" fitness="0">
      <Nodes>
        <Node type="bias" id="0" fnId="0" />
        <Node type="in" id="1" fnId="0" />
        <Node type="in" id="2" fnId="0" />
        <Node type="in" id="3" fnId="0" />
        <Node type="out" id="4" fnId="0" />
        <Node type="out" id="5" fnId="0" />
        <Node type="out" id="6" fnId="0" />
        <Node type="out" id="7" fnId="0" />
        <Node type="out" id="8" fnId="0" />
      </Nodes>
      <Connections>
        <Con id="10" src="0" tgt="5" wght="-3.0021216156536412" />
        <Con id="11" src="0" tgt="6" wght="4.5298602126106928" />
        <Con id="12" src="0" tgt="7" wght="-1.0012784005062225" />
        <Con id="13" src="0" tgt="8" wght="-4.8189525408478744" />
        <Con id="14" src="1" tgt="4" wght="-0.25592574701067905" />
        <Con id="15" src="1" tgt="5" wght="-0.72557382954632543" />
        <Con id="16" src="1" tgt="6" wght="-2.4383637135003178" />
        <Con id="19" src="2" tgt="4" wght="4.608617910327256" />
        <Con id="20" src="2" tgt="5" wght="-3.6766157034727733" />
        <Con id="21" src="2" tgt="6" wght="-3.0725584540980808" />
        <Con id="22" src="2" tgt="7" wght="1.2673608993241936" />
        <Con id="23" src="2" tgt="8" wght="-3.8801367698614952" />
        <Con id="24" src="3" tgt="4" wght="-1.3337065987640961" />
        <Con id="26" src="3" tgt="6" wght="-3.4637598226912325" />
        <Con id="27" src="3" tgt="7" wght="2.7332866863727165" />
        <Con id="28" src="3" tgt="8" wght="2.0114958154395843" />
      </Connections>
    </Network>
  </Networks>
</Root>