<?xml version="1.0" encoding="utf-8"?>
<Root>
  <ActivationFunctions>
    <Fn id="0" name="Linear" prob="0.1" />
    <Fn id="1" name="Sine" prob="0.1" />
    <Fn id="2" name="ArcTan" prob="0.1" />
    <Fn id="3" name="BipolarGaussian" prob="0.1" />
    <Fn id="4" name="BipolarSigmoid" prob="0.1" />
    <Fn id="5" name="LogisticFunction" prob="0.1" />
    <Fn id="6" name="QuadraticSigmoid" prob="0.1" />
    <Fn id="7" name="TanH" prob="0.1" />
    <Fn id="8" name="ArcSinH" prob="0.1" />
    <Fn id="9" name="ReLU" prob="0.1" />
  </ActivationFunctions>
  <Networks>
    <Network id="5" birthGen="0" fitness="0">
      <Nodes>
        <Node type="bias" id="0" fnId="0" />
        <Node type="in" id="1" fnId="0" />
        <Node type="in" id="2" fnId="0" />
        <Node type="in" id="3" fnId="0" />
        <Node type="out" id="4" fnId="0" />
        <Node type="out" id="5" fnId="0" />
        <Node type="out" id="6" fnId="0" />
        <Node type="out" id="7" fnId="0" />
        <Node type="out" id="8" fnId="0" />
      </Nodes>
      <Connections>
        <Con id="9" src="0" tgt="4" wght="-4.7433430576156" />
        <Con id="10" src="0" tgt="5" wght="-3.256848867986303" />
        <Con id="11" src="0" tgt="6" wght="-0.25405717265619354" />
        <Con id="12" src="0" tgt="7" wght="-4.3507793614558166" />
        <Con id="13" src="0" tgt="8" wght="3.8977619584371737" />
        <Con id="14" src="1" tgt="4" wght="-4.274094859604233" />
        <Con id="15" src="1" tgt="5" wght="-0.7721174936083619" />
        <Con id="16" src="1" tgt="6" wght="0.27367941969314136" />
        <Con id="17" src="1" tgt="7" wght="1.3498371372692997" />
        <Con id="18" src="1" tgt="8" wght="3.495879522116546" />
        <Con id="19" src="2" tgt="4" wght="-1.4828891061452965" />
        <Con id="20" src="2" tgt="5" wght="-1.3539241425565895" />
        <Con id="21" src="2" tgt="6" wght="-4.5963129114587078" />
        <Con id="22" src="2" tgt="7" wght="4.62766701850144" />
        <Con id="23" src="2" tgt="8" wght="-1.2461942558529104" />
        <Con id="24" src="3" tgt="4" wght="3.0766176423075988" />
        <Con id="25" src="3" tgt="5" wght="-1.7691256848658043" />
        <Con id="26" src="3" tgt="6" wght="-1.2919650650700931" />
        <Con id="27" src="3" tgt="7" wght="-4.85890219326399" />
        <Con id="28" src="3" tgt="8" wght="-2.6176404694231694" />
      </Connections>
    </Network>
  </Networks>
</Root>