<?xml version="1.0" encoding="utf-8"?>
<Root>
  <ActivationFunctions>
    <Fn id="0" name="Linear" prob="0.1" />
    <Fn id="1" name="BipolarSigmoid" prob="0.3" />
    <Fn id="2" name="Gaussian" prob="0.3" />
    <Fn id="3" name="Sine" prob="0.3" />
  </ActivationFunctions>
  <Networks>
    <Network id="4" birthGen="0" fitness="0">
      <Nodes>
        <Node type="bias" id="0" fnId="0" />
        <Node type="in" id="1" fnId="0" />
        <Node type="in" id="2" fnId="0" />
        <Node type="in" id="3" fnId="0" />
        <Node type="out" id="4" fnId="0" />
        <Node type="out" id="5" fnId="0" />
        <Node type="out" id="6" fnId="0" />
        <Node type="out" id="7" fnId="0" />
        <Node type="out" id="8" fnId="0" />
      </Nodes>
      <Connections>
        <Con id="9" src="0" tgt="4" wght="-3.6862309624447329" />
        <Con id="11" src="0" tgt="6" wght="4.8192253308619861" />
        <Con id="13" src="0" tgt="8" wght="1.985538104220782" />
        <Con id="14" src="1" tgt="4" wght="4.4968436825728633" />
        <Con id="15" src="1" tgt="5" wght="-2.4437349407554376" />
        <Con id="16" src="1" tgt="6" wght="3.8522425749205293" />
        <Con id="17" src="1" tgt="7" wght="4.1845594783647355" />
        <Con id="18" src="1" tgt="8" wght="-2.5713181391312445" />
        <Con id="19" src="2" tgt="4" wght="-1.7968422109282445" />
        <Con id="21" src="2" tgt="6" wght="3.7460508132140378" />
        <Con id="23" src="2" tgt="8" wght="-1.5202210066696964" />
        <Con id="24" src="3" tgt="4" wght="1.367855807887125" />
        <Con id="25" src="3" tgt="5" wght="4.08480061595249" />
        <Con id="26" src="3" tgt="6" wght="-0.74068102225402166" />
        <Con id="27" src="3" tgt="7" wght="2.8335803869947807" />
        <Con id="28" src="3" tgt="8" wght="-1.5525639129930069" />
      </Connections>
    </Network>
  </Networks>
</Root>