<?xml version="1.0" encoding="utf-8"?>
<Root>
  <ActivationFunctions>
    <Fn id="0" name="Linear" prob="0.1" />
    <Fn id="1" name="Sine" prob="0.1" />
    <Fn id="2" name="ArcTan" prob="0.1" />
    <Fn id="3" name="BipolarGaussian" prob="0.1" />
    <Fn id="4" name="BipolarSigmoid" prob="0.1" />
    <Fn id="5" name="LogisticFunction" prob="0.1" />
    <Fn id="6" name="QuadraticSigmoid" prob="0.1" />
    <Fn id="7" name="TanH" prob="0.1" />
    <Fn id="8" name="ArcSinH" prob="0.1" />
    <Fn id="9" name="ReLU" prob="0.1" />
  </ActivationFunctions>
  <Networks>
    <Network id="1" birthGen="0" fitness="0">
      <Nodes>
        <Node type="bias" id="0" fnId="0" />
        <Node type="in" id="1" fnId="0" />
        <Node type="in" id="2" fnId="0" />
        <Node type="in" id="3" fnId="0" />
        <Node type="out" id="4" fnId="0" />
        <Node type="out" id="5" fnId="0" />
        <Node type="out" id="6" fnId="0" />
        <Node type="out" id="7" fnId="0" />
        <Node type="out" id="8" fnId="0" />
      </Nodes>
      <Connections>
        <Con id="9" src="0" tgt="4" wght="-3.4131881877900803" />
        <Con id="10" src="0" tgt="5" wght="-0.74314160906260973" />
        <Con id="11" src="0" tgt="6" wght="0.32828063881479408" />
        <Con id="12" src="0" tgt="7" wght="-3.4254646580091386" />
        <Con id="13" src="0" tgt="8" wght="-4.574588127837524" />
        <Con id="14" src="1" tgt="4" wght="3.6261512595557175" />
        <Con id="15" src="1" tgt="5" wght="3.9342290613682041" />
        <Con id="16" src="1" tgt="6" wght="-0.562074139209614" />
        <Con id="17" src="1" tgt="7" wght="-4.0679038755607788" />
        <Con id="18" src="1" tgt="8" wght="0.918286873612616" />
        <Con id="19" src="2" tgt="4" wght="-1.259256049803279" />
        <Con id="20" src="2" tgt="5" wght="1.0457114067210305" />
        <Con id="21" src="2" tgt="6" wght="-2.0557795258660958" />
        <Con id="22" src="2" tgt="7" wght="-0.65977276305996591" />
        <Con id="23" src="2" tgt="8" wght="4.72084980008462" />
        <Con id="25" src="3" tgt="5" wght="1.3972101435033102" />
        <Con id="26" src="3" tgt="6" wght="-3.965079209311424" />
        <Con id="27" src="3" tgt="7" wght="-4.802211367758316" />
        <Con id="28" src="3" tgt="8" wght="-2.0799851988120563" />
      </Connections>
    </Network>
  </Networks>
</Root>