<?xml version="1.0" encoding="utf-8"?>
<Root>
  <ActivationFunctions>
    <Fn id="0" name="Linear" prob="0.1" />
    <Fn id="1" name="Sine" prob="0.1" />
    <Fn id="2" name="ArcTan" prob="0.1" />
    <Fn id="3" name="BipolarGaussian" prob="0.1" />
    <Fn id="4" name="BipolarSigmoid" prob="0.1" />
    <Fn id="5" name="LogisticFunction" prob="0.1" />
    <Fn id="6" name="QuadraticSigmoid" prob="0.1" />
    <Fn id="7" name="TanH" prob="0.1" />
    <Fn id="8" name="ArcSinH" prob="0.1" />
    <Fn id="9" name="ReLU" prob="0.1" />
  </ActivationFunctions>
  <Networks>
    <Network id="1" birthGen="0" fitness="0">
      <Nodes>
        <Node type="bias" id="0" fnId="0" />
        <Node type="in" id="1" fnId="0" />
        <Node type="in" id="2" fnId="0" />
        <Node type="in" id="3" fnId="0" />
        <Node type="out" id="4" fnId="0" />
        <Node type="out" id="5" fnId="0" />
        <Node type="out" id="6" fnId="0" />
        <Node type="out" id="7" fnId="0" />
        <Node type="out" id="8" fnId="0" />
      </Nodes>
      <Connections>
        <Con id="9" src="0" tgt="4" wght="0.077065824592378318" />
        <Con id="10" src="0" tgt="5" wght="4.6853877534931918" />
        <Con id="11" src="0" tgt="6" wght="0.061086827331570115" />
        <Con id="12" src="0" tgt="7" wght="4.7807973350123136" />
        <Con id="13" src="0" tgt="8" wght="-4.0541999528211159" />
        <Con id="14" src="1" tgt="4" wght="2.428059240073186" />
        <Con id="15" src="1" tgt="5" wght="-0.32837295528441279" />
        <Con id="16" src="1" tgt="6" wght="3.3960583346156916" />
        <Con id="17" src="1" tgt="7" wght="-4.2025171808690045" />
        <Con id="18" src="1" tgt="8" wght="1.0353562682544259" />
        <Con id="19" src="2" tgt="4" wght="-2.0468962885339206" />
        <Con id="20" src="2" tgt="5" wght="-3.5230889895242323" />
        <Con id="21" src="2" tgt="6" wght="4.2943167280832668" />
        <Con id="22" src="2" tgt="7" wght="-2.2666850819553264" />
        <Con id="23" src="2" tgt="8" wght="-1.428043917736187" />
        <Con id="24" src="3" tgt="4" wght="1.6764818043762841" />
        <Con id="25" src="3" tgt="5" wght="-0.33547650166596332" />
        <Con id="26" src="3" tgt="6" wght="-4.9949132528107052" />
        <Con id="27" src="3" tgt="7" wght="2.4576552661433571" />
        <Con id="28" src="3" tgt="8" wght="-3.2049111024914834" />
      </Connections>
    </Network>
  </Networks>
</Root>