<?xml version="1.0" encoding="utf-8"?>
<Root>
  <ActivationFunctions>
    <Fn id="0" name="Linear" prob="0.1" />
    <Fn id="1" name="BipolarSigmoid" prob="0.3" />
    <Fn id="2" name="Gaussian" prob="0.3" />
    <Fn id="3" name="Sine" prob="0.3" />
  </ActivationFunctions>
  <Networks>
    <Network id="4" birthGen="0" fitness="0">
      <Nodes>
        <Node type="bias" id="0" fnId="0" />
        <Node type="in" id="1" fnId="0" />
        <Node type="in" id="2" fnId="0" />
        <Node type="in" id="3" fnId="0" />
        <Node type="out" id="4" fnId="0" />
        <Node type="out" id="5" fnId="0" />
        <Node type="out" id="6" fnId="0" />
        <Node type="out" id="7" fnId="0" />
        <Node type="out" id="8" fnId="0" />
      </Nodes>
      <Connections>
        <Con id="9" src="0" tgt="4" wght="-3.3577684891028978" />
        <Con id="10" src="0" tgt="5" wght="-3.3349552378691016" />
        <Con id="11" src="0" tgt="6" wght="0.19041993531715096" />
        <Con id="12" src="0" tgt="7" wght="-2.427435358211004" />
        <Con id="13" src="0" tgt="8" wght="2.2835084626796021" />
        <Con id="14" src="1" tgt="4" wght="2.6259588163578251" />
        <Con id="18" src="1" tgt="8" wght="-0.190955693572451" />
        <Con id="19" src="2" tgt="4" wght="0.73193919324397" />
        <Con id="20" src="2" tgt="5" wght="1.4638183505218183" />
        <Con id="21" src="2" tgt="6" wght="0.0010161946434905644" />
        <Con id="22" src="2" tgt="7" wght="-2.8604909805293808" />
        <Con id="23" src="2" tgt="8" wght="-2.3963725036843053" />
        <Con id="25" src="3" tgt="5" wght="-1.9326540737022824" />
        <Con id="26" src="3" tgt="6" wght="-2.7443413383316138" />
        <Con id="27" src="3" tgt="7" wght="-2.6370766940733823" />
        <Con id="28" src="3" tgt="8" wght="-0.86248450093645235" />
      </Connections>
    </Network>
  </Networks>
</Root>