<?xml version="1.0" encoding="utf-8"?>
<Root>
  <ActivationFunctions>
    <Fn id="0" name="Linear" prob="0.1" />
    <Fn id="1" name="BipolarSigmoid" prob="0.3" />
    <Fn id="2" name="Gaussian" prob="0.3" />
    <Fn id="3" name="Sine" prob="0.3" />
  </ActivationFunctions>
  <Networks>
    <Network id="1" birthGen="0" fitness="0">
      <Nodes>
        <Node type="bias" id="0" fnId="0" />
        <Node type="in" id="1" fnId="0" />
        <Node type="in" id="2" fnId="0" />
        <Node type="in" id="3" fnId="0" />
        <Node type="out" id="4" fnId="0" />
        <Node type="out" id="5" fnId="0" />
        <Node type="out" id="6" fnId="0" />
        <Node type="out" id="7" fnId="0" />
        <Node type="out" id="8" fnId="0" />
      </Nodes>
      <Connections>
        <Con id="9" src="0" tgt="4" wght="3.0377122390043851" />
        <Con id="10" src="0" tgt="5" wght="4.4954584072147883" />
        <Con id="11" src="0" tgt="6" wght="0.34693312365538187" />
        <Con id="12" src="0" tgt="7" wght="2.8143714179109147" />
        <Con id="13" src="0" tgt="8" wght="1.4608009251732679" />
        <Con id="14" src="1" tgt="4" wght="-2.3543182107355456" />
        <Con id="15" src="1" tgt="5" wght="4.6918729277266147" />
        <Con id="16" src="1" tgt="6" wght="-3.8174822008368423" />
        <Con id="18" src="1" tgt="8" wght="4.20219659045411" />
        <Con id="19" src="2" tgt="4" wght="1.3809473530017813" />
        <Con id="21" src="2" tgt="6" wght="-4.1740582464749165" />
        <Con id="22" src="2" tgt="7" wght="-4.6578356352746662" />
        <Con id="23" src="2" tgt="8" wght="-0.38048143582977589" />
        <Con id="24" src="3" tgt="4" wght="-3.5337243889574932" />
        <Con id="25" src="3" tgt="5" wght="-4.2491035565956139" />
        <Con id="28" src="3" tgt="8" wght="2.2104851152351088" />
      </Connections>
    </Network>
  </Networks>
</Root>