<?xml version="1.0" encoding="utf-8"?>
<Root>
  <ActivationFunctions>
    <Fn id="0" name="Linear" prob="0.1" />
    <Fn id="1" name="BipolarSigmoid" prob="0.3" />
    <Fn id="2" name="Gaussian" prob="0.3" />
    <Fn id="3" name="Sine" prob="0.3" />
  </ActivationFunctions>
  <Networks>
    <Network id="4" birthGen="0" fitness="0">
      <Nodes>
        <Node type="bias" id="0" fnId="0" />
        <Node type="in" id="1" fnId="0" />
        <Node type="in" id="2" fnId="0" />
        <Node type="in" id="3" fnId="0" />
        <Node type="out" id="4" fnId="0" />
        <Node type="out" id="5" fnId="0" />
        <Node type="out" id="6" fnId="0" />
        <Node type="out" id="7" fnId="0" />
        <Node type="out" id="8" fnId="0" />
      </Nodes>
      <Connections>
        <Con id="9" src="0" tgt="4" wght="2.3562097312721511" />
        <Con id="10" src="0" tgt="5" wght="-0.5804561749973669" />
        <Con id="11" src="0" tgt="6" wght="-1.9616325173502369" />
        <Con id="12" src="0" tgt="7" wght="-4.6645915518212346" />
        <Con id="13" src="0" tgt="8" wght="1.5081277616715449" />
        <Con id="14" src="1" tgt="4" wght="-2.3544500631987528" />
        <Con id="15" src="1" tgt="5" wght="0.8837313649901446" />
        <Con id="16" src="1" tgt="6" wght="2.5522244090496904" />
        <Con id="17" src="1" tgt="7" wght="-1.8550458206272236" />
        <Con id="18" src="1" tgt="8" wght="-2.6920704736233514" />
        <Con id="19" src="2" tgt="4" wght="-1.4625667096827633" />
        <Con id="20" src="2" tgt="5" wght="4.1757076908735975" />
        <Con id="23" src="2" tgt="8" wght="-2.2440107826172992" />
        <Con id="24" src="3" tgt="4" wght="-2.5090019460670163" />
        <Con id="25" src="3" tgt="5" wght="0.20829815359125425" />
        <Con id="28" src="3" tgt="8" wght="2.4629760205467721" />
      </Connections>
    </Network>
  </Networks>
</Root>