<?xml version="1.0" encoding="utf-8"?>
<Root>
  <ActivationFunctions>
    <Fn id="0" name="Linear" prob="0.1" />
    <Fn id="1" name="BipolarSigmoid" prob="0.3" />
    <Fn id="2" name="Gaussian" prob="0.3" />
    <Fn id="3" name="Sine" prob="0.3" />
  </ActivationFunctions>
  <Networks>
    <Network id="0" birthGen="0" fitness="0">
      <Nodes>
        <Node type="bias" id="0" fnId="0" />
        <Node type="in" id="1" fnId="0" />
        <Node type="in" id="2" fnId="0" />
        <Node type="in" id="3" fnId="0" />
        <Node type="out" id="4" fnId="0" />
        <Node type="out" id="5" fnId="0" />
        <Node type="out" id="6" fnId="0" />
        <Node type="out" id="7" fnId="0" />
        <Node type="out" id="8" fnId="0" />
      </Nodes>
      <Connections>
        <Con id="9" src="0" tgt="4" wght="-2.5154901636560045" />
        <Con id="10" src="0" tgt="5" wght="4.9233308732758738" />
        <Con id="11" src="0" tgt="6" wght="4.8806703459501968" />
        <Con id="12" src="0" tgt="7" wght="-0.32374986169255604" />
        <Con id="13" src="0" tgt="8" wght="-0.86731501046613091" />
        <Con id="14" src="1" tgt="4" wght="-1.4986382288050604" />
        <Con id="15" src="1" tgt="5" wght="-2.8542044599348038" />
        <Con id="17" src="1" tgt="7" wght="0.23844597773050258" />
        <Con id="19" src="2" tgt="4" wght="2.3451716318700289" />
        <Con id="20" src="2" tgt="5" wght="1.4287931020173505" />
        <Con id="21" src="2" tgt="6" wght="0.98637315624255262" />
        <Con id="22" src="2" tgt="7" wght="-1.6597648519000952" />
        <Con id="25" src="3" tgt="5" wght="-3.5212378957064794" />
        <Con id="26" src="3" tgt="6" wght="-4.18063133622298" />
        <Con id="27" src="3" tgt="7" wght="-3.7882963699734038" />
        <Con id="28" src="3" tgt="8" wght="-0.30235236839808222" />
      </Connections>
    </Network>
  </Networks>
</Root>