<?xml version="1.0" encoding="utf-8"?>
<Root>
  <ActivationFunctions>
    <Fn id="0" name="Linear" prob="0.1" />
    <Fn id="1" name="BipolarSigmoid" prob="0.3" />
    <Fn id="2" name="Gaussian" prob="0.3" />
    <Fn id="3" name="Sine" prob="0.3" />
  </ActivationFunctions>
  <Networks>
    <Network id="4" birthGen="0" fitness="0">
      <Nodes>
        <Node type="bias" id="0" fnId="0" />
        <Node type="in" id="1" fnId="0" />
        <Node type="in" id="2" fnId="0" />
        <Node type="in" id="3" fnId="0" />
        <Node type="out" id="4" fnId="0" />
        <Node type="out" id="5" fnId="0" />
        <Node type="out" id="6" fnId="0" />
        <Node type="out" id="7" fnId="0" />
        <Node type="out" id="8" fnId="0" />
      </Nodes>
      <Connections>
        <Con id="11" src="0" tgt="6" wght="-1.3679837811527762" />
        <Con id="12" src="0" tgt="7" wght="-3.7411976855765805" />
        <Con id="14" src="1" tgt="4" wght="4.6794919445008549" />
        <Con id="15" src="1" tgt="5" wght="-3.4344974326349966" />
        <Con id="16" src="1" tgt="6" wght="-2.5667658236500266" />
        <Con id="17" src="1" tgt="7" wght="2.441381624461977" />
        <Con id="18" src="1" tgt="8" wght="3.4348097146359304" />
        <Con id="19" src="2" tgt="4" wght="-4.5381540305048249" />
        <Con id="20" src="2" tgt="5" wght="1.8251131356505024" />
        <Con id="21" src="2" tgt="6" wght="-2.7309699001929344" />
        <Con id="22" src="2" tgt="7" wght="-1.6366183054165373" />
        <Con id="24" src="3" tgt="4" wght="0.5589294381214549" />
        <Con id="25" src="3" tgt="5" wght="0.25767688527431387" />
        <Con id="26" src="3" tgt="6" wght="-3.4223901806863646" />
        <Con id="27" src="3" tgt="7" wght="-1.0800336558680679" />
        <Con id="28" src="3" tgt="8" wght="-0.0524296227787735" />
      </Connections>
    </Network>
  </Networks>
</Root>