<?xml version="1.0" encoding="utf-8"?>
<Root>
  <ActivationFunctions>
    <Fn id="0" name="Linear" prob="0.1" />
    <Fn id="1" name="BipolarSigmoid" prob="0.3" />
    <Fn id="2" name="Gaussian" prob="0.3" />
    <Fn id="3" name="Sine" prob="0.3" />
  </ActivationFunctions>
  <Networks>
    <Network id="0" birthGen="0" fitness="0">
      <Nodes>
        <Node type="bias" id="0" fnId="0" />
        <Node type="in" id="1" fnId="0" />
        <Node type="in" id="2" fnId="0" />
        <Node type="in" id="3" fnId="0" />
        <Node type="out" id="4" fnId="0" />
        <Node type="out" id="5" fnId="0" />
        <Node type="out" id="6" fnId="0" />
        <Node type="out" id="7" fnId="0" />
        <Node type="out" id="8" fnId="0" />
      </Nodes>
      <Connections>
        <Con id="9" src="0" tgt="4" wght="-1.6882903513568281" />
        <Con id="10" src="0" tgt="5" wght="3.8292883739772545" />
        <Con id="12" src="0" tgt="7" wght="2.2760547088648875" />
        <Con id="13" src="0" tgt="8" wght="3.3782237868970624" />
        <Con id="14" src="1" tgt="4" wght="0.58419891063503648" />
        <Con id="15" src="1" tgt="5" wght="-0.40297851114788341" />
        <Con id="17" src="1" tgt="7" wght="-3.2189376828784177" />
        <Con id="18" src="1" tgt="8" wght="3.8915829220379674" />
        <Con id="19" src="2" tgt="4" wght="-4.0557868104019645" />
        <Con id="20" src="2" tgt="5" wght="-1.1138921938824509" />
        <Con id="21" src="2" tgt="6" wght="1.9265733307347255" />
        <Con id="22" src="2" tgt="7" wght="4.4031510237301728" />
        <Con id="23" src="2" tgt="8" wght="1.8838973097523604" />
        <Con id="24" src="3" tgt="4" wght="2.4369268527745493" />
        <Con id="25" src="3" tgt="5" wght="3.0301411375543363" />
        <Con id="26" src="3" tgt="6" wght="-0.573355975420119" />
      </Connections>
    </Network>
  </Networks>
</Root>