<?xml version="1.0" encoding="utf-8"?>
<Root>
  <ActivationFunctions>
    <Fn id="0" name="Linear" prob="0.1" />
    <Fn id="1" name="Sine" prob="0.1" />
    <Fn id="2" name="ArcTan" prob="0.1" />
    <Fn id="3" name="BipolarGaussian" prob="0.1" />
    <Fn id="4" name="BipolarSigmoid" prob="0.1" />
    <Fn id="5" name="LogisticFunction" prob="0.1" />
    <Fn id="6" name="QuadraticSigmoid" prob="0.1" />
    <Fn id="7" name="TanH" prob="0.1" />
    <Fn id="8" name="ArcSinH" prob="0.1" />
    <Fn id="9" name="ReLU" prob="0.1" />
  </ActivationFunctions>
  <Networks>
    <Network id="1" birthGen="0" fitness="0">
      <Nodes>
        <Node type="bias" id="0" fnId="0" />
        <Node type="in" id="1" fnId="0" />
        <Node type="in" id="2" fnId="0" />
        <Node type="in" id="3" fnId="0" />
        <Node type="out" id="4" fnId="0" />
        <Node type="out" id="5" fnId="0" />
        <Node type="out" id="6" fnId="0" />
        <Node type="out" id="7" fnId="0" />
        <Node type="out" id="8" fnId="0" />
      </Nodes>
      <Connections>
        <Con id="9" src="0" tgt="4" wght="-1.6956519465352382" />
        <Con id="10" src="0" tgt="5" wght="-3.8213627261605421" />
        <Con id="11" src="0" tgt="6" wght="3.5247731123669634" />
        <Con id="12" src="0" tgt="7" wght="-3.81304244733935" />
        <Con id="13" src="0" tgt="8" wght="-0.817126250196194" />
        <Con id="14" src="1" tgt="4" wght="-1.8415262547613642" />
        <Con id="15" src="1" tgt="5" wght="-1.8051669465555298" />
        <Con id="16" src="1" tgt="6" wght="-0.8258662925859761" />
        <Con id="17" src="1" tgt="7" wght="-2.2377146448799068" />
        <Con id="18" src="1" tgt="8" wght="2.7681488208692437" />
        <Con id="19" src="2" tgt="4" wght="-0.24470907469145264" />
        <Con id="20" src="2" tgt="5" wght="-2.8037080293885142" />
        <Con id="21" src="2" tgt="6" wght="0.35257133071369906" />
        <Con id="22" src="2" tgt="7" wght="-0.019647754031513198" />
        <Con id="23" src="2" tgt="8" wght="4.8761136760723813" />
        <Con id="24" src="3" tgt="4" wght="-2.6843717848040005" />
        <Con id="25" src="3" tgt="5" wght="-2.666661578937414" />
        <Con id="26" src="3" tgt="6" wght="-1.0970419905654893" />
        <Con id="27" src="3" tgt="7" wght="0.27759811083641894" />
        <Con id="28" src="3" tgt="8" wght="2.3281906640901004" />
      </Connections>
    </Network>
  </Networks>
</Root>