<?xml version="1.0" encoding="utf-8"?>
<Root>
  <ActivationFunctions>
    <Fn id="0" name="Linear" prob="0.1" />
    <Fn id="1" name="Sine" prob="0.1" />
    <Fn id="2" name="ArcTan" prob="0.1" />
    <Fn id="3" name="BipolarGaussian" prob="0.1" />
    <Fn id="4" name="BipolarSigmoid" prob="0.1" />
    <Fn id="5" name="LogisticFunction" prob="0.1" />
    <Fn id="6" name="QuadraticSigmoid" prob="0.1" />
    <Fn id="7" name="TanH" prob="0.1" />
    <Fn id="8" name="ArcSinH" prob="0.1" />
    <Fn id="9" name="ReLU" prob="0.1" />
  </ActivationFunctions>
  <Networks>
    <Network id="1" birthGen="0" fitness="0">
      <Nodes>
        <Node type="bias" id="0" fnId="0" />
        <Node type="in" id="1" fnId="0" />
        <Node type="in" id="2" fnId="0" />
        <Node type="in" id="3" fnId="0" />
        <Node type="out" id="4" fnId="0" />
        <Node type="out" id="5" fnId="0" />
        <Node type="out" id="6" fnId="0" />
        <Node type="out" id="7" fnId="0" />
        <Node type="out" id="8" fnId="0" />
      </Nodes>
      <Connections>
        <Con id="9" src="0" tgt="4" wght="2.0069644282981383" />
        <Con id="10" src="0" tgt="5" wght="-4.882362628346141" />
        <Con id="11" src="0" tgt="6" wght="2.2666346439593186" />
        <Con id="12" src="0" tgt="7" wght="0.49541095796480694" />
        <Con id="13" src="0" tgt="8" wght="3.9023638498695523" />
        <Con id="14" src="1" tgt="4" wght="-4.8723245590585682" />
        <Con id="15" src="1" tgt="5" wght="-2.3088437949641802" />
        <Con id="16" src="1" tgt="6" wght="-1.7498412421876719" />
        <Con id="17" src="1" tgt="7" wght="1.2502470943280453" />
        <Con id="18" src="1" tgt="8" wght="-2.2596439337436971" />
        <Con id="19" src="2" tgt="4" wght="-3.4476541937276961" />
        <Con id="20" src="2" tgt="5" wght="-0.9932671649797864" />
        <Con id="21" src="2" tgt="6" wght="-1.8137414917150141" />
        <Con id="22" src="2" tgt="7" wght="4.380409528875898" />
        <Con id="23" src="2" tgt="8" wght="-1.8421930822187338" />
        <Con id="24" src="3" tgt="4" wght="-0.19812932248025605" />
        <Con id="25" src="3" tgt="5" wght="2.0168413226813" />
        <Con id="26" src="3" tgt="6" wght="4.3789410304342162" />
        <Con id="27" src="3" tgt="7" wght="2.954092734462892" />
        <Con id="28" src="3" tgt="8" wght="3.4156524755495909" />
      </Connections>
    </Network>
  </Networks>
</Root>