<?xml version="1.0" encoding="utf-8"?>
<Root>
  <ActivationFunctions>
    <Fn id="0" name="Linear" prob="0.1" />
    <Fn id="1" name="Sine" prob="0.1" />
    <Fn id="2" name="ArcTan" prob="0.1" />
    <Fn id="3" name="BipolarGaussian" prob="0.1" />
    <Fn id="4" name="BipolarSigmoid" prob="0.1" />
    <Fn id="5" name="LogisticFunction" prob="0.1" />
    <Fn id="6" name="QuadraticSigmoid" prob="0.1" />
    <Fn id="7" name="TanH" prob="0.1" />
    <Fn id="8" name="ArcSinH" prob="0.1" />
    <Fn id="9" name="ReLU" prob="0.1" />
  </ActivationFunctions>
  <Networks>
    <Network id="4" birthGen="0" fitness="0">
      <Nodes>
        <Node type="bias" id="0" fnId="0" />
        <Node type="in" id="1" fnId="0" />
        <Node type="in" id="2" fnId="0" />
        <Node type="in" id="3" fnId="0" />
        <Node type="out" id="4" fnId="0" />
        <Node type="out" id="5" fnId="0" />
        <Node type="out" id="6" fnId="0" />
        <Node type="out" id="7" fnId="0" />
        <Node type="out" id="8" fnId="0" />
      </Nodes>
      <Connections>
        <Con id="9" src="0" tgt="4" wght="3.77800404009062" />
        <Con id="10" src="0" tgt="5" wght="4.1785401824734691" />
        <Con id="11" src="0" tgt="6" wght="0.45120972244249713" />
        <Con id="12" src="0" tgt="7" wght="1.5949432782333606" />
        <Con id="13" src="0" tgt="8" wght="-3.7813553136863343" />
        <Con id="14" src="1" tgt="4" wght="2.6684073797713848" />
        <Con id="15" src="1" tgt="5" wght="1.925463386474453" />
        <Con id="16" src="1" tgt="6" wght="0.85034624924235969" />
        <Con id="17" src="1" tgt="7" wght="-2.1928711182393688" />
        <Con id="18" src="1" tgt="8" wght="1.4801821604425713" />
        <Con id="19" src="2" tgt="4" wght="-3.6371247397014592" />
        <Con id="20" src="2" tgt="5" wght="-2.7448618478552742" />
        <Con id="21" src="2" tgt="6" wght="-2.6659168829447779" />
        <Con id="22" src="2" tgt="7" wght="-2.4829593617225854" />
        <Con id="23" src="2" tgt="8" wght="-3.4198573813081468" />
        <Con id="24" src="3" tgt="4" wght="1.2112596621081473" />
        <Con id="25" src="3" tgt="5" wght="-1.5452434557571204" />
        <Con id="26" src="3" tgt="6" wght="-1.2254940955608962" />
        <Con id="27" src="3" tgt="7" wght="-3.3759717660040112" />
        <Con id="28" src="3" tgt="8" wght="-2.1095599749084091" />
      </Connections>
    </Network>
  </Networks>
</Root>