<?xml version="1.0" encoding="utf-8"?>
<Root>
  <ActivationFunctions>
    <Fn id="0" name="Linear" prob="0.1" />
    <Fn id="1" name="Sine" prob="0.1" />
    <Fn id="2" name="ArcTan" prob="0.1" />
    <Fn id="3" name="BipolarGaussian" prob="0.1" />
    <Fn id="4" name="BipolarSigmoid" prob="0.1" />
    <Fn id="5" name="LogisticFunction" prob="0.1" />
    <Fn id="6" name="QuadraticSigmoid" prob="0.1" />
    <Fn id="7" name="TanH" prob="0.1" />
    <Fn id="8" name="ArcSinH" prob="0.1" />
    <Fn id="9" name="ReLU" prob="0.1" />
  </ActivationFunctions>
  <Networks>
    <Network id="4" birthGen="0" fitness="0">
      <Nodes>
        <Node type="bias" id="0" fnId="0" />
        <Node type="in" id="1" fnId="0" />
        <Node type="in" id="2" fnId="0" />
        <Node type="in" id="3" fnId="0" />
        <Node type="out" id="4" fnId="0" />
        <Node type="out" id="5" fnId="0" />
        <Node type="out" id="6" fnId="0" />
        <Node type="out" id="7" fnId="0" />
        <Node type="out" id="8" fnId="0" />
      </Nodes>
      <Connections>
        <Con id="9" src="0" tgt="4" wght="1.5497795910857159" />
        <Con id="10" src="0" tgt="5" wght="-2.8459172954996403" />
        <Con id="11" src="0" tgt="6" wght="-1.5280832776474662" />
        <Con id="12" src="0" tgt="7" wght="2.1455343188939002" />
        <Con id="13" src="0" tgt="8" wght="-1.1114863623647564" />
        <Con id="14" src="1" tgt="4" wght="-3.8369598021470006" />
        <Con id="15" src="1" tgt="5" wght="1.32093808893753" />
        <Con id="16" src="1" tgt="6" wght="-3.8214920217182757" />
        <Con id="17" src="1" tgt="7" wght="0.55298602396178231" />
        <Con id="18" src="1" tgt="8" wght="2.6709295381438181" />
        <Con id="19" src="2" tgt="4" wght="2.5828491017500657" />
        <Con id="20" src="2" tgt="5" wght="-4.45443427441975" />
        <Con id="21" src="2" tgt="6" wght="2.04549062407421" />
        <Con id="22" src="2" tgt="7" wght="0.032647036936875873" />
        <Con id="23" src="2" tgt="8" wght="-0.0040489723054015769" />
        <Con id="24" src="3" tgt="4" wght="3.9155225803500784" />
        <Con id="25" src="3" tgt="5" wght="-4.6264093477352786" />
        <Con id="26" src="3" tgt="6" wght="-1.6272215657175615" />
        <Con id="27" src="3" tgt="7" wght="-3.7894226164005462" />
        <Con id="28" src="3" tgt="8" wght="3.6209568971578032" />
      </Connections>
    </Network>
  </Networks>
</Root>