<?xml version="1.0" encoding="utf-8"?>
<Root>
  <ActivationFunctions>
    <Fn id="0" name="Linear" prob="0.1" />
    <Fn id="1" name="BipolarSigmoid" prob="0.3" />
    <Fn id="2" name="Gaussian" prob="0.3" />
    <Fn id="3" name="Sine" prob="0.3" />
  </ActivationFunctions>
  <Networks>
    <Network id="0" birthGen="0" fitness="0">
      <Nodes>
        <Node type="bias" id="0" fnId="0" />
        <Node type="in" id="1" fnId="0" />
        <Node type="in" id="2" fnId="0" />
        <Node type="in" id="3" fnId="0" />
        <Node type="out" id="4" fnId="0" />
        <Node type="out" id="5" fnId="0" />
        <Node type="out" id="6" fnId="0" />
        <Node type="out" id="7" fnId="0" />
        <Node type="out" id="8" fnId="0" />
      </Nodes>
      <Connections>
        <Con id="9" src="0" tgt="4" wght="3.8440169092004997" />
        <Con id="12" src="0" tgt="7" wght="-3.1072485413404016" />
        <Con id="13" src="0" tgt="8" wght="0.85593694600756165" />
        <Con id="14" src="1" tgt="4" wght="-0.61043866772968913" />
        <Con id="15" src="1" tgt="5" wght="3.047526061529032" />
        <Con id="16" src="1" tgt="6" wght="3.5618572948957992" />
        <Con id="17" src="1" tgt="7" wght="-0.660799876597391" />
        <Con id="18" src="1" tgt="8" wght="-0.03093096003709217" />
        <Con id="19" src="2" tgt="4" wght="-1.5561414811900209" />
        <Con id="21" src="2" tgt="6" wght="-0.89321790104413545" />
        <Con id="22" src="2" tgt="7" wght="1.4427172356232054" />
        <Con id="23" src="2" tgt="8" wght="3.729895903305056" />
        <Con id="24" src="3" tgt="4" wght="2.2060962126561909" />
        <Con id="25" src="3" tgt="5" wght="4.5792042379839391" />
        <Con id="26" src="3" tgt="6" wght="3.1085446607816811" />
        <Con id="27" src="3" tgt="7" wght="2.4195597208839938" />
      </Connections>
    </Network>
  </Networks>
</Root>