<?xml version="1.0" encoding="utf-8"?>
<Root>
  <ActivationFunctions>
    <Fn id="0" name="Linear" prob="0.1" />
    <Fn id="1" name="BipolarSigmoid" prob="0.3" />
    <Fn id="2" name="Gaussian" prob="0.3" />
    <Fn id="3" name="Sine" prob="0.3" />
  </ActivationFunctions>
  <Networks>
    <Network id="0" birthGen="0" fitness="0">
      <Nodes>
        <Node type="bias" id="0" fnId="0" />
        <Node type="in" id="1" fnId="0" />
        <Node type="in" id="2" fnId="0" />
        <Node type="in" id="3" fnId="0" />
        <Node type="out" id="4" fnId="0" />
        <Node type="out" id="5" fnId="0" />
        <Node type="out" id="6" fnId="0" />
        <Node type="out" id="7" fnId="0" />
        <Node type="out" id="8" fnId="0" />
      </Nodes>
      <Connections>
        <Con id="9" src="0" tgt="4" wght="3.7355480566087107" />
        <Con id="10" src="0" tgt="5" wght="4.9575058193955943" />
        <Con id="11" src="0" tgt="6" wght="1.3934221079633058" />
        <Con id="13" src="0" tgt="8" wght="4.7826214242198439" />
        <Con id="14" src="1" tgt="4" wght="2.1804244052084112" />
        <Con id="15" src="1" tgt="5" wght="2.7205443353256022" />
        <Con id="18" src="1" tgt="8" wght="3.3779518217364912" />
        <Con id="19" src="2" tgt="4" wght="0.69129566268093079" />
        <Con id="20" src="2" tgt="5" wght="0.26473186547459115" />
        <Con id="21" src="2" tgt="6" wght="-3.3479878068771205" />
        <Con id="22" src="2" tgt="7" wght="-4.7162156025349358" />
        <Con id="23" src="2" tgt="8" wght="3.0581577910254767" />
        <Con id="24" src="3" tgt="4" wght="-2.1866654408406907" />
        <Con id="25" src="3" tgt="5" wght="1.4149935520008761" />
        <Con id="27" src="3" tgt="7" wght="3.7206907930764177" />
        <Con id="28" src="3" tgt="8" wght="2.2929982147050443" />
      </Connections>
    </Network>
  </Networks>
</Root>