<?xml version="1.0" encoding="utf-8"?>
<Root>
  <ActivationFunctions>
    <Fn id="0" name="Linear" prob="0.1" />
    <Fn id="1" name="BipolarSigmoid" prob="0.3" />
    <Fn id="2" name="Gaussian" prob="0.3" />
    <Fn id="3" name="Sine" prob="0.3" />
  </ActivationFunctions>
  <Networks>
    <Network id="4" birthGen="0" fitness="0">
      <Nodes>
        <Node type="bias" id="0" fnId="0" />
        <Node type="in" id="1" fnId="0" />
        <Node type="in" id="2" fnId="0" />
        <Node type="in" id="3" fnId="0" />
        <Node type="out" id="4" fnId="0" />
        <Node type="out" id="5" fnId="0" />
        <Node type="out" id="6" fnId="0" />
        <Node type="out" id="7" fnId="0" />
        <Node type="out" id="8" fnId="0" />
      </Nodes>
      <Connections>
        <Con id="9" src="0" tgt="4" wght="-3.9730367651805842" />
        <Con id="10" src="0" tgt="5" wght="-1.9168448537044691" />
        <Con id="11" src="0" tgt="6" wght="1.3147726630298739" />
        <Con id="12" src="0" tgt="7" wght="3.8339627909279264" />
        <Con id="14" src="1" tgt="4" wght="-3.762445876094036" />
        <Con id="15" src="1" tgt="5" wght="-0.4719974360623469" />
        <Con id="16" src="1" tgt="6" wght="-2.7590223845420105" />
        <Con id="17" src="1" tgt="7" wght="-1.0537201641213334" />
        <Con id="18" src="1" tgt="8" wght="4.54583013842068" />
        <Con id="19" src="2" tgt="4" wght="-1.6453225825073514" />
        <Con id="21" src="2" tgt="6" wght="0.59771802236559535" />
        <Con id="22" src="2" tgt="7" wght="1.1900986492583088" />
        <Con id="23" src="2" tgt="8" wght="-0.86116734962629615" />
        <Con id="24" src="3" tgt="4" wght="4.1170130228459891" />
        <Con id="26" src="3" tgt="6" wght="3.3155107200884935" />
        <Con id="28" src="3" tgt="8" wght="2.4521379042727531" />
      </Connections>
    </Network>
  </Networks>
</Root>