<?xml version="1.0" encoding="utf-8"?>
<Root>
  <ActivationFunctions>
    <Fn id="0" name="Linear" prob="0.1" />
    <Fn id="1" name="Sine" prob="0.1" />
    <Fn id="2" name="ArcTan" prob="0.1" />
    <Fn id="3" name="BipolarGaussian" prob="0.1" />
    <Fn id="4" name="BipolarSigmoid" prob="0.1" />
    <Fn id="5" name="LogisticFunction" prob="0.1" />
    <Fn id="6" name="QuadraticSigmoid" prob="0.1" />
    <Fn id="7" name="TanH" prob="0.1" />
    <Fn id="8" name="ArcSinH" prob="0.1" />
    <Fn id="9" name="ReLU" prob="0.1" />
  </ActivationFunctions>
  <Networks>
    <Network id="0" birthGen="0" fitness="0">
      <Nodes>
        <Node type="bias" id="0" fnId="0" />
        <Node type="in" id="1" fnId="0" />
        <Node type="in" id="2" fnId="0" />
        <Node type="in" id="3" fnId="0" />
        <Node type="out" id="4" fnId="0" />
        <Node type="out" id="5" fnId="0" />
        <Node type="out" id="6" fnId="0" />
        <Node type="out" id="7" fnId="0" />
        <Node type="out" id="8" fnId="0" />
      </Nodes>
      <Connections>
        <Con id="9" src="0" tgt="4" wght="1.443433904595085" />
        <Con id="10" src="0" tgt="5" wght="4.1121138556336536" />
        <Con id="11" src="0" tgt="6" wght="1.3919463221957862" />
        <Con id="12" src="0" tgt="7" wght="-2.72684628757435" />
        <Con id="13" src="0" tgt="8" wght="2.4211509497160097" />
        <Con id="14" src="1" tgt="4" wght="4.435572045779316" />
        <Con id="15" src="1" tgt="5" wght="1.1259461649614078" />
        <Con id="16" src="1" tgt="6" wght="-2.5280715172259391" />
        <Con id="17" src="1" tgt="7" wght="-1.1722486648081076" />
        <Con id="18" src="1" tgt="8" wght="-0.40150681345700434" />
        <Con id="19" src="2" tgt="4" wght="3.6725185596833789" />
        <Con id="20" src="2" tgt="5" wght="2.8916162916226629" />
        <Con id="21" src="2" tgt="6" wght="-4.2145217999568967" />
        <Con id="22" src="2" tgt="7" wght="-0.040284378175796665" />
        <Con id="23" src="2" tgt="8" wght="-4.2693100110991464" />
        <Con id="24" src="3" tgt="4" wght="-2.1495874821559537" />
        <Con id="25" src="3" tgt="5" wght="3.6290313994976007" />
        <Con id="26" src="3" tgt="6" wght="-2.0613335129350476" />
        <Con id="27" src="3" tgt="7" wght="-1.2942909725104579" />
        <Con id="28" src="3" tgt="8" wght="-3.10125664585121" />
      </Connections>
    </Network>
  </Networks>
</Root>