<?xml version="1.0" encoding="utf-8"?>
<Root>
  <ActivationFunctions>
    <Fn id="0" name="Linear" prob="0.1" />
    <Fn id="1" name="BipolarSigmoid" prob="0.3" />
    <Fn id="2" name="Gaussian" prob="0.3" />
    <Fn id="3" name="Sine" prob="0.3" />
  </ActivationFunctions>
  <Networks>
    <Network id="2" birthGen="0" fitness="0">
      <Nodes>
        <Node type="bias" id="0" fnId="0" />
        <Node type="in" id="1" fnId="0" />
        <Node type="in" id="2" fnId="0" />
        <Node type="in" id="3" fnId="0" />
        <Node type="out" id="4" fnId="0" />
        <Node type="out" id="5" fnId="0" />
        <Node type="out" id="6" fnId="0" />
        <Node type="out" id="7" fnId="0" />
        <Node type="out" id="8" fnId="0" />
      </Nodes>
      <Connections>
        <Con id="9" src="0" tgt="4" wght="0.76475727494945134" />
        <Con id="10" src="0" tgt="5" wght="-2.0469009763548263" />
        <Con id="11" src="0" tgt="6" wght="2.488463385564208" />
        <Con id="14" src="1" tgt="4" wght="2.9766070668086697" />
        <Con id="16" src="1" tgt="6" wght="4.94878315512366" />
        <Con id="17" src="1" tgt="7" wght="-3.8059375260499717" />
        <Con id="18" src="1" tgt="8" wght="3.850655452349232" />
        <Con id="19" src="2" tgt="4" wght="3.7675359404710362" />
        <Con id="20" src="2" tgt="5" wght="-2.8723268332985343" />
        <Con id="21" src="2" tgt="6" wght="1.0555323955886131" />
        <Con id="22" src="2" tgt="7" wght="-3.1829327637083504" />
        <Con id="23" src="2" tgt="8" wght="4.8983809957659332" />
        <Con id="24" src="3" tgt="4" wght="1.1600320829950173" />
        <Con id="25" src="3" tgt="5" wght="2.7164828268426131" />
        <Con id="26" src="3" tgt="6" wght="-4.4398133288732193" />
        <Con id="28" src="3" tgt="8" wght="0.90248302393225122" />
      </Connections>
    </Network>
  </Networks>
</Root>