<?xml version="1.0" encoding="utf-8"?>
<Root>
  <ActivationFunctions>
    <Fn id="0" name="Linear" prob="0.1" />
    <Fn id="1" name="Sine" prob="0.1" />
    <Fn id="2" name="ArcTan" prob="0.1" />
    <Fn id="3" name="BipolarGaussian" prob="0.1" />
    <Fn id="4" name="BipolarSigmoid" prob="0.1" />
    <Fn id="5" name="LogisticFunction" prob="0.1" />
    <Fn id="6" name="QuadraticSigmoid" prob="0.1" />
    <Fn id="7" name="TanH" prob="0.1" />
    <Fn id="8" name="ArcSinH" prob="0.1" />
    <Fn id="9" name="ReLU" prob="0.1" />
  </ActivationFunctions>
  <Networks>
    <Network id="1" birthGen="0" fitness="0">
      <Nodes>
        <Node type="bias" id="0" fnId="0" />
        <Node type="in" id="1" fnId="0" />
        <Node type="in" id="2" fnId="0" />
        <Node type="in" id="3" fnId="0" />
        <Node type="out" id="4" fnId="0" />
        <Node type="out" id="5" fnId="0" />
        <Node type="out" id="6" fnId="0" />
        <Node type="out" id="7" fnId="0" />
        <Node type="out" id="8" fnId="0" />
      </Nodes>
      <Connections>
        <Con id="9" src="0" tgt="4" wght="0.63412778004898085" />
        <Con id="10" src="0" tgt="5" wght="-1.0379407203178292" />
        <Con id="11" src="0" tgt="6" wght="-1.6023749334869919" />
        <Con id="12" src="0" tgt="7" wght="1.2981495594344339" />
        <Con id="13" src="0" tgt="8" wght="-0.13545159234410686" />
        <Con id="14" src="1" tgt="4" wght="2.8839340981885622" />
        <Con id="15" src="1" tgt="5" wght="3.8363167232802087" />
        <Con id="16" src="1" tgt="6" wght="-2.963461388877271" />
        <Con id="17" src="1" tgt="7" wght="-1.4624521958805081" />
        <Con id="18" src="1" tgt="8" wght="-4.5019732431499992" />
        <Con id="19" src="2" tgt="4" wght="-4.2770266112201512" />
        <Con id="20" src="2" tgt="5" wght="-3.4164538424892541" />
        <Con id="21" src="2" tgt="6" wght="0.60228271680006551" />
        <Con id="22" src="2" tgt="7" wght="1.8830549714721256" />
        <Con id="23" src="2" tgt="8" wght="-3.9612593417507136" />
        <Con id="24" src="3" tgt="4" wght="4.6519157082984535" />
        <Con id="25" src="3" tgt="5" wght="-3.4438274992655273" />
        <Con id="26" src="3" tgt="6" wght="4.50719228534677" />
        <Con id="27" src="3" tgt="7" wght="1.7357020419371316" />
        <Con id="28" src="3" tgt="8" wght="-1.348815636922418" />
      </Connections>
    </Network>
  </Networks>
</Root>