<?xml version="1.0" encoding="utf-8"?>
<Root>
  <ActivationFunctions>
    <Fn id="0" name="Linear" prob="0.1" />
    <Fn id="1" name="Sine" prob="0.1" />
    <Fn id="2" name="ArcTan" prob="0.1" />
    <Fn id="3" name="BipolarGaussian" prob="0.1" />
    <Fn id="4" name="BipolarSigmoid" prob="0.1" />
    <Fn id="5" name="LogisticFunction" prob="0.1" />
    <Fn id="6" name="QuadraticSigmoid" prob="0.1" />
    <Fn id="7" name="TanH" prob="0.1" />
    <Fn id="8" name="ArcSinH" prob="0.1" />
    <Fn id="9" name="ReLU" prob="0.1" />
  </ActivationFunctions>
  <Networks>
    <Network id="2" birthGen="0" fitness="0">
      <Nodes>
        <Node type="bias" id="0" fnId="0" />
        <Node type="in" id="1" fnId="0" />
        <Node type="in" id="2" fnId="0" />
        <Node type="in" id="3" fnId="0" />
        <Node type="out" id="4" fnId="0" />
        <Node type="out" id="5" fnId="0" />
        <Node type="out" id="6" fnId="0" />
        <Node type="out" id="7" fnId="0" />
        <Node type="out" id="8" fnId="0" />
      </Nodes>
      <Connections>
        <Con id="9" src="0" tgt="4" wght="-1.0686778928961604" />
        <Con id="10" src="0" tgt="5" wght="-1.5805351515968058" />
        <Con id="11" src="0" tgt="6" wght="4.140229300958902" />
        <Con id="12" src="0" tgt="7" wght="4.062117367440635" />
        <Con id="13" src="0" tgt="8" wght="-4.78964712271754" />
        <Con id="14" src="1" tgt="4" wght="0.835902693008086" />
        <Con id="15" src="1" tgt="5" wght="1.0092975266043858" />
        <Con id="16" src="1" tgt="6" wght="0.93033873849241111" />
        <Con id="17" src="1" tgt="7" wght="-2.5860200121996959" />
        <Con id="18" src="1" tgt="8" wght="-0.55381557961735162" />
        <Con id="19" src="2" tgt="4" wght="-0.3412741417243248" />
        <Con id="20" src="2" tgt="5" wght="2.3262098968936962" />
        <Con id="21" src="2" tgt="6" wght="2.916621566617712" />
        <Con id="22" src="2" tgt="7" wght="1.1176352068369477" />
        <Con id="23" src="2" tgt="8" wght="4.3498555435170081" />
        <Con id="24" src="3" tgt="4" wght="2.8414904967516397" />
        <Con id="25" src="3" tgt="5" wght="4.8394783855801009" />
        <Con id="26" src="3" tgt="6" wght="4.8476392351050475" />
        <Con id="27" src="3" tgt="7" wght="0.25299350015534294" />
        <Con id="28" src="3" tgt="8" wght="-3.182723098003982" />
      </Connections>
    </Network>
  </Networks>
</Root>