<?xml version="1.0" encoding="utf-8"?>
<Root>
  <ActivationFunctions>
    <Fn id="0" name="Linear" prob="0.1" />
    <Fn id="1" name="Sine" prob="0.1" />
    <Fn id="2" name="ArcTan" prob="0.1" />
    <Fn id="3" name="BipolarGaussian" prob="0.1" />
    <Fn id="4" name="BipolarSigmoid" prob="0.1" />
    <Fn id="5" name="LogisticFunction" prob="0.1" />
    <Fn id="6" name="QuadraticSigmoid" prob="0.1" />
    <Fn id="7" name="TanH" prob="0.1" />
    <Fn id="8" name="ArcSinH" prob="0.1" />
    <Fn id="9" name="ReLU" prob="0.1" />
  </ActivationFunctions>
  <Networks>
    <Network id="4" birthGen="0" fitness="0">
      <Nodes>
        <Node type="bias" id="0" fnId="0" />
        <Node type="in" id="1" fnId="0" />
        <Node type="in" id="2" fnId="0" />
        <Node type="in" id="3" fnId="0" />
        <Node type="out" id="4" fnId="0" />
        <Node type="out" id="5" fnId="0" />
        <Node type="out" id="6" fnId="0" />
        <Node type="out" id="7" fnId="0" />
        <Node type="out" id="8" fnId="0" />
      </Nodes>
      <Connections>
        <Con id="9" src="0" tgt="4" wght="-4.5881366040447649" />
        <Con id="10" src="0" tgt="5" wght="2.7414224942484386" />
        <Con id="11" src="0" tgt="6" wght="4.5984015870195085" />
        <Con id="12" src="0" tgt="7" wght="4.9912799467011757" />
        <Con id="13" src="0" tgt="8" wght="-1.0707130679387178" />
        <Con id="14" src="1" tgt="4" wght="-1.891364316477987" />
        <Con id="15" src="1" tgt="5" wght="4.45961864913898" />
        <Con id="16" src="1" tgt="6" wght="2.4910999482067018" />
        <Con id="17" src="1" tgt="7" wght="1.1747908284791453" />
        <Con id="18" src="1" tgt="8" wght="-3.3069147768238363" />
        <Con id="19" src="2" tgt="4" wght="-3.7495314453492892" />
        <Con id="20" src="2" tgt="5" wght="3.4204989735458771" />
        <Con id="21" src="2" tgt="6" wght="-0.50208306093656785" />
        <Con id="22" src="2" tgt="7" wght="4.9619049044189545" />
        <Con id="23" src="2" tgt="8" wght="0.16731778954720444" />
        <Con id="24" src="3" tgt="4" wght="-3.4745356896916082" />
        <Con id="25" src="3" tgt="5" wght="2.0710216387030256" />
        <Con id="26" src="3" tgt="6" wght="4.19735159802129" />
        <Con id="27" src="3" tgt="7" wght="2.6691838318000007" />
        <Con id="28" src="3" tgt="8" wght="2.8544696956324769" />
      </Connections>
    </Network>
  </Networks>
</Root>