<?xml version="1.0" encoding="utf-8"?>
<Root>
  <ActivationFunctions>
    <Fn id="0" name="Linear" prob="0.1" />
    <Fn id="1" name="BipolarSigmoid" prob="0.3" />
    <Fn id="2" name="Gaussian" prob="0.3" />
    <Fn id="3" name="Sine" prob="0.3" />
  </ActivationFunctions>
  <Networks>
    <Network id="3" birthGen="0" fitness="0">
      <Nodes>
        <Node type="bias" id="0" fnId="0" />
        <Node type="in" id="1" fnId="0" />
        <Node type="in" id="2" fnId="0" />
        <Node type="in" id="3" fnId="0" />
        <Node type="out" id="4" fnId="0" />
        <Node type="out" id="5" fnId="0" />
        <Node type="out" id="6" fnId="0" />
        <Node type="out" id="7" fnId="0" />
        <Node type="out" id="8" fnId="0" />
      </Nodes>
      <Connections>
        <Con id="9" src="0" tgt="4" wght="-1.9759121406467983" />
        <Con id="11" src="0" tgt="6" wght="-3.2631763114765122" />
        <Con id="12" src="0" tgt="7" wght="-1.4257875352213689" />
        <Con id="14" src="1" tgt="4" wght="1.7475907968832138" />
        <Con id="15" src="1" tgt="5" wght="-2.2122706568189496" />
        <Con id="16" src="1" tgt="6" wght="1.7005453077677235" />
        <Con id="17" src="1" tgt="7" wght="2.6413985531361783" />
        <Con id="18" src="1" tgt="8" wght="-2.3635093200332058" />
        <Con id="19" src="2" tgt="4" wght="-0.89184831635805151" />
        <Con id="21" src="2" tgt="6" wght="0.49920766477189571" />
        <Con id="22" src="2" tgt="7" wght="-0.29617588831090891" />
        <Con id="23" src="2" tgt="8" wght="4.9676488840805133" />
        <Con id="24" src="3" tgt="4" wght="3.688496292268125" />
        <Con id="26" src="3" tgt="6" wght="-3.3214492648299245" />
        <Con id="27" src="3" tgt="7" wght="3.7342849379900867" />
        <Con id="28" src="3" tgt="8" wght="2.041871116627505" />
      </Connections>
    </Network>
  </Networks>
</Root>