<?xml version="1.0" encoding="utf-8"?>
<Root>
  <ActivationFunctions>
    <Fn id="0" name="Linear" prob="0.1" />
    <Fn id="1" name="BipolarSigmoid" prob="0.3" />
    <Fn id="2" name="Gaussian" prob="0.3" />
    <Fn id="3" name="Sine" prob="0.3" />
  </ActivationFunctions>
  <Networks>
    <Network id="75" birthGen="12" fitness="0">
      <Nodes>
        <Node type="bias" id="0" fnId="0" />
        <Node type="in" id="1" fnId="0" />
        <Node type="in" id="2" fnId="0" />
        <Node type="in" id="3" fnId="0" />
        <Node type="out" id="4" fnId="0" />
        <Node type="out" id="5" fnId="0" />
        <Node type="out" id="6" fnId="0" />
        <Node type="out" id="7" fnId="0" />
        <Node type="out" id="8" fnId="0" />
        <Node type="hid" id="33" fnId="1" />
        <Node type="hid" id="46" fnId="2" />
      </Nodes>
      <Connections>
        <Con id="9" src="0" tgt="4" wght="-4.1327390627664107" />
        <Con id="10" src="0" tgt="5" wght="0.99111074583457692" />
        <Con id="11" src="0" tgt="6" wght="0.57272880392542747" />
        <Con id="12" src="0" tgt="7" wght="3.1643043330253384" />
        <Con id="13" src="0" tgt="8" wght="2.9856299229655869" />
        <Con id="14" src="1" tgt="4" wght="2.9379229279971995" />
        <Con id="15" src="1" tgt="5" wght="-0.42369522106985857" />
        <Con id="16" src="1" tgt="6" wght="2.7791938744310549" />
        <Con id="17" src="1" tgt="7" wght="1.0459788787437048" />
        <Con id="18" src="1" tgt="8" wght="-3.0004469417734168" />
        <Con id="19" src="2" tgt="4" wght="4.8048379877903713" />
        <Con id="20" src="2" tgt="5" wght="0.019045576696405941" />
        <Con id="21" src="2" tgt="6" wght="-0.85861010436402263" />
        <Con id="22" src="2" tgt="7" wght="1.3954062454786254" />
        <Con id="23" src="2" tgt="8" wght="3.81644696627594" />
        <Con id="24" src="3" tgt="4" wght="-0.53142667259464926" />
        <Con id="25" src="3" tgt="5" wght="-3.5369132831870265" />
        <Con id="26" src="3" tgt="6" wght="-4.9804899798846893" />
        <Con id="27" src="3" tgt="7" wght="-4.4887833171364013" />
        <Con id="28" src="3" tgt="8" wght="-1.8377195085698605" />
        <Con id="34" src="2" tgt="33" wght="1.6734155540808804" />
        <Con id="35" src="33" tgt="6" wght="5" />
        <Con id="47" src="1" tgt="46" wght="-0.42369522106985857" />
        <Con id="48" src="46" tgt="5" wght="5" />
      </Connections>
    </Network>
  </Networks>
</Root>