<?xml version="1.0" encoding="utf-8"?>
<Root>
  <ActivationFunctions>
    <Fn id="0" name="Linear" prob="0.1" />
    <Fn id="1" name="BipolarSigmoid" prob="0.3" />
    <Fn id="2" name="Gaussian" prob="0.3" />
    <Fn id="3" name="Sine" prob="0.3" />
  </ActivationFunctions>
  <Networks>
    <Network id="0" birthGen="0" fitness="0">
      <Nodes>
        <Node type="bias" id="0" fnId="0" />
        <Node type="in" id="1" fnId="0" />
        <Node type="in" id="2" fnId="0" />
        <Node type="in" id="3" fnId="0" />
        <Node type="out" id="4" fnId="0" />
        <Node type="out" id="5" fnId="0" />
        <Node type="out" id="6" fnId="0" />
        <Node type="out" id="7" fnId="0" />
        <Node type="out" id="8" fnId="0" />
      </Nodes>
      <Connections>
        <Con id="9" src="0" tgt="4" wght="-1.0857862010581099" />
        <Con id="10" src="0" tgt="5" wght="0.44086807293888697" />
        <Con id="11" src="0" tgt="6" wght="-2.2482633640319616" />
        <Con id="12" src="0" tgt="7" wght="2.8541069637985772" />
        <Con id="13" src="0" tgt="8" wght="0.28660507952829373" />
        <Con id="14" src="1" tgt="4" wght="-4.87689139931188" />
        <Con id="15" src="1" tgt="5" wght="-2.35318603439151" />
        <Con id="17" src="1" tgt="7" wght="-3.3621951852569776" />
        <Con id="19" src="2" tgt="4" wght="3.1779350947923457" />
        <Con id="21" src="2" tgt="6" wght="-4.88496618281536" />
        <Con id="22" src="2" tgt="7" wght="1.2235086740180146" />
        <Con id="24" src="3" tgt="4" wght="0.029998491117313453" />
        <Con id="25" src="3" tgt="5" wght="4.9605547364752827" />
        <Con id="26" src="3" tgt="6" wght="-4.1704756803912133" />
        <Con id="27" src="3" tgt="7" wght="-0.89033637088676065" />
        <Con id="28" src="3" tgt="8" wght="-4.7593503612838441" />
      </Connections>
    </Network>
  </Networks>
</Root>