<?xml version="1.0" encoding="utf-8"?>
<Root>
  <ActivationFunctions>
    <Fn id="0" name="Linear" prob="0.1" />
    <Fn id="1" name="Sine" prob="0.1" />
    <Fn id="2" name="ArcTan" prob="0.1" />
    <Fn id="3" name="BipolarGaussian" prob="0.1" />
    <Fn id="4" name="BipolarSigmoid" prob="0.1" />
    <Fn id="5" name="LogisticFunction" prob="0.1" />
    <Fn id="6" name="QuadraticSigmoid" prob="0.1" />
    <Fn id="7" name="TanH" prob="0.1" />
    <Fn id="8" name="ArcSinH" prob="0.1" />
    <Fn id="9" name="ReLU" prob="0.1" />
  </ActivationFunctions>
  <Networks>
    <Network id="1" birthGen="0" fitness="0">
      <Nodes>
        <Node type="bias" id="0" fnId="0" />
        <Node type="in" id="1" fnId="0" />
        <Node type="in" id="2" fnId="0" />
        <Node type="in" id="3" fnId="0" />
        <Node type="out" id="4" fnId="0" />
        <Node type="out" id="5" fnId="0" />
        <Node type="out" id="6" fnId="0" />
        <Node type="out" id="7" fnId="0" />
        <Node type="out" id="8" fnId="0" />
      </Nodes>
      <Connections>
        <Con id="9" src="0" tgt="4" wght="-4.127690110584342" />
        <Con id="10" src="0" tgt="5" wght="0.055356407144760977" />
        <Con id="11" src="0" tgt="6" wght="-0.4314324290290561" />
        <Con id="12" src="0" tgt="7" wght="2.5967040299308963" />
        <Con id="13" src="0" tgt="8" wght="3.6651796203501252" />
        <Con id="14" src="1" tgt="4" wght="-4.2923551292146058" />
        <Con id="15" src="1" tgt="5" wght="0.65377006778409852" />
        <Con id="16" src="1" tgt="6" wght="-0.69643311138099517" />
        <Con id="17" src="1" tgt="7" wght="-0.83199235737599131" />
        <Con id="18" src="1" tgt="8" wght="4.3149450502795279" />
        <Con id="19" src="2" tgt="4" wght="-1.2050644983249603" />
        <Con id="20" src="2" tgt="5" wght="1.2102950819865987" />
        <Con id="21" src="2" tgt="6" wght="3.28972543743264" />
        <Con id="22" src="2" tgt="7" wght="-2.7523875321207503" />
        <Con id="23" src="2" tgt="8" wght="2.055344650522918" />
        <Con id="24" src="3" tgt="4" wght="-0.85337784355779878" />
        <Con id="25" src="3" tgt="5" wght="-0.10038386412437372" />
        <Con id="26" src="3" tgt="6" wght="0.57194607061990643" />
        <Con id="27" src="3" tgt="7" wght="-1.3150436246037589" />
        <Con id="28" src="3" tgt="8" wght="-4.26122941370272" />
      </Connections>
    </Network>
  </Networks>
</Root>