<?xml version="1.0" encoding="utf-8"?>
<Root>
  <ActivationFunctions>
    <Fn id="0" name="Linear" prob="0.1" />
    <Fn id="1" name="BipolarSigmoid" prob="0.3" />
    <Fn id="2" name="Gaussian" prob="0.3" />
    <Fn id="3" name="Sine" prob="0.3" />
  </ActivationFunctions>
  <Networks>
    <Network id="60" birthGen="10" fitness="0">
      <Nodes>
        <Node type="bias" id="0" fnId="0" />
        <Node type="in" id="1" fnId="0" />
        <Node type="in" id="2" fnId="0" />
        <Node type="in" id="3" fnId="0" />
        <Node type="out" id="4" fnId="0" />
        <Node type="out" id="5" fnId="0" />
        <Node type="out" id="6" fnId="0" />
        <Node type="out" id="7" fnId="0" />
        <Node type="out" id="8" fnId="0" />
        <Node type="hid" id="29" fnId="0" />
        <Node type="hid" id="35" fnId="1" />
        <Node type="hid" id="39" fnId="3" />
        <Node type="hid" id="43" fnId="2" />
        <Node type="hid" id="50" fnId="2" />
        <Node type="hid" id="68" fnId="3" />
        <Node type="hid" id="71" fnId="3" />
      </Nodes>
      <Connections>
        <Con id="9" src="0" tgt="4" wght="-0.063113682545701266" />
        <Con id="10" src="0" tgt="5" wght="-3.2764503526319877" />
        <Con id="11" src="0" tgt="6" wght="3.3645552272464494" />
        <Con id="12" src="0" tgt="7" wght="0.42100867778120055" />
        <Con id="13" src="0" tgt="8" wght="3.4050143629951979" />
        <Con id="14" src="1" tgt="4" wght="0.29743578078908706" />
        <Con id="15" src="1" tgt="5" wght="-4.5376041037467338" />
        <Con id="16" src="1" tgt="6" wght="0.64452621492235185" />
        <Con id="17" src="1" tgt="7" wght="-2.49585534586094" />
        <Con id="18" src="1" tgt="8" wght="-3.4130566780133909" />
        <Con id="19" src="2" tgt="4" wght="-1.6453785427986967" />
        <Con id="20" src="2" tgt="5" wght="-0.8323180219689652" />
        <Con id="21" src="2" tgt="6" wght="0.051591908235166795" />
        <Con id="22" src="2" tgt="7" wght="2.4905679807479686" />
        <Con id="23" src="2" tgt="8" wght="0.69315913054833755" />
        <Con id="24" src="3" tgt="4" wght="2.9644490840386153" />
        <Con id="25" src="3" tgt="5" wght="-3.2491823030124434" />
        <Con id="26" src="3" tgt="6" wght="2.212202717597834" />
        <Con id="27" src="3" tgt="7" wght="0.861547993298285" />
        <Con id="28" src="3" tgt="8" wght="-4.19039042146893" />
        <Con id="30" src="3" tgt="29" wght="3.03980990319321" />
        <Con id="31" src="29" tgt="6" wght="5" />
        <Con id="36" src="3" tgt="35" wght="-4.19039042146893" />
        <Con id="37" src="35" tgt="8" wght="5" />
        <Con id="40" src="2" tgt="39" wght="0.051591908235166795" />
        <Con id="41" src="39" tgt="6" wght="5" />
        <Con id="44" src="3" tgt="43" wght="2.9644490840386153" />
        <Con id="45" src="43" tgt="4" wght="5" />
        <Con id="51" src="3" tgt="50" wght="3.03980990319321" />
        <Con id="52" src="50" tgt="29" wght="5" />
        <Con id="56" src="43" tgt="29" wght="3.6516711451212682" />
        <Con id="69" src="0" tgt="68" wght="-0.063113682545701266" />
        <Con id="70" src="68" tgt="4" wght="5" />
        <Con id="72" src="43" tgt="71" wght="3.6516711451212682" />
        <Con id="73" src="71" tgt="29" wght="5" />
      </Connections>
    </Network>
  </Networks>
</Root>