<?xml version="1.0" encoding="utf-8"?>
<Root>
  <ActivationFunctions>
    <Fn id="0" name="Linear" prob="0.1" />
    <Fn id="1" name="Sine" prob="0.1" />
    <Fn id="2" name="ArcTan" prob="0.1" />
    <Fn id="3" name="BipolarGaussian" prob="0.1" />
    <Fn id="4" name="BipolarSigmoid" prob="0.1" />
    <Fn id="5" name="LogisticFunction" prob="0.1" />
    <Fn id="6" name="QuadraticSigmoid" prob="0.1" />
    <Fn id="7" name="TanH" prob="0.1" />
    <Fn id="8" name="ArcSinH" prob="0.1" />
    <Fn id="9" name="ReLU" prob="0.1" />
  </ActivationFunctions>
  <Networks>
    <Network id="0" birthGen="0" fitness="0">
      <Nodes>
        <Node type="bias" id="0" fnId="0" />
        <Node type="in" id="1" fnId="0" />
        <Node type="in" id="2" fnId="0" />
        <Node type="in" id="3" fnId="0" />
        <Node type="out" id="4" fnId="0" />
        <Node type="out" id="5" fnId="0" />
        <Node type="out" id="6" fnId="0" />
        <Node type="out" id="7" fnId="0" />
        <Node type="out" id="8" fnId="0" />
      </Nodes>
      <Connections>
        <Con id="9" src="0" tgt="4" wght="-0.545438477060477" />
        <Con id="10" src="0" tgt="5" wght="0.99345374286833321" />
        <Con id="11" src="0" tgt="6" wght="4.50543340517601" />
        <Con id="12" src="0" tgt="7" wght="-3.719619891709316" />
        <Con id="13" src="0" tgt="8" wght="4.3897237593460927" />
        <Con id="14" src="1" tgt="4" wght="-1.4434235279797503" />
        <Con id="15" src="1" tgt="5" wght="-4.4611701541561857" />
        <Con id="16" src="1" tgt="6" wght="2.0299280468920666" />
        <Con id="17" src="1" tgt="7" wght="-4.6262139944814864" />
        <Con id="18" src="1" tgt="8" wght="4.5329970865726743" />
        <Con id="19" src="2" tgt="4" wght="-2.8869132710415446" />
        <Con id="20" src="2" tgt="5" wght="0.33853733835415234" />
        <Con id="21" src="2" tgt="6" wght="2.2894143713728496" />
        <Con id="22" src="2" tgt="7" wght="1.969969555800134" />
        <Con id="23" src="2" tgt="8" wght="-3.4904866895047535" />
        <Con id="24" src="3" tgt="4" wght="0.24745481010567283" />
        <Con id="25" src="3" tgt="5" wght="2.5918895882093409" />
        <Con id="26" src="3" tgt="6" wght="4.5001222690224143" />
        <Con id="27" src="3" tgt="7" wght="-0.25450571329385441" />
        <Con id="28" src="3" tgt="8" wght="4.0277657971344105" />
      </Connections>
    </Network>
  </Networks>
</Root>