<?xml version="1.0" encoding="utf-8"?>
<Root>
  <ActivationFunctions>
    <Fn id="0" name="Linear" prob="0.1" />
    <Fn id="1" name="BipolarSigmoid" prob="0.3" />
    <Fn id="2" name="Gaussian" prob="0.3" />
    <Fn id="3" name="Sine" prob="0.3" />
  </ActivationFunctions>
  <Networks>
    <Network id="0" birthGen="0" fitness="0">
      <Nodes>
        <Node type="bias" id="0" fnId="0" />
        <Node type="in" id="1" fnId="0" />
        <Node type="in" id="2" fnId="0" />
        <Node type="in" id="3" fnId="0" />
        <Node type="out" id="4" fnId="0" />
        <Node type="out" id="5" fnId="0" />
        <Node type="out" id="6" fnId="0" />
        <Node type="out" id="7" fnId="0" />
        <Node type="out" id="8" fnId="0" />
      </Nodes>
      <Connections>
        <Con id="9" src="0" tgt="4" wght="-4.1327390627664107" />
        <Con id="10" src="0" tgt="5" wght="3.6893371079639858" />
        <Con id="12" src="0" tgt="7" wght="2.6121142898406644" />
        <Con id="13" src="0" tgt="8" wght="-4.1896282835680445" />
        <Con id="15" src="1" tgt="5" wght="-0.89767289275719864" />
        <Con id="16" src="1" tgt="6" wght="2.2659018137051046" />
        <Con id="17" src="1" tgt="7" wght="1.0487493587167818" />
        <Con id="18" src="1" tgt="8" wght="-3.0004469417734168" />
        <Con id="19" src="2" tgt="4" wght="4.8048379877903713" />
        <Con id="21" src="2" tgt="6" wght="-0.85861010436402263" />
        <Con id="22" src="2" tgt="7" wght="4.810794225574603" />
        <Con id="23" src="2" tgt="8" wght="3.81644696627594" />
        <Con id="25" src="3" tgt="5" wght="0.49703872421743567" />
        <Con id="26" src="3" tgt="6" wght="0.69955020492319164" />
        <Con id="27" src="3" tgt="7" wght="-4.4887833171364013" />
        <Con id="28" src="3" tgt="8" wght="2.0876764948870106" />
      </Connections>
    </Network>
  </Networks>
</Root>