<?xml version="1.0" encoding="utf-8"?>
<Root>
  <ActivationFunctions>
    <Fn id="0" name="Linear" prob="0.1" />
    <Fn id="1" name="Sine" prob="0.1" />
    <Fn id="2" name="ArcTan" prob="0.1" />
    <Fn id="3" name="BipolarGaussian" prob="0.1" />
    <Fn id="4" name="BipolarSigmoid" prob="0.1" />
    <Fn id="5" name="LogisticFunction" prob="0.1" />
    <Fn id="6" name="QuadraticSigmoid" prob="0.1" />
    <Fn id="7" name="TanH" prob="0.1" />
    <Fn id="8" name="ArcSinH" prob="0.1" />
    <Fn id="9" name="ReLU" prob="0.1" />
  </ActivationFunctions>
  <Networks>
    <Network id="0" birthGen="0" fitness="0">
      <Nodes>
        <Node type="bias" id="0" fnId="0" />
        <Node type="in" id="1" fnId="0" />
        <Node type="in" id="2" fnId="0" />
        <Node type="in" id="3" fnId="0" />
        <Node type="out" id="4" fnId="0" />
        <Node type="out" id="5" fnId="0" />
        <Node type="out" id="6" fnId="0" />
        <Node type="out" id="7" fnId="0" />
        <Node type="out" id="8" fnId="0" />
      </Nodes>
      <Connections>
        <Con id="9" src="0" tgt="4" wght="-3.178451386526111" />
        <Con id="10" src="0" tgt="5" wght="1.6666829897556168" />
        <Con id="11" src="0" tgt="6" wght="2.1906987582206594" />
        <Con id="12" src="0" tgt="7" wght="1.3803057124657314" />
        <Con id="13" src="0" tgt="8" wght="-2.4969215208431228" />
        <Con id="14" src="1" tgt="4" wght="-3.5389971899814077" />
        <Con id="15" src="1" tgt="5" wght="-4.8779859486381962" />
        <Con id="16" src="1" tgt="6" wght="-0.34270159580333637" />
        <Con id="17" src="1" tgt="7" wght="1.2453739739073411" />
        <Con id="18" src="1" tgt="8" wght="3.9284598844754082" />
        <Con id="19" src="2" tgt="4" wght="2.9997670667513976" />
        <Con id="20" src="2" tgt="5" wght="-0.80941788192291586" />
        <Con id="21" src="2" tgt="6" wght="4.1189236448330231" />
        <Con id="22" src="2" tgt="7" wght="-0.2013430256499249" />
        <Con id="23" src="2" tgt="8" wght="-4.2254904548033867" />
        <Con id="24" src="3" tgt="4" wght="3.1118394906811142" />
        <Con id="25" src="3" tgt="5" wght="-0.14458823180749758" />
        <Con id="26" src="3" tgt="6" wght="3.1054208855318666" />
        <Con id="27" src="3" tgt="7" wght="-2.0687121817443965" />
        <Con id="28" src="3" tgt="8" wght="-3.2268003461322845" />
      </Connections>
    </Network>
  </Networks>
</Root>