<?xml version="1.0" encoding="utf-8"?>
<Root>
  <ActivationFunctions>
    <Fn id="0" name="Linear" prob="0.1" />
    <Fn id="1" name="BipolarSigmoid" prob="0.3" />
    <Fn id="2" name="Gaussian" prob="0.3" />
    <Fn id="3" name="Sine" prob="0.3" />
  </ActivationFunctions>
  <Networks>
    <Network id="9" birthGen="1" fitness="0">
      <Nodes>
        <Node type="bias" id="0" fnId="0" />
        <Node type="in" id="1" fnId="0" />
        <Node type="in" id="2" fnId="0" />
        <Node type="in" id="3" fnId="0" />
        <Node type="out" id="4" fnId="0" />
        <Node type="out" id="5" fnId="0" />
        <Node type="out" id="6" fnId="0" />
        <Node type="out" id="7" fnId="0" />
        <Node type="out" id="8" fnId="0" />
      </Nodes>
      <Connections>
        <Con id="9" src="0" tgt="4" wght="1.9957885879200299" />
        <Con id="10" src="0" tgt="5" wght="-4.4518409549472073" />
        <Con id="11" src="0" tgt="6" wght="-1.5352646283186977" />
        <Con id="12" src="0" tgt="7" wght="-4.0017165134112584" />
        <Con id="13" src="0" tgt="8" wght="-4.1446339041228972" />
        <Con id="14" src="1" tgt="4" wght="2.2380513072458919" />
        <Con id="15" src="1" tgt="5" wght="4.1819652083648871" />
        <Con id="16" src="1" tgt="6" wght="-0.95407447886781349" />
        <Con id="17" src="1" tgt="7" wght="-1.0827811783333963" />
        <Con id="18" src="1" tgt="8" wght="3.2129143809181269" />
        <Con id="19" src="2" tgt="4" wght="4.6316788381339116" />
        <Con id="20" src="2" tgt="5" wght="4.503335153059834" />
        <Con id="21" src="2" tgt="6" wght="-4.3169162228017139" />
        <Con id="22" src="2" tgt="7" wght="1.699353011395236" />
        <Con id="23" src="2" tgt="8" wght="-3.5730241832245335" />
        <Con id="25" src="3" tgt="5" wght="-0.77397081921969813" />
        <Con id="26" src="3" tgt="6" wght="2.1623793314767781" />
        <Con id="27" src="3" tgt="7" wght="0.63725817837720689" />
        <Con id="28" src="3" tgt="8" wght="-1.1373428554094" />
      </Connections>
    </Network>
  </Networks>
</Root>