<?xml version="1.0" encoding="utf-8"?>
<Root>
  <ActivationFunctions>
    <Fn id="0" name="Linear" prob="0.1" />
    <Fn id="1" name="Sine" prob="0.1" />
    <Fn id="2" name="ArcTan" prob="0.1" />
    <Fn id="3" name="BipolarGaussian" prob="0.1" />
    <Fn id="4" name="BipolarSigmoid" prob="0.1" />
    <Fn id="5" name="LogisticFunction" prob="0.1" />
    <Fn id="6" name="QuadraticSigmoid" prob="0.1" />
    <Fn id="7" name="TanH" prob="0.1" />
    <Fn id="8" name="ArcSinH" prob="0.1" />
    <Fn id="9" name="ReLU" prob="0.1" />
  </ActivationFunctions>
  <Networks>
    <Network id="0" birthGen="0" fitness="0">
      <Nodes>
        <Node type="bias" id="0" fnId="0" />
        <Node type="in" id="1" fnId="0" />
        <Node type="in" id="2" fnId="0" />
        <Node type="in" id="3" fnId="0" />
        <Node type="out" id="4" fnId="0" />
        <Node type="out" id="5" fnId="0" />
        <Node type="out" id="6" fnId="0" />
        <Node type="out" id="7" fnId="0" />
        <Node type="out" id="8" fnId="0" />
      </Nodes>
      <Connections>
        <Con id="9" src="0" tgt="4" wght="-4.7166949111178873" />
        <Con id="10" src="0" tgt="5" wght="-2.2413373844892748" />
        <Con id="11" src="0" tgt="6" wght="-0.978217521622804" />
        <Con id="12" src="0" tgt="7" wght="0.14962736038957924" />
        <Con id="13" src="0" tgt="8" wght="-3.3799692145548113" />
        <Con id="14" src="1" tgt="4" wght="2.6525890059302681" />
        <Con id="15" src="1" tgt="5" wght="-0.660877210708849" />
        <Con id="16" src="1" tgt="6" wght="-3.12463356964662" />
        <Con id="17" src="1" tgt="7" wght="1.9933099680497957" />
        <Con id="18" src="1" tgt="8" wght="-0.66583761396688756" />
        <Con id="19" src="2" tgt="4" wght="0.56654999446100862" />
        <Con id="20" src="2" tgt="5" wght="0.48960779582021829" />
        <Con id="21" src="2" tgt="6" wght="-0.546390140832006" />
        <Con id="22" src="2" tgt="7" wght="1.2672240232112175" />
        <Con id="23" src="2" tgt="8" wght="0.79893828708949011" />
        <Con id="24" src="3" tgt="4" wght="1.2328114720607919" />
        <Con id="25" src="3" tgt="5" wght="-1.1482858254881567" />
        <Con id="26" src="3" tgt="6" wght="-3.488003674509057" />
        <Con id="27" src="3" tgt="7" wght="-4.8571835374042625" />
        <Con id="28" src="3" tgt="8" wght="3.4431803925182747" />
      </Connections>
    </Network>
  </Networks>
</Root>