<?xml version="1.0" encoding="utf-8"?>
<Root>
  <ActivationFunctions>
    <Fn id="0" name="Linear" prob="0.1" />
    <Fn id="1" name="Sine" prob="0.1" />
    <Fn id="2" name="ArcTan" prob="0.1" />
    <Fn id="3" name="BipolarGaussian" prob="0.1" />
    <Fn id="4" name="BipolarSigmoid" prob="0.1" />
    <Fn id="5" name="LogisticFunction" prob="0.1" />
    <Fn id="6" name="QuadraticSigmoid" prob="0.1" />
    <Fn id="7" name="TanH" prob="0.1" />
    <Fn id="8" name="ArcSinH" prob="0.1" />
    <Fn id="9" name="ReLU" prob="0.1" />
  </ActivationFunctions>
  <Networks>
    <Network id="2" birthGen="0" fitness="0">
      <Nodes>
        <Node type="bias" id="0" fnId="0" />
        <Node type="in" id="1" fnId="0" />
        <Node type="in" id="2" fnId="0" />
        <Node type="in" id="3" fnId="0" />
        <Node type="out" id="4" fnId="0" />
        <Node type="out" id="5" fnId="0" />
        <Node type="out" id="6" fnId="0" />
        <Node type="out" id="7" fnId="0" />
        <Node type="out" id="8" fnId="0" />
      </Nodes>
      <Connections>
        <Con id="9" src="0" tgt="4" wght="-0.33910862594354829" />
        <Con id="10" src="0" tgt="5" wght="0.3423629874823142" />
        <Con id="11" src="0" tgt="6" wght="-4.2876328161618691" />
        <Con id="12" src="0" tgt="7" wght="1.5218125834106511" />
        <Con id="13" src="0" tgt="8" wght="-3.5499654208217244" />
        <Con id="14" src="1" tgt="4" wght="-4.8439430555135132" />
        <Con id="15" src="1" tgt="5" wght="-2.7128305651581544" />
        <Con id="16" src="1" tgt="6" wght="2.5242709314030076" />
        <Con id="17" src="1" tgt="7" wght="2.11989219421112" />
        <Con id="18" src="1" tgt="8" wght="3.863287021866928" />
        <Con id="19" src="2" tgt="4" wght="2.9201091342141714" />
        <Con id="20" src="2" tgt="5" wght="-0.74780228698543283" />
        <Con id="21" src="2" tgt="6" wght="-4.655116260849713" />
        <Con id="22" src="2" tgt="7" wght="-4.2975062946956664" />
        <Con id="23" src="2" tgt="8" wght="-0.32205201042697085" />
        <Con id="24" src="3" tgt="4" wght="2.6414406980029117" />
        <Con id="25" src="3" tgt="5" wght="-4.4894262406142733" />
        <Con id="26" src="3" tgt="6" wght="-3.290057308674712" />
        <Con id="27" src="3" tgt="7" wght="2.6081695589099896" />
        <Con id="28" src="3" tgt="8" wght="-1.9219950367256711" />
      </Connections>
    </Network>
  </Networks>
</Root>