<?xml version="1.0" encoding="utf-8"?>
<Root>
  <ActivationFunctions>
    <Fn id="0" name="Linear" prob="0.1" />
    <Fn id="1" name="Sine" prob="0.1" />
    <Fn id="2" name="ArcTan" prob="0.1" />
    <Fn id="3" name="BipolarGaussian" prob="0.1" />
    <Fn id="4" name="BipolarSigmoid" prob="0.1" />
    <Fn id="5" name="LogisticFunction" prob="0.1" />
    <Fn id="6" name="QuadraticSigmoid" prob="0.1" />
    <Fn id="7" name="TanH" prob="0.1" />
    <Fn id="8" name="ArcSinH" prob="0.1" />
    <Fn id="9" name="ReLU" prob="0.1" />
  </ActivationFunctions>
  <Networks>
    <Network id="3" birthGen="0" fitness="0">
      <Nodes>
        <Node type="bias" id="0" fnId="0" />
        <Node type="in" id="1" fnId="0" />
        <Node type="in" id="2" fnId="0" />
        <Node type="in" id="3" fnId="0" />
        <Node type="out" id="4" fnId="0" />
        <Node type="out" id="5" fnId="0" />
        <Node type="out" id="6" fnId="0" />
        <Node type="out" id="7" fnId="0" />
        <Node type="out" id="8" fnId="0" />
      </Nodes>
      <Connections>
        <Con id="9" src="0" tgt="4" wght="-2.9092549539773369" />
        <Con id="10" src="0" tgt="5" wght="-2.0545850173114322" />
        <Con id="11" src="0" tgt="6" wght="1.5668231206167571" />
        <Con id="12" src="0" tgt="7" wght="-3.0337128630180707" />
        <Con id="13" src="0" tgt="8" wght="0.87014599089682121" />
        <Con id="14" src="1" tgt="4" wght="2.9522903343445597" />
        <Con id="15" src="1" tgt="5" wght="3.2483095524961083" />
        <Con id="16" src="1" tgt="6" wght="-0.21915340794540494" />
        <Con id="17" src="1" tgt="7" wght="3.9267895652799778" />
        <Con id="18" src="1" tgt="8" wght="0.18130007063733466" />
        <Con id="19" src="2" tgt="4" wght="0.93401603877695694" />
        <Con id="20" src="2" tgt="5" wght="2.538551105807787" />
        <Con id="21" src="2" tgt="6" wght="2.5521169480184236" />
        <Con id="22" src="2" tgt="7" wght="-3.7309510441978166" />
        <Con id="23" src="2" tgt="8" wght="-1.3843240269974166" />
        <Con id="24" src="3" tgt="4" wght="-1.8288969033943492" />
        <Con id="25" src="3" tgt="5" wght="1.3527703719483819" />
        <Con id="26" src="3" tgt="6" wght="-0.78240069302353943" />
        <Con id="27" src="3" tgt="7" wght="-4.5773088635772616" />
        <Con id="28" src="3" tgt="8" wght="4.3354109318503973" />
      </Connections>
    </Network>
  </Networks>
</Root>