<?xml version="1.0" encoding="utf-8"?>
<Root>
  <ActivationFunctions>
    <Fn id="0" name="Linear" prob="0.1" />
    <Fn id="1" name="Sine" prob="0.1" />
    <Fn id="2" name="ArcTan" prob="0.1" />
    <Fn id="3" name="BipolarGaussian" prob="0.1" />
    <Fn id="4" name="BipolarSigmoid" prob="0.1" />
    <Fn id="5" name="LogisticFunction" prob="0.1" />
    <Fn id="6" name="QuadraticSigmoid" prob="0.1" />
    <Fn id="7" name="TanH" prob="0.1" />
    <Fn id="8" name="ArcSinH" prob="0.1" />
    <Fn id="9" name="ReLU" prob="0.1" />
  </ActivationFunctions>
  <Networks>
    <Network id="5" birthGen="0" fitness="0">
      <Nodes>
        <Node type="bias" id="0" fnId="0" />
        <Node type="in" id="1" fnId="0" />
        <Node type="in" id="2" fnId="0" />
        <Node type="in" id="3" fnId="0" />
        <Node type="out" id="4" fnId="0" />
        <Node type="out" id="5" fnId="0" />
        <Node type="out" id="6" fnId="0" />
        <Node type="out" id="7" fnId="0" />
        <Node type="out" id="8" fnId="0" />
      </Nodes>
      <Connections>
        <Con id="9" src="0" tgt="4" wght="3.6119764274774679" />
        <Con id="10" src="0" tgt="5" wght="-2.1602594644164341" />
        <Con id="11" src="0" tgt="6" wght="-3.0507413546242459" />
        <Con id="12" src="0" tgt="7" wght="-1.9350970892713004" />
        <Con id="13" src="0" tgt="8" wght="4.8926184582007135" />
        <Con id="14" src="1" tgt="4" wght="-2.7420530260863449" />
        <Con id="15" src="1" tgt="5" wght="4.4418908847183065" />
        <Con id="16" src="1" tgt="6" wght="-1.7323472644521865" />
        <Con id="17" src="1" tgt="7" wght="-3.38947094499093" />
        <Con id="18" src="1" tgt="8" wght="2.4182949750930183" />
        <Con id="19" src="2" tgt="4" wght="4.3285900128783528" />
        <Con id="20" src="2" tgt="5" wght="4.2959611489094058" />
        <Con id="21" src="2" tgt="6" wght="-0.805363623894354" />
        <Con id="22" src="2" tgt="7" wght="3.9414194622371945" />
        <Con id="23" src="2" tgt="8" wght="2.2447859292764951" />
        <Con id="24" src="3" tgt="4" wght="4.4682435960456814" />
        <Con id="25" src="3" tgt="5" wght="-4.7476169022435" />
        <Con id="26" src="3" tgt="6" wght="-0.13668233374240391" />
        <Con id="27" src="3" tgt="7" wght="2.965184721972264" />
        <Con id="28" src="3" tgt="8" wght="3.564313138000462" />
      </Connections>
    </Network>
  </Networks>
</Root>