<?xml version="1.0" encoding="utf-8"?>
<Root>
  <ActivationFunctions>
    <Fn id="0" name="Linear" prob="0.1" />
    <Fn id="1" name="BipolarSigmoid" prob="0.3" />
    <Fn id="2" name="Gaussian" prob="0.3" />
    <Fn id="3" name="Sine" prob="0.3" />
  </ActivationFunctions>
  <Networks>
    <Network id="1" birthGen="0" fitness="0">
      <Nodes>
        <Node type="bias" id="0" fnId="0" />
        <Node type="in" id="1" fnId="0" />
        <Node type="in" id="2" fnId="0" />
        <Node type="in" id="3" fnId="0" />
        <Node type="out" id="4" fnId="0" />
        <Node type="out" id="5" fnId="0" />
        <Node type="out" id="6" fnId="0" />
        <Node type="out" id="7" fnId="0" />
        <Node type="out" id="8" fnId="0" />
      </Nodes>
      <Connections>
        <Con id="9" src="0" tgt="4" wght="-0.73943186700991759" />
        <Con id="11" src="0" tgt="6" wght="0.058300744834827167" />
        <Con id="12" src="0" tgt="7" wght="-2.8078566167339849" />
        <Con id="14" src="1" tgt="4" wght="-2.3099694695550732" />
        <Con id="15" src="1" tgt="5" wght="-0.23308692988021629" />
        <Con id="16" src="1" tgt="6" wght="1.0656671063141432" />
        <Con id="17" src="1" tgt="7" wght="1.6524535510943794" />
        <Con id="18" src="1" tgt="8" wght="2.2695895676866762" />
        <Con id="19" src="2" tgt="4" wght="3.23452506851017" />
        <Con id="20" src="2" tgt="5" wght="1.2926601971394247" />
        <Con id="22" src="2" tgt="7" wght="-2.4816395564751872" />
        <Con id="23" src="2" tgt="8" wght="3.1433111930104984" />
        <Con id="24" src="3" tgt="4" wght="-0.35228773752805975" />
        <Con id="25" src="3" tgt="5" wght="3.008231055272673" />
        <Con id="27" src="3" tgt="7" wght="2.7862702651058715" />
        <Con id="28" src="3" tgt="8" wght="-2.4409962039287225" />
      </Connections>
    </Network>
  </Networks>
</Root>