<?xml version="1.0" encoding="utf-8"?>
<Root>
  <ActivationFunctions>
    <Fn id="0" name="Linear" prob="0.1" />
    <Fn id="1" name="BipolarSigmoid" prob="0.3" />
    <Fn id="2" name="Gaussian" prob="0.3" />
    <Fn id="3" name="Sine" prob="0.3" />
  </ActivationFunctions>
  <Networks>
    <Network id="5" birthGen="0" fitness="0">
      <Nodes>
        <Node type="bias" id="0" fnId="0" />
        <Node type="in" id="1" fnId="0" />
        <Node type="in" id="2" fnId="0" />
        <Node type="in" id="3" fnId="0" />
        <Node type="out" id="4" fnId="0" />
        <Node type="out" id="5" fnId="0" />
        <Node type="out" id="6" fnId="0" />
        <Node type="out" id="7" fnId="0" />
        <Node type="out" id="8" fnId="0" />
      </Nodes>
      <Connections>
        <Con id="9" src="0" tgt="4" wght="2.23016464710354" />
        <Con id="10" src="0" tgt="5" wght="3.0222775266624566" />
        <Con id="11" src="0" tgt="6" wght="-2.1369494770380468" />
        <Con id="13" src="0" tgt="8" wght="2.7008057424793321" />
        <Con id="14" src="1" tgt="4" wght="-2.1833535149638239" />
        <Con id="15" src="1" tgt="5" wght="-0.78587530073955691" />
        <Con id="16" src="1" tgt="6" wght="0.38629833236862976" />
        <Con id="17" src="1" tgt="7" wght="4.7116044786203028" />
        <Con id="19" src="2" tgt="4" wght="4.6657322632019218" />
        <Con id="21" src="2" tgt="6" wght="-2.6563306922355223" />
        <Con id="22" src="2" tgt="7" wght="1.1948972763539445" />
        <Con id="23" src="2" tgt="8" wght="-1.6782475776008721" />
        <Con id="24" src="3" tgt="4" wght="-1.6372499554671904" />
        <Con id="25" src="3" tgt="5" wght="4.4914113539408209" />
        <Con id="26" src="3" tgt="6" wght="-1.7901062692485992" />
        <Con id="28" src="3" tgt="8" wght="2.6586554590508129" />
      </Connections>
    </Network>
  </Networks>
</Root>