<?xml version="1.0" encoding="utf-8"?>
<Root>
  <ActivationFunctions>
    <Fn id="0" name="Linear" prob="0.1" />
    <Fn id="1" name="Sine" prob="0.1" />
    <Fn id="2" name="ArcTan" prob="0.1" />
    <Fn id="3" name="BipolarGaussian" prob="0.1" />
    <Fn id="4" name="BipolarSigmoid" prob="0.1" />
    <Fn id="5" name="LogisticFunction" prob="0.1" />
    <Fn id="6" name="QuadraticSigmoid" prob="0.1" />
    <Fn id="7" name="TanH" prob="0.1" />
    <Fn id="8" name="ArcSinH" prob="0.1" />
    <Fn id="9" name="ReLU" prob="0.1" />
  </ActivationFunctions>
  <Networks>
    <Network id="0" birthGen="0" fitness="0">
      <Nodes>
        <Node type="bias" id="0" fnId="0" />
        <Node type="in" id="1" fnId="0" />
        <Node type="in" id="2" fnId="0" />
        <Node type="in" id="3" fnId="0" />
        <Node type="out" id="4" fnId="0" />
        <Node type="out" id="5" fnId="0" />
        <Node type="out" id="6" fnId="0" />
        <Node type="out" id="7" fnId="0" />
        <Node type="out" id="8" fnId="0" />
      </Nodes>
      <Connections>
        <Con id="9" src="0" tgt="4" wght="-2.6411446575063113" />
        <Con id="10" src="0" tgt="5" wght="-3.8574009401909839" />
        <Con id="11" src="0" tgt="6" wght="-2.497225866651708" />
        <Con id="12" src="0" tgt="7" wght="-1.3588204341584098" />
        <Con id="13" src="0" tgt="8" wght="1.114832803839102" />
        <Con id="14" src="1" tgt="4" wght="0.93480757191444219" />
        <Con id="16" src="1" tgt="6" wght="3.2973174449510925" />
        <Con id="17" src="1" tgt="7" wght="4.89741035273961" />
        <Con id="18" src="1" tgt="8" wght="2.0280100406082022" />
        <Con id="19" src="2" tgt="4" wght="4.9623155074389294" />
        <Con id="20" src="2" tgt="5" wght="-4.6028665387777226" />
        <Con id="21" src="2" tgt="6" wght="0.56707633596254414" />
        <Con id="22" src="2" tgt="7" wght="1.8438151059072538" />
        <Con id="23" src="2" tgt="8" wght="-1.3211308714829828" />
        <Con id="24" src="3" tgt="4" wght="-4.1146688082989336" />
        <Con id="25" src="3" tgt="5" wght="1.9556411751878877" />
        <Con id="26" src="3" tgt="6" wght="-1.7075481975895501" />
        <Con id="27" src="3" tgt="7" wght="-3.8070448227553277" />
        <Con id="28" src="3" tgt="8" wght="1.1430692251901187" />
      </Connections>
    </Network>
  </Networks>
</Root>