<?xml version="1.0" encoding="utf-8"?>
<Root>
  <ActivationFunctions>
    <Fn id="0" name="Linear" prob="0.1" />
    <Fn id="1" name="BipolarSigmoid" prob="0.3" />
    <Fn id="2" name="Gaussian" prob="0.3" />
    <Fn id="3" name="Sine" prob="0.3" />
  </ActivationFunctions>
  <Networks>
    <Network id="5" birthGen="0" fitness="0">
      <Nodes>
        <Node type="bias" id="0" fnId="0" />
        <Node type="in" id="1" fnId="0" />
        <Node type="in" id="2" fnId="0" />
        <Node type="in" id="3" fnId="0" />
        <Node type="out" id="4" fnId="0" />
        <Node type="out" id="5" fnId="0" />
        <Node type="out" id="6" fnId="0" />
        <Node type="out" id="7" fnId="0" />
        <Node type="out" id="8" fnId="0" />
      </Nodes>
      <Connections>
        <Con id="9" src="0" tgt="4" wght="3.8601371756286973" />
        <Con id="10" src="0" tgt="5" wght="-2.8947559992260063" />
        <Con id="11" src="0" tgt="6" wght="3.6309353577757451" />
        <Con id="12" src="0" tgt="7" wght="-0.35690185313604461" />
        <Con id="13" src="0" tgt="8" wght="-0.9661037238214254" />
        <Con id="14" src="1" tgt="4" wght="-0.81386232674755421" />
        <Con id="15" src="1" tgt="5" wght="3.1449359665146703" />
        <Con id="16" src="1" tgt="6" wght="-3.7683282781937422" />
        <Con id="17" src="1" tgt="7" wght="2.1462554840254655" />
        <Con id="18" src="1" tgt="8" wght="-1.2070013569994009" />
        <Con id="19" src="2" tgt="4" wght="-4.0243307437946561" />
        <Con id="20" src="2" tgt="5" wght="-0.26803161168883038" />
        <Con id="22" src="2" tgt="7" wght="3.62265994781822" />
        <Con id="23" src="2" tgt="8" wght="4.2158114455156435" />
        <Con id="27" src="3" tgt="7" wght="3.1821185064451885" />
        <Con id="28" src="3" tgt="8" wght="1.0008237467033565" />
      </Connections>
    </Network>
  </Networks>
</Root>