<?xml version="1.0" encoding="utf-8"?>
<Root>
  <ActivationFunctions>
    <Fn id="0" name="Linear" prob="0.1" />
    <Fn id="1" name="BipolarSigmoid" prob="0.3" />
    <Fn id="2" name="Gaussian" prob="0.3" />
    <Fn id="3" name="Sine" prob="0.3" />
  </ActivationFunctions>
  <Networks>
    <Network id="1" birthGen="0" fitness="0">
      <Nodes>
        <Node type="bias" id="0" fnId="0" />
        <Node type="in" id="1" fnId="0" />
        <Node type="in" id="2" fnId="0" />
        <Node type="in" id="3" fnId="0" />
        <Node type="out" id="4" fnId="0" />
        <Node type="out" id="5" fnId="0" />
        <Node type="out" id="6" fnId="0" />
        <Node type="out" id="7" fnId="0" />
        <Node type="out" id="8" fnId="0" />
      </Nodes>
      <Connections>
        <Con id="10" src="0" tgt="5" wght="0.2780622311586467" />
        <Con id="11" src="0" tgt="6" wght="1.3227793873193738" />
        <Con id="13" src="0" tgt="8" wght="-2.3066844331365277" />
        <Con id="14" src="1" tgt="4" wght="1.6723983906051965" />
        <Con id="15" src="1" tgt="5" wght="-2.5553618775441" />
        <Con id="16" src="1" tgt="6" wght="0.33996304342919781" />
        <Con id="17" src="1" tgt="7" wght="-4.2049818139415365" />
        <Con id="18" src="1" tgt="8" wght="-4.6350764330045386" />
        <Con id="19" src="2" tgt="4" wght="0.76966980418117559" />
        <Con id="20" src="2" tgt="5" wght="-2.2966301278408729" />
        <Con id="22" src="2" tgt="7" wght="1.9762092491353855" />
        <Con id="24" src="3" tgt="4" wght="1.9441853739696624" />
        <Con id="25" src="3" tgt="5" wght="2.0551675720815465" />
        <Con id="26" src="3" tgt="6" wght="-3.3094147651125159" />
        <Con id="27" src="3" tgt="7" wght="-4.3123779911619895" />
        <Con id="28" src="3" tgt="8" wght="0.11829100066455434" />
      </Connections>
    </Network>
  </Networks>
</Root>