<?xml version="1.0" encoding="utf-8"?>
<Root>
  <ActivationFunctions>
    <Fn id="0" name="Linear" prob="0.1" />
    <Fn id="1" name="BipolarSigmoid" prob="0.3" />
    <Fn id="2" name="Gaussian" prob="0.3" />
    <Fn id="3" name="Sine" prob="0.3" />
  </ActivationFunctions>
  <Networks>
    <Network id="4" birthGen="0" fitness="0">
      <Nodes>
        <Node type="bias" id="0" fnId="0" />
        <Node type="in" id="1" fnId="0" />
        <Node type="in" id="2" fnId="0" />
        <Node type="in" id="3" fnId="0" />
        <Node type="out" id="4" fnId="0" />
        <Node type="out" id="5" fnId="0" />
        <Node type="out" id="6" fnId="0" />
        <Node type="out" id="7" fnId="0" />
        <Node type="out" id="8" fnId="0" />
      </Nodes>
      <Connections>
        <Con id="9" src="0" tgt="4" wght="1.1128238381993105" />
        <Con id="10" src="0" tgt="5" wght="-3.4720901050098494" />
        <Con id="11" src="0" tgt="6" wght="4.7194486683819035" />
        <Con id="12" src="0" tgt="7" wght="4.0809404057182261" />
        <Con id="13" src="0" tgt="8" wght="0.25387991588959657" />
        <Con id="14" src="1" tgt="4" wght="2.8228625431841281" />
        <Con id="15" src="1" tgt="5" wght="4.9392054082516781" />
        <Con id="17" src="1" tgt="7" wght="-3.0521165661523106" />
        <Con id="18" src="1" tgt="8" wght="0.2197996494601262" />
        <Con id="20" src="2" tgt="5" wght="3.973622120776513" />
        <Con id="21" src="2" tgt="6" wght="0.65833976168610531" />
        <Con id="22" src="2" tgt="7" wght="2.6895311478073336" />
        <Con id="25" src="3" tgt="5" wght="-2.1325912196912267" />
        <Con id="26" src="3" tgt="6" wght="0.25825081585465037" />
        <Con id="27" src="3" tgt="7" wght="-4.8984380879766665" />
        <Con id="28" src="3" tgt="8" wght="3.9970881767229249" />
      </Connections>
    </Network>
  </Networks>
</Root>