<?xml version="1.0" encoding="utf-8"?>
<Root>
  <ActivationFunctions>
    <Fn id="0" name="Linear" prob="0.1" />
    <Fn id="1" name="BipolarSigmoid" prob="0.3" />
    <Fn id="2" name="Gaussian" prob="0.3" />
    <Fn id="3" name="Sine" prob="0.3" />
  </ActivationFunctions>
  <Networks>
    <Network id="0" birthGen="0" fitness="0">
      <Nodes>
        <Node type="bias" id="0" fnId="0" />
        <Node type="in" id="1" fnId="0" />
        <Node type="in" id="2" fnId="0" />
        <Node type="in" id="3" fnId="0" />
        <Node type="out" id="4" fnId="0" />
        <Node type="out" id="5" fnId="0" />
        <Node type="out" id="6" fnId="0" />
        <Node type="out" id="7" fnId="0" />
        <Node type="out" id="8" fnId="0" />
      </Nodes>
      <Connections>
        <Con id="9" src="0" tgt="4" wght="-4.9744675785174932" />
        <Con id="10" src="0" tgt="5" wght="2.9665293762847735" />
        <Con id="11" src="0" tgt="6" wght="1.797449407099575" />
        <Con id="12" src="0" tgt="7" wght="1.2715137105145902" />
        <Con id="13" src="0" tgt="8" wght="-2.6545670687266187" />
        <Con id="14" src="1" tgt="4" wght="-0.85673124403312761" />
        <Con id="15" src="1" tgt="5" wght="1.1737181712439637" />
        <Con id="17" src="1" tgt="7" wght="-4.1420461995383313" />
        <Con id="19" src="2" tgt="4" wght="2.3253694293154261" />
        <Con id="20" src="2" tgt="5" wght="4.1026824009927108" />
        <Con id="21" src="2" tgt="6" wght="4.7000334347189767" />
        <Con id="22" src="2" tgt="7" wght="3.0695006587352633" />
        <Con id="23" src="2" tgt="8" wght="0.25891973991489015" />
        <Con id="24" src="3" tgt="4" wght="-0.59037890405066906" />
        <Con id="27" src="3" tgt="7" wght="-3.6066345237160791" />
        <Con id="28" src="3" tgt="8" wght="-4.7448153743836183" />
      </Connections>
    </Network>
  </Networks>
</Root>