<?xml version="1.0" encoding="utf-8"?>
<Root>
  <ActivationFunctions>
    <Fn id="0" name="Linear" prob="0.1" />
    <Fn id="1" name="Sine" prob="0.1" />
    <Fn id="2" name="ArcTan" prob="0.1" />
    <Fn id="3" name="BipolarGaussian" prob="0.1" />
    <Fn id="4" name="BipolarSigmoid" prob="0.1" />
    <Fn id="5" name="LogisticFunction" prob="0.1" />
    <Fn id="6" name="QuadraticSigmoid" prob="0.1" />
    <Fn id="7" name="TanH" prob="0.1" />
    <Fn id="8" name="ArcSinH" prob="0.1" />
    <Fn id="9" name="ReLU" prob="0.1" />
  </ActivationFunctions>
  <Networks>
    <Network id="0" birthGen="0" fitness="0">
      <Nodes>
        <Node type="bias" id="0" fnId="0" />
        <Node type="in" id="1" fnId="0" />
        <Node type="in" id="2" fnId="0" />
        <Node type="in" id="3" fnId="0" />
        <Node type="out" id="4" fnId="0" />
        <Node type="out" id="5" fnId="0" />
        <Node type="out" id="6" fnId="0" />
        <Node type="out" id="7" fnId="0" />
        <Node type="out" id="8" fnId="0" />
      </Nodes>
      <Connections>
        <Con id="9" src="0" tgt="4" wght="2.8165054730591397" />
        <Con id="10" src="0" tgt="5" wght="3.8753774362105275" />
        <Con id="11" src="0" tgt="6" wght="-0.60517520394400726" />
        <Con id="12" src="0" tgt="7" wght="-4.6931814395239968" />
        <Con id="13" src="0" tgt="8" wght="-2.7927985614364115" />
        <Con id="14" src="1" tgt="4" wght="-0.58059458520877794" />
        <Con id="15" src="1" tgt="5" wght="3.1048634135891993" />
        <Con id="16" src="1" tgt="6" wght="0.59698818692177968" />
        <Con id="17" src="1" tgt="7" wght="-2.1498545977171881" />
        <Con id="18" src="1" tgt="8" wght="1.707088030461329" />
        <Con id="19" src="2" tgt="4" wght="-4.0280171283210429" />
        <Con id="20" src="2" tgt="5" wght="-0.011930841511678114" />
        <Con id="21" src="2" tgt="6" wght="-0.75438749519699866" />
        <Con id="22" src="2" tgt="7" wght="1.8025559702371496" />
        <Con id="23" src="2" tgt="8" wght="-0.71418049591281618" />
        <Con id="24" src="3" tgt="4" wght="-1.6970482984372703" />
        <Con id="25" src="3" tgt="5" wght="-0.11968927904959847" />
        <Con id="26" src="3" tgt="6" wght="2.7402537305469976" />
        <Con id="27" src="3" tgt="7" wght="-1.1546784713498248" />
        <Con id="28" src="3" tgt="8" wght="-0.90818879643766781" />
      </Connections>
    </Network>
  </Networks>
</Root>