<?xml version="1.0" encoding="utf-8"?>
<Root>
  <ActivationFunctions>
    <Fn id="0" name="Linear" prob="0.1" />
    <Fn id="1" name="BipolarSigmoid" prob="0.3" />
    <Fn id="2" name="Gaussian" prob="0.3" />
    <Fn id="3" name="Sine" prob="0.3" />
  </ActivationFunctions>
  <Networks>
    <Network id="3" birthGen="0" fitness="0">
      <Nodes>
        <Node type="bias" id="0" fnId="0" />
        <Node type="in" id="1" fnId="0" />
        <Node type="in" id="2" fnId="0" />
        <Node type="in" id="3" fnId="0" />
        <Node type="out" id="4" fnId="0" />
        <Node type="out" id="5" fnId="0" />
        <Node type="out" id="6" fnId="0" />
        <Node type="out" id="7" fnId="0" />
        <Node type="out" id="8" fnId="0" />
      </Nodes>
      <Connections>
        <Con id="9" src="0" tgt="4" wght="-0.29061309927319146" />
        <Con id="10" src="0" tgt="5" wght="2.8237607761941907" />
        <Con id="12" src="0" tgt="7" wght="1.8965708706306605" />
        <Con id="13" src="0" tgt="8" wght="1.6104193074750806" />
        <Con id="14" src="1" tgt="4" wght="0.98096500685519117" />
        <Con id="15" src="1" tgt="5" wght="-3.1562437360150741" />
        <Con id="16" src="1" tgt="6" wght="1.2924345574360807" />
        <Con id="18" src="1" tgt="8" wght="4.073916054748647" />
        <Con id="20" src="2" tgt="5" wght="2.5675968003190555" />
        <Con id="22" src="2" tgt="7" wght="-3.0065244483077169" />
        <Con id="23" src="2" tgt="8" wght="2.3880664898381996" />
        <Con id="24" src="3" tgt="4" wght="4.7518088460947636" />
        <Con id="25" src="3" tgt="5" wght="2.3765590497664588" />
        <Con id="26" src="3" tgt="6" wght="2.8762607029524645" />
        <Con id="27" src="3" tgt="7" wght="3.2569147205644056" />
        <Con id="28" src="3" tgt="8" wght="4.9662016454273585" />
      </Connections>
    </Network>
  </Networks>
</Root>