<?xml version="1.0" encoding="utf-8"?>
<Root>
  <ActivationFunctions>
    <Fn id="0" name="Linear" prob="0.1" />
    <Fn id="1" name="Sine" prob="0.1" />
    <Fn id="2" name="ArcTan" prob="0.1" />
    <Fn id="3" name="BipolarGaussian" prob="0.1" />
    <Fn id="4" name="BipolarSigmoid" prob="0.1" />
    <Fn id="5" name="LogisticFunction" prob="0.1" />
    <Fn id="6" name="QuadraticSigmoid" prob="0.1" />
    <Fn id="7" name="TanH" prob="0.1" />
    <Fn id="8" name="ArcSinH" prob="0.1" />
    <Fn id="9" name="ReLU" prob="0.1" />
  </ActivationFunctions>
  <Networks>
    <Network id="3" birthGen="0" fitness="0">
      <Nodes>
        <Node type="bias" id="0" fnId="0" />
        <Node type="in" id="1" fnId="0" />
        <Node type="in" id="2" fnId="0" />
        <Node type="in" id="3" fnId="0" />
        <Node type="out" id="4" fnId="0" />
        <Node type="out" id="5" fnId="0" />
        <Node type="out" id="6" fnId="0" />
        <Node type="out" id="7" fnId="0" />
        <Node type="out" id="8" fnId="0" />
      </Nodes>
      <Connections>
        <Con id="9" src="0" tgt="4" wght="-0.8601461096078844" />
        <Con id="10" src="0" tgt="5" wght="4.0896098597559751" />
        <Con id="11" src="0" tgt="6" wght="-1.2191692328911308" />
        <Con id="12" src="0" tgt="7" wght="-1.7216896131039772" />
        <Con id="13" src="0" tgt="8" wght="3.04484501081013" />
        <Con id="14" src="1" tgt="4" wght="4.88391932298712" />
        <Con id="15" src="1" tgt="5" wght="4.7104450936298523" />
        <Con id="16" src="1" tgt="6" wght="-3.8272467615833969" />
        <Con id="17" src="1" tgt="7" wght="-2.2709629886198881" />
        <Con id="18" src="1" tgt="8" wght="-2.5629221854443616" />
        <Con id="19" src="2" tgt="4" wght="-3.5003387167909783" />
        <Con id="20" src="2" tgt="5" wght="-2.5352513640224972" />
        <Con id="21" src="2" tgt="6" wght="2.4000197523660791" />
        <Con id="22" src="2" tgt="7" wght="-3.7591077058014912" />
        <Con id="23" src="2" tgt="8" wght="-4.59827189858102" />
        <Con id="24" src="3" tgt="4" wght="4.1710130940916024" />
        <Con id="25" src="3" tgt="5" wght="4.9916875729425474" />
        <Con id="26" src="3" tgt="6" wght="-3.1552786397400281" />
        <Con id="27" src="3" tgt="7" wght="-2.77495642446151" />
        <Con id="28" src="3" tgt="8" wght="2.478295343248579" />
      </Connections>
    </Network>
  </Networks>
</Root>