<?xml version="1.0" encoding="utf-8"?>
<Root>
  <ActivationFunctions>
    <Fn id="0" name="Linear" prob="0.1" />
    <Fn id="1" name="BipolarSigmoid" prob="0.3" />
    <Fn id="2" name="Gaussian" prob="0.3" />
    <Fn id="3" name="Sine" prob="0.3" />
  </ActivationFunctions>
  <Networks>
    <Network id="5" birthGen="0" fitness="0">
      <Nodes>
        <Node type="bias" id="0" fnId="0" />
        <Node type="in" id="1" fnId="0" />
        <Node type="in" id="2" fnId="0" />
        <Node type="in" id="3" fnId="0" />
        <Node type="out" id="4" fnId="0" />
        <Node type="out" id="5" fnId="0" />
        <Node type="out" id="6" fnId="0" />
        <Node type="out" id="7" fnId="0" />
        <Node type="out" id="8" fnId="0" />
      </Nodes>
      <Connections>
        <Con id="9" src="0" tgt="4" wght="-2.6160159222029202" />
        <Con id="11" src="0" tgt="6" wght="2.672682817854839" />
        <Con id="12" src="0" tgt="7" wght="0.29022094684751809" />
        <Con id="13" src="0" tgt="8" wght="-0.083677285579112359" />
        <Con id="14" src="1" tgt="4" wght="-0.39324282124259535" />
        <Con id="16" src="1" tgt="6" wght="-2.0835298437992531" />
        <Con id="17" src="1" tgt="7" wght="0.42307775983241092" />
        <Con id="18" src="1" tgt="8" wght="4.2272836819219251" />
        <Con id="19" src="2" tgt="4" wght="0.0696203300757603" />
        <Con id="21" src="2" tgt="6" wght="-1.1244837793402729" />
        <Con id="22" src="2" tgt="7" wght="2.9354458564014161" />
        <Con id="24" src="3" tgt="4" wght="0.20551889008197488" />
        <Con id="25" src="3" tgt="5" wght="-2.2601869356013449" />
        <Con id="26" src="3" tgt="6" wght="0.13239690587738107" />
        <Con id="27" src="3" tgt="7" wght="1.97748462871984" />
        <Con id="28" src="3" tgt="8" wght="-1.6445576761688574" />
      </Connections>
    </Network>
  </Networks>
</Root>