<?xml version="1.0" encoding="utf-8"?>
<Root>
  <ActivationFunctions>
    <Fn id="0" name="Linear" prob="0.1" />
    <Fn id="1" name="BipolarSigmoid" prob="0.3" />
    <Fn id="2" name="Gaussian" prob="0.3" />
    <Fn id="3" name="Sine" prob="0.3" />
  </ActivationFunctions>
  <Networks>
    <Network id="1" birthGen="0" fitness="0">
      <Nodes>
        <Node type="bias" id="0" fnId="0" />
        <Node type="in" id="1" fnId="0" />
        <Node type="in" id="2" fnId="0" />
        <Node type="in" id="3" fnId="0" />
        <Node type="out" id="4" fnId="0" />
        <Node type="out" id="5" fnId="0" />
        <Node type="out" id="6" fnId="0" />
        <Node type="out" id="7" fnId="0" />
        <Node type="out" id="8" fnId="0" />
      </Nodes>
      <Connections>
        <Con id="9" src="0" tgt="4" wght="-1.1826576951108225" />
        <Con id="10" src="0" tgt="5" wght="-0.062201708132064715" />
        <Con id="11" src="0" tgt="6" wght="2.2383478173460869" />
        <Con id="12" src="0" tgt="7" wght="2.6661836973297626" />
        <Con id="13" src="0" tgt="8" wght="1.3423548885586478" />
        <Con id="14" src="1" tgt="4" wght="3.2388019147794744" />
        <Con id="15" src="1" tgt="5" wght="3.3871964355728723" />
        <Con id="17" src="1" tgt="7" wght="-3.4027381232896579" />
        <Con id="18" src="1" tgt="8" wght="-4.2398012952409108" />
        <Con id="19" src="2" tgt="4" wght="4.9040246369914531" />
        <Con id="22" src="2" tgt="7" wght="2.2778038164823111" />
        <Con id="23" src="2" tgt="8" wght="-1.2417743470449127" />
        <Con id="24" src="3" tgt="4" wght="-1.1412568861124661" />
        <Con id="25" src="3" tgt="5" wght="-4.9491795785735659" />
        <Con id="26" src="3" tgt="6" wght="-1.7978920151184885" />
        <Con id="28" src="3" tgt="8" wght="4.3219640063264784" />
      </Connections>
    </Network>
  </Networks>
</Root>