<?xml version="1.0" encoding="utf-8"?>
<Root>
  <ActivationFunctions>
    <Fn id="0" name="Linear" prob="0.1" />
    <Fn id="1" name="Sine" prob="0.1" />
    <Fn id="2" name="ArcTan" prob="0.1" />
    <Fn id="3" name="BipolarGaussian" prob="0.1" />
    <Fn id="4" name="BipolarSigmoid" prob="0.1" />
    <Fn id="5" name="LogisticFunction" prob="0.1" />
    <Fn id="6" name="QuadraticSigmoid" prob="0.1" />
    <Fn id="7" name="TanH" prob="0.1" />
    <Fn id="8" name="ArcSinH" prob="0.1" />
    <Fn id="9" name="ReLU" prob="0.1" />
  </ActivationFunctions>
  <Networks>
    <Network id="0" birthGen="0" fitness="0">
      <Nodes>
        <Node type="bias" id="0" fnId="0" />
        <Node type="in" id="1" fnId="0" />
        <Node type="in" id="2" fnId="0" />
        <Node type="in" id="3" fnId="0" />
        <Node type="out" id="4" fnId="0" />
        <Node type="out" id="5" fnId="0" />
        <Node type="out" id="6" fnId="0" />
        <Node type="out" id="7" fnId="0" />
        <Node type="out" id="8" fnId="0" />
      </Nodes>
      <Connections>
        <Con id="9" src="0" tgt="4" wght="-4.79374462331989" />
        <Con id="10" src="0" tgt="5" wght="-4.9234247012436159" />
        <Con id="11" src="0" tgt="6" wght="1.2371949042683572" />
        <Con id="12" src="0" tgt="7" wght="2.4882508624088406" />
        <Con id="13" src="0" tgt="8" wght="3.9872563289465579" />
        <Con id="14" src="1" tgt="4" wght="-3.15711275926579" />
        <Con id="15" src="1" tgt="5" wght="-2.6207666206078528" />
        <Con id="16" src="1" tgt="6" wght="-3.7518179859541556" />
        <Con id="17" src="1" tgt="7" wght="4.3238203091712961" />
        <Con id="18" src="1" tgt="8" wght="-2.68981148388318" />
        <Con id="19" src="2" tgt="4" wght="0.57300879514585179" />
        <Con id="20" src="2" tgt="5" wght="-0.69383881359319721" />
        <Con id="21" src="2" tgt="6" wght="0.56689395243501917" />
        <Con id="22" src="2" tgt="7" wght="4.9200558589159442" />
        <Con id="23" src="2" tgt="8" wght="-2.2530806040514206" />
        <Con id="24" src="3" tgt="4" wght="0.45987181412735167" />
        <Con id="25" src="3" tgt="5" wght="-3.3635190892161972" />
        <Con id="26" src="3" tgt="6" wght="2.4230676078938931" />
        <Con id="27" src="3" tgt="7" wght="3.2420155089363965" />
        <Con id="28" src="3" tgt="8" wght="2.6200308491878213" />
      </Connections>
    </Network>
  </Networks>
</Root>