<?xml version="1.0" encoding="utf-8"?>
<Root>
  <ActivationFunctions>
    <Fn id="0" name="Linear" prob="0.1" />
    <Fn id="1" name="Sine" prob="0.1" />
    <Fn id="2" name="ArcTan" prob="0.1" />
    <Fn id="3" name="BipolarGaussian" prob="0.1" />
    <Fn id="4" name="BipolarSigmoid" prob="0.1" />
    <Fn id="5" name="LogisticFunction" prob="0.1" />
    <Fn id="6" name="QuadraticSigmoid" prob="0.1" />
    <Fn id="7" name="TanH" prob="0.1" />
    <Fn id="8" name="ArcSinH" prob="0.1" />
    <Fn id="9" name="ReLU" prob="0.1" />
  </ActivationFunctions>
  <Networks>
    <Network id="5" birthGen="0" fitness="0">
      <Nodes>
        <Node type="bias" id="0" fnId="0" />
        <Node type="in" id="1" fnId="0" />
        <Node type="in" id="2" fnId="0" />
        <Node type="in" id="3" fnId="0" />
        <Node type="out" id="4" fnId="0" />
        <Node type="out" id="5" fnId="0" />
        <Node type="out" id="6" fnId="0" />
        <Node type="out" id="7" fnId="0" />
        <Node type="out" id="8" fnId="0" />
      </Nodes>
      <Connections>
        <Con id="9" src="0" tgt="4" wght="-0.95816167583315792" />
        <Con id="10" src="0" tgt="5" wght="-1.4023933772145181" />
        <Con id="11" src="0" tgt="6" wght="-1.1764810108376644" />
        <Con id="12" src="0" tgt="7" wght="-4.875800358707771" />
        <Con id="13" src="0" tgt="8" wght="3.3048658443733423" />
        <Con id="14" src="1" tgt="4" wght="2.3646620330424617" />
        <Con id="15" src="1" tgt="5" wght="-1.8401420476468722" />
        <Con id="16" src="1" tgt="6" wght="0.293968989506308" />
        <Con id="17" src="1" tgt="7" wght="-4.8979545601109162" />
        <Con id="18" src="1" tgt="8" wght="2.1180357021693919" />
        <Con id="19" src="2" tgt="4" wght="-3.6359941249504466" />
        <Con id="20" src="2" tgt="5" wght="-3.4974851798468976" />
        <Con id="21" src="2" tgt="6" wght="-0.2113732814073277" />
        <Con id="22" src="2" tgt="7" wght="1.2920864955936684" />
        <Con id="23" src="2" tgt="8" wght="-3.8070178028569925" />
        <Con id="24" src="3" tgt="4" wght="2.3700012911938941" />
        <Con id="25" src="3" tgt="5" wght="4.2326976710456261" />
        <Con id="26" src="3" tgt="6" wght="-1.7055267619853853" />
        <Con id="28" src="3" tgt="8" wght="-1.6059237290502715" />
      </Connections>
    </Network>
  </Networks>
</Root>