<?xml version="1.0" encoding="utf-8"?>
<Root>
  <ActivationFunctions>
    <Fn id="0" name="Linear" prob="0.1" />
    <Fn id="1" name="Sine" prob="0.1" />
    <Fn id="2" name="ArcTan" prob="0.1" />
    <Fn id="3" name="BipolarGaussian" prob="0.1" />
    <Fn id="4" name="BipolarSigmoid" prob="0.1" />
    <Fn id="5" name="LogisticFunction" prob="0.1" />
    <Fn id="6" name="QuadraticSigmoid" prob="0.1" />
    <Fn id="7" name="TanH" prob="0.1" />
    <Fn id="8" name="ArcSinH" prob="0.1" />
    <Fn id="9" name="ReLU" prob="0.1" />
  </ActivationFunctions>
  <Networks>
    <Network id="3" birthGen="0" fitness="0">
      <Nodes>
        <Node type="bias" id="0" fnId="0" />
        <Node type="in" id="1" fnId="0" />
        <Node type="in" id="2" fnId="0" />
        <Node type="in" id="3" fnId="0" />
        <Node type="out" id="4" fnId="0" />
        <Node type="out" id="5" fnId="0" />
        <Node type="out" id="6" fnId="0" />
        <Node type="out" id="7" fnId="0" />
        <Node type="out" id="8" fnId="0" />
      </Nodes>
      <Connections>
        <Con id="9" src="0" tgt="4" wght="3.0023266117326033" />
        <Con id="10" src="0" tgt="5" wght="2.5034855450554359" />
        <Con id="11" src="0" tgt="6" wght="-3.7526939002033055" />
        <Con id="12" src="0" tgt="7" wght="-3.8740236177541556" />
        <Con id="13" src="0" tgt="8" wght="2.9174882132847735" />
        <Con id="14" src="1" tgt="4" wght="1.4886928238406016" />
        <Con id="15" src="1" tgt="5" wght="2.8385023217046559" />
        <Con id="16" src="1" tgt="6" wght="4.3177164008232873" />
        <Con id="17" src="1" tgt="7" wght="4.0661328589733863" />
        <Con id="18" src="1" tgt="8" wght="-1.9072435989624703" />
        <Con id="19" src="2" tgt="4" wght="-3.3124672927080745" />
        <Con id="20" src="2" tgt="5" wght="3.7392956129578616" />
        <Con id="21" src="2" tgt="6" wght="-4.72795548588794" />
        <Con id="22" src="2" tgt="7" wght="-3.854104750825841" />
        <Con id="23" src="2" tgt="8" wght="-1.956811613030266" />
        <Con id="24" src="3" tgt="4" wght="1.4733666654757638" />
        <Con id="25" src="3" tgt="5" wght="-1.5389779278250826" />
        <Con id="26" src="3" tgt="6" wght="0.18787163921612948" />
        <Con id="27" src="3" tgt="7" wght="4.34668416702027" />
        <Con id="28" src="3" tgt="8" wght="4.177971670746" />
      </Connections>
    </Network>
  </Networks>
</Root>