<?xml version="1.0" encoding="utf-8"?>
<Root>
  <ActivationFunctions>
    <Fn id="0" name="Linear" prob="0.1" />
    <Fn id="1" name="Sine" prob="0.1" />
    <Fn id="2" name="ArcTan" prob="0.1" />
    <Fn id="3" name="BipolarGaussian" prob="0.1" />
    <Fn id="4" name="BipolarSigmoid" prob="0.1" />
    <Fn id="5" name="LogisticFunction" prob="0.1" />
    <Fn id="6" name="QuadraticSigmoid" prob="0.1" />
    <Fn id="7" name="TanH" prob="0.1" />
    <Fn id="8" name="ArcSinH" prob="0.1" />
    <Fn id="9" name="ReLU" prob="0.1" />
  </ActivationFunctions>
  <Networks>
    <Network id="4" birthGen="0" fitness="0">
      <Nodes>
        <Node type="bias" id="0" fnId="0" />
        <Node type="in" id="1" fnId="0" />
        <Node type="in" id="2" fnId="0" />
        <Node type="in" id="3" fnId="0" />
        <Node type="out" id="4" fnId="0" />
        <Node type="out" id="5" fnId="0" />
        <Node type="out" id="6" fnId="0" />
        <Node type="out" id="7" fnId="0" />
        <Node type="out" id="8" fnId="0" />
      </Nodes>
      <Connections>
        <Con id="9" src="0" tgt="4" wght="3.93999086676595" />
        <Con id="10" src="0" tgt="5" wght="4.6586557820451731" />
        <Con id="11" src="0" tgt="6" wght="3.20145209457385" />
        <Con id="12" src="0" tgt="7" wght="-1.810868084585745" />
        <Con id="13" src="0" tgt="8" wght="2.5287673445103884" />
        <Con id="14" src="1" tgt="4" wght="-0.26415007704283289" />
        <Con id="15" src="1" tgt="5" wght="0.68310092502895325" />
        <Con id="16" src="1" tgt="6" wght="4.6044222169826075" />
        <Con id="17" src="1" tgt="7" wght="3.1393913102147151" />
        <Con id="18" src="1" tgt="8" wght="3.2437218005173794" />
        <Con id="19" src="2" tgt="4" wght="3.455479958717703" />
        <Con id="20" src="2" tgt="5" wght="-0.23675075869679763" />
        <Con id="21" src="2" tgt="6" wght="-1.0779394055985658" />
        <Con id="22" src="2" tgt="7" wght="-2.0177324610628689" />
        <Con id="23" src="2" tgt="8" wght="-2.9544513358188471" />
        <Con id="24" src="3" tgt="4" wght="-3.2232967646448438" />
        <Con id="25" src="3" tgt="5" wght="4.174583190826791" />
        <Con id="26" src="3" tgt="6" wght="0.045730712085285674" />
        <Con id="27" src="3" tgt="7" wght="1.6692465304690118" />
        <Con id="28" src="3" tgt="8" wght="1.6098490586145253" />
      </Connections>
    </Network>
  </Networks>
</Root>