<?xml version="1.0" encoding="utf-8"?>
<Root>
  <ActivationFunctions>
    <Fn id="0" name="Linear" prob="0.1" />
    <Fn id="1" name="BipolarSigmoid" prob="0.3" />
    <Fn id="2" name="Gaussian" prob="0.3" />
    <Fn id="3" name="Sine" prob="0.3" />
  </ActivationFunctions>
  <Networks>
    <Network id="4" birthGen="0" fitness="0">
      <Nodes>
        <Node type="bias" id="0" fnId="0" />
        <Node type="in" id="1" fnId="0" />
        <Node type="in" id="2" fnId="0" />
        <Node type="in" id="3" fnId="0" />
        <Node type="out" id="4" fnId="0" />
        <Node type="out" id="5" fnId="0" />
        <Node type="out" id="6" fnId="0" />
        <Node type="out" id="7" fnId="0" />
        <Node type="out" id="8" fnId="0" />
      </Nodes>
      <Connections>
        <Con id="9" src="0" tgt="4" wght="-3.0090567432807691" />
        <Con id="10" src="0" tgt="5" wght="1.5167679361933339" />
        <Con id="11" src="0" tgt="6" wght="2.2672170243883736" />
        <Con id="12" src="0" tgt="7" wght="4.1993389906688039" />
        <Con id="13" src="0" tgt="8" wght="3.0816565688769124" />
        <Con id="14" src="1" tgt="4" wght="2.8645865999261222" />
        <Con id="15" src="1" tgt="5" wght="1.1722426340784331" />
        <Con id="16" src="1" tgt="6" wght="2.6660037560708281" />
        <Con id="17" src="1" tgt="7" wght="-1.0536713666608466" />
        <Con id="18" src="1" tgt="8" wght="2.7543374497038253" />
        <Con id="20" src="2" tgt="5" wght="-0.86119332486925826" />
        <Con id="21" src="2" tgt="6" wght="1.3968792583574552" />
        <Con id="22" src="2" tgt="7" wght="-0.11401985606733556" />
        <Con id="24" src="3" tgt="4" wght="-0.1680886429643258" />
        <Con id="25" src="3" tgt="5" wght="2.7952215660973634" />
        <Con id="26" src="3" tgt="6" wght="-3.0750288384412983" />
      </Connections>
    </Network>
  </Networks>
</Root>