<?xml version="1.0" encoding="utf-8"?>
<Root>
  <ActivationFunctions>
    <Fn id="0" name="Linear" prob="0.1" />
    <Fn id="1" name="BipolarSigmoid" prob="0.3" />
    <Fn id="2" name="Gaussian" prob="0.3" />
    <Fn id="3" name="Sine" prob="0.3" />
  </ActivationFunctions>
  <Networks>
    <Network id="0" birthGen="0" fitness="0">
      <Nodes>
        <Node type="bias" id="0" fnId="0" />
        <Node type="in" id="1" fnId="0" />
        <Node type="in" id="2" fnId="0" />
        <Node type="in" id="3" fnId="0" />
        <Node type="out" id="4" fnId="0" />
        <Node type="out" id="5" fnId="0" />
        <Node type="out" id="6" fnId="0" />
        <Node type="out" id="7" fnId="0" />
        <Node type="out" id="8" fnId="0" />
      </Nodes>
      <Connections>
        <Con id="9" src="0" tgt="4" wght="2.1355614763492135" />
        <Con id="10" src="0" tgt="5" wght="-1.8338966730471595" />
        <Con id="12" src="0" tgt="7" wght="1.540554843809615" />
        <Con id="13" src="0" tgt="8" wght="3.2048285256536757" />
        <Con id="14" src="1" tgt="4" wght="3.3277792979063667" />
        <Con id="15" src="1" tgt="5" wght="2.8962110941859445" />
        <Con id="16" src="1" tgt="6" wght="-3.2209716967151838" />
        <Con id="17" src="1" tgt="7" wght="4.5227678072519426" />
        <Con id="18" src="1" tgt="8" wght="4.0008456905017056" />
        <Con id="20" src="2" tgt="5" wght="1.1523717184886062" />
        <Con id="21" src="2" tgt="6" wght="-4.7579868743968525" />
        <Con id="23" src="2" tgt="8" wght="3.9957904731133862" />
        <Con id="24" src="3" tgt="4" wght="3.4225602138507139" />
        <Con id="25" src="3" tgt="5" wght="-1.9519573184619787" />
        <Con id="26" src="3" tgt="6" wght="1.3976318995989745" />
        <Con id="27" src="3" tgt="7" wght="4.0750603929085747" />
      </Connections>
    </Network>
  </Networks>
</Root>