<?xml version="1.0" encoding="utf-8"?>
<Root>
  <ActivationFunctions>
    <Fn id="0" name="Linear" prob="0.1" />
    <Fn id="1" name="BipolarSigmoid" prob="0.3" />
    <Fn id="2" name="Gaussian" prob="0.3" />
    <Fn id="3" name="Sine" prob="0.3" />
  </ActivationFunctions>
  <Networks>
    <Network id="3" birthGen="0" fitness="0">
      <Nodes>
        <Node type="bias" id="0" fnId="0" />
        <Node type="in" id="1" fnId="0" />
        <Node type="in" id="2" fnId="0" />
        <Node type="in" id="3" fnId="0" />
        <Node type="out" id="4" fnId="0" />
        <Node type="out" id="5" fnId="0" />
        <Node type="out" id="6" fnId="0" />
        <Node type="out" id="7" fnId="0" />
        <Node type="out" id="8" fnId="0" />
      </Nodes>
      <Connections>
        <Con id="10" src="0" tgt="5" wght="3.4703783162769475" />
        <Con id="11" src="0" tgt="6" wght="3.5441698991068851" />
        <Con id="12" src="0" tgt="7" wght="-4.9401419305100962" />
        <Con id="14" src="1" tgt="4" wght="2.1795955747276619" />
        <Con id="15" src="1" tgt="5" wght="0.25179151803164657" />
        <Con id="16" src="1" tgt="6" wght="-1.1673582249427383" />
        <Con id="17" src="1" tgt="7" wght="3.5113351609149133" />
        <Con id="18" src="1" tgt="8" wght="4.7279913316645015" />
        <Con id="19" src="2" tgt="4" wght="-1.0086732625840333" />
        <Con id="20" src="2" tgt="5" wght="-2.8584652904984589" />
        <Con id="21" src="2" tgt="6" wght="1.5945428713698273" />
        <Con id="22" src="2" tgt="7" wght="-3.7854649268218941" />
        <Con id="24" src="3" tgt="4" wght="-3.9310691587558741" />
        <Con id="25" src="3" tgt="5" wght="3.0355906321901491" />
        <Con id="27" src="3" tgt="7" wght="-4.6928801636522834" />
        <Con id="28" src="3" tgt="8" wght="-0.59789487222143278" />
      </Connections>
    </Network>
  </Networks>
</Root>