<?xml version="1.0" encoding="utf-8"?>
<Root>
  <ActivationFunctions>
    <Fn id="0" name="Linear" prob="0.1" />
    <Fn id="1" name="BipolarSigmoid" prob="0.3" />
    <Fn id="2" name="Gaussian" prob="0.3" />
    <Fn id="3" name="Sine" prob="0.3" />
  </ActivationFunctions>
  <Networks>
    <Network id="2" birthGen="0" fitness="0">
      <Nodes>
        <Node type="bias" id="0" fnId="0" />
        <Node type="in" id="1" fnId="0" />
        <Node type="in" id="2" fnId="0" />
        <Node type="in" id="3" fnId="0" />
        <Node type="out" id="4" fnId="0" />
        <Node type="out" id="5" fnId="0" />
        <Node type="out" id="6" fnId="0" />
        <Node type="out" id="7" fnId="0" />
        <Node type="out" id="8" fnId="0" />
      </Nodes>
      <Connections>
        <Con id="9" src="0" tgt="4" wght="2.287373034372715" />
        <Con id="10" src="0" tgt="5" wght="1.5173964496266978" />
        <Con id="12" src="0" tgt="7" wght="3.1039823277111434" />
        <Con id="13" src="0" tgt="8" wght="4.7424259272709293" />
        <Con id="14" src="1" tgt="4" wght="-3.1903266935398653" />
        <Con id="15" src="1" tgt="5" wght="1.6238344630795132" />
        <Con id="16" src="1" tgt="6" wght="3.0686772939245821" />
        <Con id="17" src="1" tgt="7" wght="3.8588358831826364" />
        <Con id="20" src="2" tgt="5" wght="3.2770871379548105" />
        <Con id="21" src="2" tgt="6" wght="2.220008659302104" />
        <Con id="22" src="2" tgt="7" wght="1.8627225778684675" />
        <Con id="24" src="3" tgt="4" wght="-4.0892568482887937" />
        <Con id="25" src="3" tgt="5" wght="3.3745849663181824" />
        <Con id="26" src="3" tgt="6" wght="3.9533650831718825" />
        <Con id="27" src="3" tgt="7" wght="-1.1768853117925993" />
        <Con id="28" src="3" tgt="8" wght="-0.9270206165179995" />
      </Connections>
    </Network>
  </Networks>
</Root>