<?xml version="1.0" encoding="utf-8"?>
<Root>
  <ActivationFunctions>
    <Fn id="0" name="Linear" prob="0.1" />
    <Fn id="1" name="BipolarSigmoid" prob="0.3" />
    <Fn id="2" name="Gaussian" prob="0.3" />
    <Fn id="3" name="Sine" prob="0.3" />
  </ActivationFunctions>
  <Networks>
    <Network id="5" birthGen="0" fitness="0">
      <Nodes>
        <Node type="bias" id="0" fnId="0" />
        <Node type="in" id="1" fnId="0" />
        <Node type="in" id="2" fnId="0" />
        <Node type="in" id="3" fnId="0" />
        <Node type="out" id="4" fnId="0" />
        <Node type="out" id="5" fnId="0" />
        <Node type="out" id="6" fnId="0" />
        <Node type="out" id="7" fnId="0" />
        <Node type="out" id="8" fnId="0" />
      </Nodes>
      <Connections>
        <Con id="9" src="0" tgt="4" wght="-0.095476759738911676" />
        <Con id="10" src="0" tgt="5" wght="-4.64200229823777" />
        <Con id="11" src="0" tgt="6" wght="-1.2498214602245006" />
        <Con id="12" src="0" tgt="7" wght="-2.323195843411896" />
        <Con id="13" src="0" tgt="8" wght="0.51533495783716243" />
        <Con id="14" src="1" tgt="4" wght="-2.0350569274381272" />
        <Con id="15" src="1" tgt="5" wght="-0.59423384408894719" />
        <Con id="16" src="1" tgt="6" wght="0.49064487321332284" />
        <Con id="17" src="1" tgt="7" wght="2.3493452468563882" />
        <Con id="18" src="1" tgt="8" wght="2.5697066493772391" />
        <Con id="19" src="2" tgt="4" wght="4.1247290391408313" />
        <Con id="20" src="2" tgt="5" wght="0.54410282465624626" />
        <Con id="23" src="2" tgt="8" wght="-2.3794077795906943" />
        <Con id="24" src="3" tgt="4" wght="2.3686667952008102" />
        <Con id="25" src="3" tgt="5" wght="2.9536204540122144" />
        <Con id="27" src="3" tgt="7" wght="-2.2811898383111551" />
      </Connections>
    </Network>
  </Networks>
</Root>