<?xml version="1.0" encoding="utf-8"?>
<Root>
  <ActivationFunctions>
    <Fn id="0" name="Linear" prob="0.1" />
    <Fn id="1" name="BipolarSigmoid" prob="0.3" />
    <Fn id="2" name="Gaussian" prob="0.3" />
    <Fn id="3" name="Sine" prob="0.3" />
  </ActivationFunctions>
  <Networks>
    <Network id="4" birthGen="0" fitness="0">
      <Nodes>
        <Node type="bias" id="0" fnId="0" />
        <Node type="in" id="1" fnId="0" />
        <Node type="in" id="2" fnId="0" />
        <Node type="in" id="3" fnId="0" />
        <Node type="out" id="4" fnId="0" />
        <Node type="out" id="5" fnId="0" />
        <Node type="out" id="6" fnId="0" />
        <Node type="out" id="7" fnId="0" />
        <Node type="out" id="8" fnId="0" />
      </Nodes>
      <Connections>
        <Con id="9" src="0" tgt="4" wght="-2.1788950987646549" />
        <Con id="10" src="0" tgt="5" wght="0.99680971555398568" />
        <Con id="11" src="0" tgt="6" wght="-1.0657026033252759" />
        <Con id="12" src="0" tgt="7" wght="0.10135454470757921" />
        <Con id="13" src="0" tgt="8" wght="4.6592984823432184" />
        <Con id="15" src="1" tgt="5" wght="-0.39854006961006605" />
        <Con id="16" src="1" tgt="6" wght="0.59985748133346339" />
        <Con id="17" src="1" tgt="7" wght="2.2866246394975387" />
        <Con id="18" src="1" tgt="8" wght="-0.18004554008873241" />
        <Con id="19" src="2" tgt="4" wght="-0.44555536258575668" />
        <Con id="20" src="2" tgt="5" wght="0.26309813752199318" />
        <Con id="21" src="2" tgt="6" wght="2.3756144595529163" />
        <Con id="24" src="3" tgt="4" wght="-4.1027543777841444" />
        <Con id="25" src="3" tgt="5" wght="-4.47591153842407" />
        <Con id="26" src="3" tgt="6" wght="-3.737051197037399" />
        <Con id="28" src="3" tgt="8" wght="-2.150160774848203" />
      </Connections>
    </Network>
  </Networks>
</Root>