<?xml version="1.0" encoding="utf-8"?>
<Root>
  <ActivationFunctions>
    <Fn id="0" name="Linear" prob="0.1" />
    <Fn id="1" name="Sine" prob="0.1" />
    <Fn id="2" name="ArcTan" prob="0.1" />
    <Fn id="3" name="BipolarGaussian" prob="0.1" />
    <Fn id="4" name="BipolarSigmoid" prob="0.1" />
    <Fn id="5" name="LogisticFunction" prob="0.1" />
    <Fn id="6" name="QuadraticSigmoid" prob="0.1" />
    <Fn id="7" name="TanH" prob="0.1" />
    <Fn id="8" name="ArcSinH" prob="0.1" />
    <Fn id="9" name="ReLU" prob="0.1" />
  </ActivationFunctions>
  <Networks>
    <Network id="1" birthGen="0" fitness="0">
      <Nodes>
        <Node type="bias" id="0" fnId="0" />
        <Node type="in" id="1" fnId="0" />
        <Node type="in" id="2" fnId="0" />
        <Node type="in" id="3" fnId="0" />
        <Node type="out" id="4" fnId="0" />
        <Node type="out" id="5" fnId="0" />
        <Node type="out" id="6" fnId="0" />
        <Node type="out" id="7" fnId="0" />
        <Node type="out" id="8" fnId="0" />
      </Nodes>
      <Connections>
        <Con id="9" src="0" tgt="4" wght="-0.62935485933197755" />
        <Con id="10" src="0" tgt="5" wght="-0.86416799076205475" />
        <Con id="11" src="0" tgt="6" wght="4.818736609479811" />
        <Con id="12" src="0" tgt="7" wght="-3.7022924079047348" />
        <Con id="13" src="0" tgt="8" wght="0.22513479806202774" />
        <Con id="14" src="1" tgt="4" wght="-2.6179994440104903" />
        <Con id="15" src="1" tgt="5" wght="0.8762206678103035" />
        <Con id="16" src="1" tgt="6" wght="0.97413895861064526" />
        <Con id="17" src="1" tgt="7" wght="-3.3938055214985932" />
        <Con id="18" src="1" tgt="8" wght="-4.2372697572760707" />
        <Con id="19" src="2" tgt="4" wght="-2.1815999988388723" />
        <Con id="20" src="2" tgt="5" wght="2.0582659696502681" />
        <Con id="21" src="2" tgt="6" wght="-2.0784110732914174" />
        <Con id="22" src="2" tgt="7" wght="1.4533544315607783" />
        <Con id="23" src="2" tgt="8" wght="4.308970936364279" />
        <Con id="24" src="3" tgt="4" wght="0.76820739267021154" />
        <Con id="25" src="3" tgt="5" wght="0.23529590617605955" />
        <Con id="26" src="3" tgt="6" wght="2.5543601154391151" />
        <Con id="27" src="3" tgt="7" wght="-1.1443642366742302" />
        <Con id="28" src="3" tgt="8" wght="-2.4262332562925213" />
      </Connections>
    </Network>
  </Networks>
</Root>