<?xml version="1.0" encoding="utf-8"?>
<Root>
  <ActivationFunctions>
    <Fn id="0" name="Linear" prob="0.1" />
    <Fn id="1" name="Sine" prob="0.1" />
    <Fn id="2" name="ArcTan" prob="0.1" />
    <Fn id="3" name="BipolarGaussian" prob="0.1" />
    <Fn id="4" name="BipolarSigmoid" prob="0.1" />
    <Fn id="5" name="LogisticFunction" prob="0.1" />
    <Fn id="6" name="QuadraticSigmoid" prob="0.1" />
    <Fn id="7" name="TanH" prob="0.1" />
    <Fn id="8" name="ArcSinH" prob="0.1" />
    <Fn id="9" name="ReLU" prob="0.1" />
  </ActivationFunctions>
  <Networks>
    <Network id="1" birthGen="0" fitness="0">
      <Nodes>
        <Node type="bias" id="0" fnId="0" />
        <Node type="in" id="1" fnId="0" />
        <Node type="in" id="2" fnId="0" />
        <Node type="in" id="3" fnId="0" />
        <Node type="out" id="4" fnId="0" />
        <Node type="out" id="5" fnId="0" />
        <Node type="out" id="6" fnId="0" />
        <Node type="out" id="7" fnId="0" />
        <Node type="out" id="8" fnId="0" />
      </Nodes>
      <Connections>
        <Con id="9" src="0" tgt="4" wght="1.4345625052814071" />
        <Con id="10" src="0" tgt="5" wght="-4.0320886057693892" />
        <Con id="11" src="0" tgt="6" wght="0.89565244247461262" />
        <Con id="12" src="0" tgt="7" wght="1.3946411954658766" />
        <Con id="13" src="0" tgt="8" wght="-1.8654371878235143" />
        <Con id="14" src="1" tgt="4" wght="2.068486867440126" />
        <Con id="15" src="1" tgt="5" wght="-3.151754696897938" />
        <Con id="16" src="1" tgt="6" wght="-3.5595873944390553" />
        <Con id="17" src="1" tgt="7" wght="4.3974602163668033" />
        <Con id="18" src="1" tgt="8" wght="3.1711120209203161" />
        <Con id="19" src="2" tgt="4" wght="2.0183036816513669" />
        <Con id="20" src="2" tgt="5" wght="-2.7252574816141162" />
        <Con id="21" src="2" tgt="6" wght="3.7912024903428554" />
        <Con id="22" src="2" tgt="7" wght="0.79893843330500314" />
        <Con id="23" src="2" tgt="8" wght="3.42025986614611" />
        <Con id="24" src="3" tgt="4" wght="-1.1888858349245479" />
        <Con id="25" src="3" tgt="5" wght="-3.9216881147555749" />
        <Con id="26" src="3" tgt="6" wght="-3.7918959737728808" />
        <Con id="27" src="3" tgt="7" wght="2.4205724904351444" />
        <Con id="28" src="3" tgt="8" wght="-4.4471890467418715" />
      </Connections>
    </Network>
  </Networks>
</Root>