<?xml version="1.0" encoding="utf-8"?>
<Root>
  <ActivationFunctions>
    <Fn id="0" name="Linear" prob="0.1" />
    <Fn id="1" name="Sine" prob="0.1" />
    <Fn id="2" name="ArcTan" prob="0.1" />
    <Fn id="3" name="BipolarGaussian" prob="0.1" />
    <Fn id="4" name="BipolarSigmoid" prob="0.1" />
    <Fn id="5" name="LogisticFunction" prob="0.1" />
    <Fn id="6" name="QuadraticSigmoid" prob="0.1" />
    <Fn id="7" name="TanH" prob="0.1" />
    <Fn id="8" name="ArcSinH" prob="0.1" />
    <Fn id="9" name="ReLU" prob="0.1" />
  </ActivationFunctions>
  <Networks>
    <Network id="3" birthGen="0" fitness="0">
      <Nodes>
        <Node type="bias" id="0" fnId="0" />
        <Node type="in" id="1" fnId="0" />
        <Node type="in" id="2" fnId="0" />
        <Node type="in" id="3" fnId="0" />
        <Node type="out" id="4" fnId="0" />
        <Node type="out" id="5" fnId="0" />
        <Node type="out" id="6" fnId="0" />
        <Node type="out" id="7" fnId="0" />
        <Node type="out" id="8" fnId="0" />
      </Nodes>
      <Connections>
        <Con id="9" src="0" tgt="4" wght="0.57264224951143028" />
        <Con id="10" src="0" tgt="5" wght="4.77129272014194" />
        <Con id="11" src="0" tgt="6" wght="4.5521393534344448" />
        <Con id="12" src="0" tgt="7" wght="-3.1701802203588803" />
        <Con id="13" src="0" tgt="8" wght="-4.3406405412739009" />
        <Con id="14" src="1" tgt="4" wght="-3.0962036709254348" />
        <Con id="15" src="1" tgt="5" wght="1.65598313987956" />
        <Con id="16" src="1" tgt="6" wght="-4.5605334026917586" />
        <Con id="17" src="1" tgt="7" wght="1.5548082902825111" />
        <Con id="18" src="1" tgt="8" wght="2.5095879250590611" />
        <Con id="19" src="2" tgt="4" wght="-0.82123211429074194" />
        <Con id="20" src="2" tgt="5" wght="-3.2937916572965245" />
        <Con id="21" src="2" tgt="6" wght="-4.0909216276807836" />
        <Con id="22" src="2" tgt="7" wght="-4.6777745758266711" />
        <Con id="23" src="2" tgt="8" wght="2.80470408823693" />
        <Con id="24" src="3" tgt="4" wght="-1.1647122509192243" />
        <Con id="25" src="3" tgt="5" wght="-3.5073994717955168" />
        <Con id="26" src="3" tgt="6" wght="-4.0080846988091379" />
        <Con id="27" src="3" tgt="7" wght="4.46881475507058" />
        <Con id="28" src="3" tgt="8" wght="3.378828114857396" />
      </Connections>
    </Network>
  </Networks>
</Root>