<?xml version="1.0" encoding="utf-8"?>
<Root>
  <ActivationFunctions>
    <Fn id="0" name="Linear" prob="0.1" />
    <Fn id="1" name="BipolarSigmoid" prob="0.3" />
    <Fn id="2" name="Gaussian" prob="0.3" />
    <Fn id="3" name="Sine" prob="0.3" />
  </ActivationFunctions>
  <Networks>
    <Network id="3" birthGen="0" fitness="0">
      <Nodes>
        <Node type="bias" id="0" fnId="0" />
        <Node type="in" id="1" fnId="0" />
        <Node type="in" id="2" fnId="0" />
        <Node type="in" id="3" fnId="0" />
        <Node type="out" id="4" fnId="0" />
        <Node type="out" id="5" fnId="0" />
        <Node type="out" id="6" fnId="0" />
        <Node type="out" id="7" fnId="0" />
        <Node type="out" id="8" fnId="0" />
      </Nodes>
      <Connections>
        <Con id="9" src="0" tgt="4" wght="3.5591199874893142" />
        <Con id="10" src="0" tgt="5" wght="-0.55790700233162571" />
        <Con id="13" src="0" tgt="8" wght="2.7225675417761885" />
        <Con id="15" src="1" tgt="5" wght="-2.2597115850939318" />
        <Con id="17" src="1" tgt="7" wght="1.1978759575053166" />
        <Con id="18" src="1" tgt="8" wght="-4.8659150076631006" />
        <Con id="19" src="2" tgt="4" wght="4.7243796179331321" />
        <Con id="20" src="2" tgt="5" wght="0.13860679000454845" />
        <Con id="21" src="2" tgt="6" wght="3.4896319857677751" />
        <Con id="22" src="2" tgt="7" wght="-0.36496868005135075" />
        <Con id="23" src="2" tgt="8" wght="-2.020626308419744" />
        <Con id="24" src="3" tgt="4" wght="-4.836677471852652" />
        <Con id="25" src="3" tgt="5" wght="0.37152594433931707" />
        <Con id="26" src="3" tgt="6" wght="0.88496927607316311" />
        <Con id="27" src="3" tgt="7" wght="-2.4106849644329498" />
        <Con id="28" src="3" tgt="8" wght="-4.1587208813774978" />
      </Connections>
    </Network>
  </Networks>
</Root>