<?xml version="1.0" encoding="utf-8"?>
<Root>
  <ActivationFunctions>
    <Fn id="0" name="Linear" prob="0.1" />
    <Fn id="1" name="BipolarSigmoid" prob="0.3" />
    <Fn id="2" name="Gaussian" prob="0.3" />
    <Fn id="3" name="Sine" prob="0.3" />
  </ActivationFunctions>
  <Networks>
    <Network id="0" birthGen="0" fitness="0">
      <Nodes>
        <Node type="bias" id="0" fnId="0" />
        <Node type="in" id="1" fnId="0" />
        <Node type="in" id="2" fnId="0" />
        <Node type="in" id="3" fnId="0" />
        <Node type="out" id="4" fnId="0" />
        <Node type="out" id="5" fnId="0" />
        <Node type="out" id="6" fnId="0" />
        <Node type="out" id="7" fnId="0" />
        <Node type="out" id="8" fnId="0" />
      </Nodes>
      <Connections>
        <Con id="9" src="0" tgt="4" wght="-2.2708505550083933" />
        <Con id="10" src="0" tgt="5" wght="-2.4402200310386188" />
        <Con id="11" src="0" tgt="6" wght="-4.86749655012066" />
        <Con id="12" src="0" tgt="7" wght="3.5770690265845593" />
        <Con id="13" src="0" tgt="8" wght="1.9155584132436876" />
        <Con id="14" src="1" tgt="4" wght="-3.1072144125658649" />
        <Con id="15" src="1" tgt="5" wght="-3.1398094076205805" />
        <Con id="16" src="1" tgt="6" wght="-4.8783839692580289" />
        <Con id="20" src="2" tgt="5" wght="4.3078466439588325" />
        <Con id="22" src="2" tgt="7" wght="1.7576505791199504" />
        <Con id="23" src="2" tgt="8" wght="-4.523431068021595" />
        <Con id="24" src="3" tgt="4" wght="-4.7809122057308855" />
        <Con id="25" src="3" tgt="5" wght="-3.922576077234663" />
        <Con id="26" src="3" tgt="6" wght="-2.7087307444869824" />
        <Con id="27" src="3" tgt="7" wght="-0.92749659450541588" />
        <Con id="28" src="3" tgt="8" wght="-2.1589718519275927" />
      </Connections>
    </Network>
  </Networks>
</Root>